digraph Tree {
node [shape=box, style="filled, rounded", color="black", fontname="helvetica"] ;
edge [fontname="helvetica"] ;
0 [label=<Row Number &le; 0.843<br/>gini = 0.769<br/>samples = 18780<br/>value = [7733, 10, 191, 634, 1977, 3517, 806, 932, 1497, 78<br/>930, 475]<br/>class = A>, fillcolor="#f8dcc8"] ;
1 [label=<Intercolumnar Distance &le; -0.073<br/>gini = 0.741<br/>samples = 17483<br/>value = [7733, 10, 191, 634, 1977, 3517, 806, 932, 200, 78<br/>930, 475]<br/>class = A>, fillcolor="#f7d9c3"] ;
0 -> 1 [labeldistance=2.5, labelangle=45, headlabel="True"] ;
2 [label=<Peak Number &le; 1.358<br/>gini = 0.828<br/>samples = 5999<br/>value = [1276, 10, 117, 563, 1681, 712, 137, 159, 46, 78<br/>824, 396]<br/>class = E>, fillcolor="#eefdf4"] ;
1 -> 2 ;
3 [label=<Row Number &le; 0.396<br/>gini = 0.81<br/>samples = 5318<br/>value = [1276, 6, 117, 558, 1635, 712, 131, 157, 39, 78<br/>285, 324]<br/>class = E>, fillcolor="#edfdf4"] ;
2 -> 3 ;
4 [label=<Peak Number &le; 0.428<br/>gini = 0.789<br/>samples = 4990<br/>value = [1276, 6, 117, 558, 1635, 712, 131, 157, 39, 78<br/>242, 39]<br/>class = E>, fillcolor="#ecfcf3"] ;
3 -> 4 ;
5 [label=<Intercolumnar Distance &le; -1.548<br/>gini = 0.782<br/>samples = 3365<br/>value = [1158, 0, 86, 431, 660, 690, 63, 61, 24, 63, 98<br/>31]<br/>class = A>, fillcolor="#fae9dc"] ;
4 -> 5 ;
6 [label=<Exploitation &le; 1.042<br/>gini = 0.59<br/>samples = 691<br/>value = [430, 0, 18, 3, 50, 71, 0, 18, 24, 23, 27, 27]<br/>class = A>, fillcolor="#f0b68c"] ;
5 -> 6 ;
7 [label=<Row Number &le; 0.038<br/>gini = 0.545<br/>samples = 652<br/>value = [429, 0, 18, 3, 46, 71, 0, 18, 24, 16, 0, 27]<br/>class = A>, fillcolor="#efb185"] ;
6 -> 7 ;
8 [label=<Lower Margin &le; 0.364<br/>gini = 0.492<br/>samples = 599<br/>value = [420, 0, 18, 3, 46, 45, 0, 0, 24, 16, 0, 27]<br/>class = A>, fillcolor="#edaa79"] ;
7 -> 8 ;
9 [label=<Interlinear Spacing &le; -0.365<br/>gini = 0.351<br/>samples = 424<br/>value = [339, 0, 7, 3, 4, 20, 0, 0, 24, 0, 0, 27]<br/>class = A>, fillcolor="#eb9c63"] ;
8 -> 9 ;
10 [label=<Interlinear Spacing &le; -2.007<br/>gini = 0.664<br/>samples = 113<br/>value = [57, 0, 0, 3, 0, 10, 0, 0, 20, 0, 0, 23]<br/>class = A>, fillcolor="#f5cfb4"] ;
9 -> 10 ;
11 [label=<Weight &le; 1.917<br/>gini = 0.364<br/>samples = 69<br/>value = [54, 0, 0, 3, 0, 10, 0, 0, 2, 0, 0, 0]<br/>class = A>, fillcolor="#eca16b"] ;
10 -> 11 ;
12 [label=<Exploitation &le; -3.944<br/>gini = 0.073<br/>samples = 53<br/>value = [51, 0, 0, 0, 0, 0, 0, 0, 2, 0, 0, 0]<br/>class = A>, fillcolor="#e68641"] ;
11 -> 12 ;
13 [label=<Interlinear Spacing &le; -7.462<br/>gini = 0.48<br/>samples = 5<br/>value = [3, 0, 0, 0, 0, 0, 0, 0, 2, 0, 0, 0]<br/>class = A>, fillcolor="#f6d5bd"] ;
12 -> 13 ;
14 [label=<gini = 0.0<br/>samples = 2<br/>value = [0, 0, 0, 0, 0, 0, 0, 0, 2, 0, 0, 0]<br/>class = I>, fillcolor="#8139e5"] ;
13 -> 14 ;
15 [label=<gini = 0.0<br/>samples = 3<br/>value = [3, 0, 0, 0, 0, 0, 0, 0, 0, 0, 0, 0]<br/>class = A>, fillcolor="#e58139"] ;
13 -> 15 ;
16 [label=<gini = 0.0<br/>samples = 48<br/>value = [48, 0, 0, 0, 0, 0, 0, 0, 0, 0, 0, 0]<br/>class = A>, fillcolor="#e58139"] ;
12 -> 16 ;
17 [label=<Upper Margin &le; 2.504<br/>gini = 0.539<br/>samples = 16<br/>value = [3, 0, 0, 3, 0, 10, 0, 0, 0, 0, 0, 0]<br/>class = F>, fillcolor="#94f1e9"] ;
11 -> 17 ;
18 [label=<gini = 0.0<br/>samples = 10<br/>value = [0, 0, 0, 0, 0, 10, 0, 0, 0, 0, 0, 0]<br/>class = F>, fillcolor="#39e5d7"] ;
17 -> 18 ;
19 [label=<Modular Ratio &le; -2.426<br/>gini = 0.5<br/>samples = 6<br/>value = [3, 0, 0, 3, 0, 0, 0, 0, 0, 0, 0, 0]<br/>class = A>, fillcolor="#ffffff"] ;
17 -> 19 ;
20 [label=<gini = 0.0<br/>samples = 3<br/>value = [3, 0, 0, 0, 0, 0, 0, 0, 0, 0, 0, 0]<br/>class = A>, fillcolor="#e58139"] ;
19 -> 20 ;
21 [label=<gini = 0.0<br/>samples = 3<br/>value = [0, 0, 0, 3, 0, 0, 0, 0, 0, 0, 0, 0]<br/>class = D>, fillcolor="#47e539"] ;
19 -> 21 ;
22 [label=<Upper Margin &le; 0.533<br/>gini = 0.555<br/>samples = 44<br/>value = [3, 0, 0, 0, 0, 0, 0, 0, 18, 0, 0, 23]<br/>class = Y>, fillcolor="#fad9dc"] ;
10 -> 22 ;
23 [label=<Lower Margin &le; 0.168<br/>gini = 0.245<br/>samples = 21<br/>value = [3, 0, 0, 0, 0, 0, 0, 0, 18, 0, 0, 0]<br/>class = I>, fillcolor="#965ae9"] ;
22 -> 23 ;
24 [label=<gini = 0.0<br/>samples = 18<br/>value = [0, 0, 0, 0, 0, 0, 0, 0, 18, 0, 0, 0]<br/>class = I>, fillcolor="#8139e5"] ;
23 -> 24 ;
25 [label=<gini = 0.0<br/>samples = 3<br/>value = [3, 0, 0, 0, 0, 0, 0, 0, 0, 0, 0, 0]<br/>class = A>, fillcolor="#e58139"] ;
23 -> 25 ;
26 [label=<gini = 0.0<br/>samples = 23<br/>value = [0, 0, 0, 0, 0, 0, 0, 0, 0, 0, 0, 23]<br/>class = Y>, fillcolor="#e53947"] ;
22 -> 26 ;
27 [label=<Upper Margin &le; 14.112<br/>gini = 0.176<br/>samples = 311<br/>value = [282, 0, 7, 0, 4, 10, 0, 0, 4, 0, 0, 4]<br/>class = A>, fillcolor="#e88d4c"] ;
9 -> 27 ;
28 [label=<Weight &le; 1.662<br/>gini = 0.14<br/>samples = 299<br/>value = [277, 0, 0, 0, 4, 10, 0, 0, 4, 0, 0, 4]<br/>class = A>, fillcolor="#e78b48"] ;
27 -> 28 ;
29 [label=<Interlinear Spacing &le; 1.202<br/>gini = 0.091<br/>samples = 276<br/>value = [263, 0, 0, 0, 4, 1, 0, 0, 4, 0, 0, 4]<br/>class = A>, fillcolor="#e68742"] ;
28 -> 29 ;
30 [label=<Modular Ratio &le; -1.118<br/>gini = 0.058<br/>samples = 269<br/>value = [261, 0, 0, 0, 3, 1, 0, 0, 3, 0, 0, 1]<br/>class = A>, fillcolor="#e6853f"] ;
29 -> 30 ;
31 [label=<Peak Number &le; -0.996<br/>gini = 0.296<br/>samples = 30<br/>value = [25, 0, 0, 0, 2, 1, 0, 0, 2, 0, 0, 0]<br/>class = A>, fillcolor="#ea985c"] ;
30 -> 31 ;
32 [label=<Weight &le; 1.269<br/>gini = 0.14<br/>samples = 27<br/>value = [25, 0, 0, 0, 0, 1, 0, 0, 1, 0, 0, 0]<br/>class = A>, fillcolor="#e78b48"] ;
31 -> 32 ;
33 [label=<Interlinear Spacing &le; 0.881<br/>gini = 0.074<br/>samples = 26<br/>value = [25, 0, 0, 0, 0, 0, 0, 0, 1, 0, 0, 0]<br/>class = A>, fillcolor="#e68641"] ;
32 -> 33 ;
34 [label=<gini = 0.0<br/>samples = 24<br/>value = [24, 0, 0, 0, 0, 0, 0, 0, 0, 0, 0, 0]<br/>class = A>, fillcolor="#e58139"] ;
33 -> 34 ;
35 [label=<Weight &le; -1.275<br/>gini = 0.5<br/>samples = 2<br/>value = [1, 0, 0, 0, 0, 0, 0, 0, 1, 0, 0, 0]<br/>class = A>, fillcolor="#ffffff"] ;
33 -> 35 ;
36 [label=<gini = 0.0<br/>samples = 1<br/>value = [0, 0, 0, 0, 0, 0, 0, 0, 1, 0, 0, 0]<br/>class = I>, fillcolor="#8139e5"] ;
35 -> 36 ;
37 [label=<gini = 0.0<br/>samples = 1<br/>value = [1, 0, 0, 0, 0, 0, 0, 0, 0, 0, 0, 0]<br/>class = A>, fillcolor="#e58139"] ;
35 -> 37 ;
38 [label=<gini = 0.0<br/>samples = 1<br/>value = [0, 0, 0, 0, 0, 1, 0, 0, 0, 0, 0, 0]<br/>class = F>, fillcolor="#39e5d7"] ;
32 -> 38 ;
39 [label=<Modular Ratio &le; -1.844<br/>gini = 0.444<br/>samples = 3<br/>value = [0, 0, 0, 0, 2, 0, 0, 0, 1, 0, 0, 0]<br/>class = E>, fillcolor="#9cf2c0"] ;
31 -> 39 ;
40 [label=<gini = 0.0<br/>samples = 1<br/>value = [0, 0, 0, 0, 0, 0, 0, 0, 1, 0, 0, 0]<br/>class = I>, fillcolor="#8139e5"] ;
39 -> 40 ;
41 [label=<gini = 0.0<br/>samples = 2<br/>value = [0, 0, 0, 0, 2, 0, 0, 0, 0, 0, 0, 0]<br/>class = E>, fillcolor="#39e581"] ;
39 -> 41 ;
42 [label=<Interlinear Spacing &le; 0.843<br/>gini = 0.025<br/>samples = 239<br/>value = [236, 0, 0, 0, 1, 0, 0, 0, 1, 0, 0, 1]<br/>class = A>, fillcolor="#e5833b"] ;
30 -> 42 ;
43 [label=<Weight &le; -1.341<br/>gini = 0.017<br/>samples = 229<br/>value = [227, 0, 0, 0, 1, 0, 0, 0, 1, 0, 0, 0]<br/>class = A>, fillcolor="#e5823b"] ;
42 -> 43 ;
44 [label=<Weight &le; -1.405<br/>gini = 0.165<br/>samples = 11<br/>value = [10, 0, 0, 0, 0, 0, 0, 0, 1, 0, 0, 0]<br/>class = A>, fillcolor="#e88e4d"] ;
43 -> 44 ;
45 [label=<gini = 0.0<br/>samples = 10<br/>value = [10, 0, 0, 0, 0, 0, 0, 0, 0, 0, 0, 0]<br/>class = A>, fillcolor="#e58139"] ;
44 -> 45 ;
46 [label=<gini = 0.0<br/>samples = 1<br/>value = [0, 0, 0, 0, 0, 0, 0, 0, 1, 0, 0, 0]<br/>class = I>, fillcolor="#8139e5"] ;
44 -> 46 ;
47 [label=<Modular Ratio/Interlinear Spacing &le; -0.844<br/>gini = 0.009<br/>samples = 218<br/>value = [217, 0, 0, 0, 1, 0, 0, 0, 0, 0, 0, 0]<br/>class = A>, fillcolor="#e5823a"] ;
43 -> 47 ;
48 [label=<Modular Ratio/Interlinear Spacing &le; -0.856<br/>gini = 0.133<br/>samples = 14<br/>value = [13, 0, 0, 0, 1, 0, 0, 0, 0, 0, 0, 0]<br/>class = A>, fillcolor="#e78b48"] ;
47 -> 48 ;
49 [label=<gini = 0.0<br/>samples = 13<br/>value = [13, 0, 0, 0, 0, 0, 0, 0, 0, 0, 0, 0]<br/>class = A>, fillcolor="#e58139"] ;
48 -> 49 ;
50 [label=<gini = 0.0<br/>samples = 1<br/>value = [0, 0, 0, 0, 1, 0, 0, 0, 0, 0, 0, 0]<br/>class = E>, fillcolor="#39e581"] ;
48 -> 50 ;
51 [label=<gini = 0.0<br/>samples = 204<br/>value = [204, 0, 0, 0, 0, 0, 0, 0, 0, 0, 0, 0]<br/>class = A>, fillcolor="#e58139"] ;
47 -> 51 ;
52 [label=<Lower Margin &le; -2.846<br/>gini = 0.18<br/>samples = 10<br/>value = [9, 0, 0, 0, 0, 0, 0, 0, 0, 0, 0, 1]<br/>class = A>, fillcolor="#e88f4f"] ;
42 -> 52 ;
53 [label=<Exploitation &le; 0.398<br/>gini = 0.5<br/>samples = 2<br/>value = [1, 0, 0, 0, 0, 0, 0, 0, 0, 0, 0, 1]<br/>class = A>, fillcolor="#ffffff"] ;
52 -> 53 ;
54 [label=<gini = 0.0<br/>samples = 1<br/>value = [1, 0, 0, 0, 0, 0, 0, 0, 0, 0, 0, 0]<br/>class = A>, fillcolor="#e58139"] ;
53 -> 54 ;
55 [label=<gini = 0.0<br/>samples = 1<br/>value = [0, 0, 0, 0, 0, 0, 0, 0, 0, 0, 0, 1]<br/>class = Y>, fillcolor="#e53947"] ;
53 -> 55 ;
56 [label=<gini = 0.0<br/>samples = 8<br/>value = [8, 0, 0, 0, 0, 0, 0, 0, 0, 0, 0, 0]<br/>class = A>, fillcolor="#e58139"] ;
52 -> 56 ;
57 [label=<Upper Margin &le; 0.6<br/>gini = 0.694<br/>samples = 7<br/>value = [2, 0, 0, 0, 1, 0, 0, 0, 1, 0, 0, 3]<br/>class = Y>, fillcolor="#fad7da"] ;
29 -> 57 ;
58 [label=<Peak Number &le; -2.352<br/>gini = 0.625<br/>samples = 4<br/>value = [2, 0, 0, 0, 1, 0, 0, 0, 1, 0, 0, 0]<br/>class = A>, fillcolor="#f6d5bd"] ;
57 -> 58 ;
59 [label=<gini = 0.0<br/>samples = 2<br/>value = [2, 0, 0, 0, 0, 0, 0, 0, 0, 0, 0, 0]<br/>class = A>, fillcolor="#e58139"] ;
58 -> 59 ;
60 [label=<Weight &le; -1.277<br/>gini = 0.5<br/>samples = 2<br/>value = [0, 0, 0, 0, 1, 0, 0, 0, 1, 0, 0, 0]<br/>class = E>, fillcolor="#ffffff"] ;
58 -> 60 ;
61 [label=<gini = 0.0<br/>samples = 1<br/>value = [0, 0, 0, 0, 1, 0, 0, 0, 0, 0, 0, 0]<br/>class = E>, fillcolor="#39e581"] ;
60 -> 61 ;
62 [label=<gini = 0.0<br/>samples = 1<br/>value = [0, 0, 0, 0, 0, 0, 0, 0, 1, 0, 0, 0]<br/>class = I>, fillcolor="#8139e5"] ;
60 -> 62 ;
63 [label=<gini = 0.0<br/>samples = 3<br/>value = [0, 0, 0, 0, 0, 0, 0, 0, 0, 0, 0, 3]<br/>class = Y>, fillcolor="#e53947"] ;
57 -> 63 ;
64 [label=<Exploitation &le; -1.469<br/>gini = 0.476<br/>samples = 23<br/>value = [14, 0, 0, 0, 0, 9, 0, 0, 0, 0, 0, 0]<br/>class = A>, fillcolor="#f6d2b8"] ;
28 -> 64 ;
65 [label=<gini = 0.0<br/>samples = 9<br/>value = [0, 0, 0, 0, 0, 9, 0, 0, 0, 0, 0, 0]<br/>class = F>, fillcolor="#39e5d7"] ;
64 -> 65 ;
66 [label=<gini = 0.0<br/>samples = 14<br/>value = [14, 0, 0, 0, 0, 0, 0, 0, 0, 0, 0, 0]<br/>class = A>, fillcolor="#e58139"] ;
64 -> 66 ;
67 [label=<Modular Ratio/Interlinear Spacing &le; -1.191<br/>gini = 0.486<br/>samples = 12<br/>value = [5, 0, 7, 0, 0, 0, 0, 0, 0, 0, 0, 0]<br/>class = C>, fillcolor="#e3f8c6"] ;
27 -> 67 ;
68 [label=<gini = 0.0<br/>samples = 7<br/>value = [0, 0, 7, 0, 0, 0, 0, 0, 0, 0, 0, 0]<br/>class = C>, fillcolor="#9de539"] ;
67 -> 68 ;
69 [label=<gini = 0.0<br/>samples = 5<br/>value = [5, 0, 0, 0, 0, 0, 0, 0, 0, 0, 0, 0]<br/>class = A>, fillcolor="#e58139"] ;
67 -> 69 ;
70 [label=<Lower Margin &le; 0.406<br/>gini = 0.695<br/>samples = 175<br/>value = [81, 0, 11, 0, 42, 25, 0, 0, 0, 16, 0, 0]<br/>class = A>, fillcolor="#f7dac5"] ;
8 -> 70 ;
71 [label=<gini = 0.0<br/>samples = 25<br/>value = [0, 0, 0, 0, 0, 25, 0, 0, 0, 0, 0, 0]<br/>class = F>, fillcolor="#39e5d7"] ;
70 -> 71 ;
72 [label=<Peak Number &le; -1.386<br/>gini = 0.613<br/>samples = 150<br/>value = [81, 0, 11, 0, 42, 0, 0, 0, 0, 16, 0, 0]<br/>class = A>, fillcolor="#f6d2b8"] ;
70 -> 72 ;
73 [label=<Exploitation &le; -1.358<br/>gini = 0.365<br/>samples = 104<br/>value = [81, 0, 4, 0, 17, 0, 0, 0, 0, 2, 0, 0]<br/>class = A>, fillcolor="#eca26d"] ;
72 -> 73 ;
74 [label=<gini = 0.0<br/>samples = 55<br/>value = [55, 0, 0, 0, 0, 0, 0, 0, 0, 0, 0, 0]<br/>class = A>, fillcolor="#e58139"] ;
73 -> 74 ;
75 [label=<Upper Margin &le; 0.298<br/>gini = 0.59<br/>samples = 49<br/>value = [26, 0, 4, 0, 17, 0, 0, 0, 0, 2, 0, 0]<br/>class = A>, fillcolor="#f8dcc7"] ;
73 -> 75 ;
76 [label=<Weight &le; -0.751<br/>gini = 0.416<br/>samples = 23<br/>value = [0, 0, 4, 0, 17, 0, 0, 0, 0, 2, 0, 0]<br/>class = E>, fillcolor="#78eda9"] ;
75 -> 76 ;
77 [label=<Exploitation &le; -0.733<br/>gini = 0.444<br/>samples = 6<br/>value = [0, 0, 4, 0, 0, 0, 0, 0, 0, 2, 0, 0]<br/>class = C>, fillcolor="#cef29c"] ;
76 -> 77 ;
78 [label=<gini = 0.0<br/>samples = 4<br/>value = [0, 0, 4, 0, 0, 0, 0, 0, 0, 0, 0, 0]<br/>class = C>, fillcolor="#9de539"] ;
77 -> 78 ;
79 [label=<gini = 0.0<br/>samples = 2<br/>value = [0, 0, 0, 0, 0, 0, 0, 0, 0, 2, 0, 0]<br/>class = W>, fillcolor="#d739e5"] ;
77 -> 79 ;
80 [label=<gini = 0.0<br/>samples = 17<br/>value = [0, 0, 0, 0, 17, 0, 0, 0, 0, 0, 0, 0]<br/>class = E>, fillcolor="#39e581"] ;
76 -> 80 ;
81 [label=<gini = 0.0<br/>samples = 26<br/>value = [26, 0, 0, 0, 0, 0, 0, 0, 0, 0, 0, 0]<br/>class = A>, fillcolor="#e58139"] ;
75 -> 81 ;
82 [label=<Lower Margin &le; 3.406<br/>gini = 0.589<br/>samples = 46<br/>value = [0, 0, 7, 0, 25, 0, 0, 0, 0, 14, 0, 0]<br/>class = E>, fillcolor="#bbf6d4"] ;
72 -> 82 ;
83 [label=<Exploitation &le; -1.137<br/>gini = 0.342<br/>samples = 32<br/>value = [0, 0, 7, 0, 25, 0, 0, 0, 0, 0, 0, 0]<br/>class = E>, fillcolor="#70eca4"] ;
82 -> 83 ;
84 [label=<gini = 0.0<br/>samples = 7<br/>value = [0, 0, 7, 0, 0, 0, 0, 0, 0, 0, 0, 0]<br/>class = C>, fillcolor="#9de539"] ;
83 -> 84 ;
85 [label=<gini = 0.0<br/>samples = 25<br/>value = [0, 0, 0, 0, 25, 0, 0, 0, 0, 0, 0, 0]<br/>class = E>, fillcolor="#39e581"] ;
83 -> 85 ;
86 [label=<gini = 0.0<br/>samples = 14<br/>value = [0, 0, 0, 0, 0, 0, 0, 0, 0, 14, 0, 0]<br/>class = W>, fillcolor="#d739e5"] ;
82 -> 86 ;
87 [label=<Lower Margin &le; -1.052<br/>gini = 0.615<br/>samples = 53<br/>value = [9, 0, 0, 0, 0, 26, 0, 18, 0, 0, 0, 0]<br/>class = F>, fillcolor="#d2f9f6"] ;
7 -> 87 ;
88 [label=<gini = 0.0<br/>samples = 26<br/>value = [0, 0, 0, 0, 0, 26, 0, 0, 0, 0, 0, 0]<br/>class = F>, fillcolor="#39e5d7"] ;
87 -> 88 ;
89 [label=<Peak Number &le; -1.308<br/>gini = 0.444<br/>samples = 27<br/>value = [9, 0, 0, 0, 0, 0, 0, 18, 0, 0, 0, 0]<br/>class = H>, fillcolor="#9ca3f2"] ;
87 -> 89 ;
90 [label=<gini = 0.0<br/>samples = 18<br/>value = [0, 0, 0, 0, 0, 0, 0, 18, 0, 0, 0, 0]<br/>class = H>, fillcolor="#3947e5"] ;
89 -> 90 ;
91 [label=<gini = 0.0<br/>samples = 9<br/>value = [9, 0, 0, 0, 0, 0, 0, 0, 0, 0, 0, 0]<br/>class = A>, fillcolor="#e58139"] ;
89 -> 91 ;
92 [label=<Modular Ratio &le; -1.035<br/>gini = 0.477<br/>samples = 39<br/>value = [1, 0, 0, 0, 4, 0, 0, 0, 0, 7, 27, 0]<br/>class = X>, fillcolor="#ef83c2"] ;
6 -> 92 ;
93 [label=<Weight &le; 1.826<br/>gini = 0.32<br/>samples = 5<br/>value = [1, 0, 0, 0, 4, 0, 0, 0, 0, 0, 0, 0]<br/>class = E>, fillcolor="#6aeca0"] ;
92 -> 93 ;
94 [label=<gini = 0.0<br/>samples = 1<br/>value = [1, 0, 0, 0, 0, 0, 0, 0, 0, 0, 0, 0]<br/>class = A>, fillcolor="#e58139"] ;
93 -> 94 ;
95 [label=<gini = 0.0<br/>samples = 4<br/>value = [0, 0, 0, 0, 4, 0, 0, 0, 0, 0, 0, 0]<br/>class = E>, fillcolor="#39e581"] ;
93 -> 95 ;
96 [label=<Weight &le; 0.613<br/>gini = 0.327<br/>samples = 34<br/>value = [0, 0, 0, 0, 0, 0, 0, 0, 0, 7, 27, 0]<br/>class = X>, fillcolor="#ec6cb6"] ;
92 -> 96 ;
97 [label=<Peak Number &le; -0.435<br/>gini = 0.496<br/>samples = 11<br/>value = [0, 0, 0, 0, 0, 0, 0, 0, 0, 6, 5, 0]<br/>class = W>, fillcolor="#f8defb"] ;
96 -> 97 ;
98 [label=<gini = 0.0<br/>samples = 5<br/>value = [0, 0, 0, 0, 0, 0, 0, 0, 0, 0, 5, 0]<br/>class = X>, fillcolor="#e5399d"] ;
97 -> 98 ;
99 [label=<gini = 0.0<br/>samples = 6<br/>value = [0, 0, 0, 0, 0, 0, 0, 0, 0, 6, 0, 0]<br/>class = W>, fillcolor="#d739e5"] ;
97 -> 99 ;
100 [label=<Peak Number &le; 0.36<br/>gini = 0.083<br/>samples = 23<br/>value = [0, 0, 0, 0, 0, 0, 0, 0, 0, 1, 22, 0]<br/>class = X>, fillcolor="#e642a1"] ;
96 -> 100 ;
101 [label=<gini = 0.0<br/>samples = 20<br/>value = [0, 0, 0, 0, 0, 0, 0, 0, 0, 0, 20, 0]<br/>class = X>, fillcolor="#e5399d"] ;
100 -> 101 ;
102 [label=<Lower Margin &le; -1.489<br/>gini = 0.444<br/>samples = 3<br/>value = [0, 0, 0, 0, 0, 0, 0, 0, 0, 1, 2, 0]<br/>class = X>, fillcolor="#f29cce"] ;
100 -> 102 ;
103 [label=<gini = 0.0<br/>samples = 2<br/>value = [0, 0, 0, 0, 0, 0, 0, 0, 0, 0, 2, 0]<br/>class = X>, fillcolor="#e5399d"] ;
102 -> 103 ;
104 [label=<gini = 0.0<br/>samples = 1<br/>value = [0, 0, 0, 0, 0, 0, 0, 0, 0, 1, 0, 0]<br/>class = W>, fillcolor="#d739e5"] ;
102 -> 104 ;
105 [label=<Intercolumnar Distance &le; -0.184<br/>gini = 0.792<br/>samples = 2674<br/>value = [728, 0, 68, 428, 610, 619, 63, 43, 0, 40, 71, 4]<br/>class = A>, fillcolor="#fef8f4"] ;
5 -> 105 ;
106 [label=<Row Number &le; 0.217<br/>gini = 0.747<br/>samples = 1285<br/>value = [257, 0, 27, 330, 479, 98, 27, 1, 0, 24, 38, 4]<br/>class = E>, fillcolor="#e0fbeb"] ;
105 -> 106 ;
107 [label=<Exploitation &le; 1.119<br/>gini = 0.675<br/>samples = 607<br/>value = [67, 0, 15, 289, 172, 28, 0, 0, 0, 0, 32, 4]<br/>class = D>, fillcolor="#cef8ca"] ;
106 -> 107 ;
108 [label=<Weight &le; -1.167<br/>gini = 0.637<br/>samples = 566<br/>value = [67, 0, 15, 289, 165, 28, 0, 0, 0, 0, 2, 0]<br/>class = D>, fillcolor="#c6f7c2"] ;
107 -> 108 ;
109 [label=<Upper Margin &le; -0.358<br/>gini = 0.599<br/>samples = 106<br/>value = [25, 0, 0, 20, 59, 2, 0, 0, 0, 0, 0, 0]<br/>class = E>, fillcolor="#acf4ca"] ;
108 -> 109 ;
110 [label=<Exploitation &le; -1.874<br/>gini = 0.177<br/>samples = 51<br/>value = [0, 0, 0, 5, 46, 0, 0, 0, 0, 0, 0, 0]<br/>class = E>, fillcolor="#4fe88f"] ;
109 -> 110 ;
111 [label=<gini = 0.0<br/>samples = 4<br/>value = [0, 0, 0, 4, 0, 0, 0, 0, 0, 0, 0, 0]<br/>class = D>, fillcolor="#47e539"] ;
110 -> 111 ;
112 [label=<Exploitation &le; 0.561<br/>gini = 0.042<br/>samples = 47<br/>value = [0, 0, 0, 1, 46, 0, 0, 0, 0, 0, 0, 0]<br/>class = E>, fillcolor="#3de684"] ;
110 -> 112 ;
113 [label=<gini = 0.0<br/>samples = 46<br/>value = [0, 0, 0, 0, 46, 0, 0, 0, 0, 0, 0, 0]<br/>class = E>, fillcolor="#39e581"] ;
112 -> 113 ;
114 [label=<gini = 0.0<br/>samples = 1<br/>value = [0, 0, 0, 1, 0, 0, 0, 0, 0, 0, 0, 0]<br/>class = D>, fillcolor="#47e539"] ;
112 -> 114 ;
115 [label=<Intercolumnar Distance &le; -0.308<br/>gini = 0.662<br/>samples = 55<br/>value = [25, 0, 0, 15, 13, 2, 0, 0, 0, 0, 0, 0]<br/>class = A>, fillcolor="#f8e0ce"] ;
109 -> 115 ;
116 [label=<Exploitation &le; 0.668<br/>gini = 0.133<br/>samples = 14<br/>value = [0, 0, 0, 13, 1, 0, 0, 0, 0, 0, 0, 0]<br/>class = D>, fillcolor="#55e748"] ;
115 -> 116 ;
117 [label=<gini = 0.0<br/>samples = 13<br/>value = [0, 0, 0, 13, 0, 0, 0, 0, 0, 0, 0, 0]<br/>class = D>, fillcolor="#47e539"] ;
116 -> 117 ;
118 [label=<gini = 0.0<br/>samples = 1<br/>value = [0, 0, 0, 0, 1, 0, 0, 0, 0, 0, 0, 0]<br/>class = E>, fillcolor="#39e581"] ;
116 -> 118 ;
119 [label=<Modular Ratio &le; -0.495<br/>gini = 0.538<br/>samples = 41<br/>value = [25, 0, 0, 2, 12, 2, 0, 0, 0, 0, 0, 0]<br/>class = A>, fillcolor="#f3c7a6"] ;
115 -> 119 ;
120 [label=<Upper Margin &le; -0.221<br/>gini = 0.52<br/>samples = 14<br/>value = [3, 0, 0, 0, 9, 2, 0, 0, 0, 0, 0, 0]<br/>class = E>, fillcolor="#93f1ba"] ;
119 -> 120 ;
121 [label=<gini = 0.0<br/>samples = 3<br/>value = [3, 0, 0, 0, 0, 0, 0, 0, 0, 0, 0, 0]<br/>class = A>, fillcolor="#e58139"] ;
120 -> 121 ;
122 [label=<Lower Margin &le; 0.229<br/>gini = 0.298<br/>samples = 11<br/>value = [0, 0, 0, 0, 9, 2, 0, 0, 0, 0, 0, 0]<br/>class = E>, fillcolor="#65eb9d"] ;
120 -> 122 ;
123 [label=<gini = 0.0<br/>samples = 2<br/>value = [0, 0, 0, 0, 0, 2, 0, 0, 0, 0, 0, 0]<br/>class = F>, fillcolor="#39e5d7"] ;
122 -> 123 ;
124 [label=<gini = 0.0<br/>samples = 9<br/>value = [0, 0, 0, 0, 9, 0, 0, 0, 0, 0, 0, 0]<br/>class = E>, fillcolor="#39e581"] ;
122 -> 124 ;
125 [label=<Exploitation &le; 0.049<br/>gini = 0.318<br/>samples = 27<br/>value = [22, 0, 0, 2, 3, 0, 0, 0, 0, 0, 0, 0]<br/>class = A>, fillcolor="#ea9b62"] ;
119 -> 125 ;
126 [label=<Peak Number &le; -0.217<br/>gini = 0.083<br/>samples = 23<br/>value = [22, 0, 0, 0, 1, 0, 0, 0, 0, 0, 0, 0]<br/>class = A>, fillcolor="#e68742"] ;
125 -> 126 ;
127 [label=<gini = 0.0<br/>samples = 22<br/>value = [22, 0, 0, 0, 0, 0, 0, 0, 0, 0, 0, 0]<br/>class = A>, fillcolor="#e58139"] ;
126 -> 127 ;
128 [label=<gini = 0.0<br/>samples = 1<br/>value = [0, 0, 0, 0, 1, 0, 0, 0, 0, 0, 0, 0]<br/>class = E>, fillcolor="#39e581"] ;
126 -> 128 ;
129 [label=<Exploitation &le; 0.148<br/>gini = 0.5<br/>samples = 4<br/>value = [0, 0, 0, 2, 2, 0, 0, 0, 0, 0, 0, 0]<br/>class = D>, fillcolor="#ffffff"] ;
125 -> 129 ;
130 [label=<gini = 0.0<br/>samples = 2<br/>value = [0, 0, 0, 2, 0, 0, 0, 0, 0, 0, 0, 0]<br/>class = D>, fillcolor="#47e539"] ;
129 -> 130 ;
131 [label=<gini = 0.0<br/>samples = 2<br/>value = [0, 0, 0, 0, 2, 0, 0, 0, 0, 0, 0, 0]<br/>class = E>, fillcolor="#39e581"] ;
129 -> 131 ;
132 [label=<Upper Margin &le; 0.612<br/>gini = 0.592<br/>samples = 460<br/>value = [42, 0, 15, 269, 106, 26, 0, 0, 0, 0, 2, 0]<br/>class = D>, fillcolor="#aaf3a4"] ;
108 -> 132 ;
133 [label=<Lower Margin &le; 0.629<br/>gini = 0.563<br/>samples = 441<br/>value = [23, 0, 15, 269, 106, 26, 0, 0, 0, 0, 2, 0]<br/>class = D>, fillcolor="#a5f29f"] ;
132 -> 133 ;
134 [label=<Lower Margin &le; 0.284<br/>gini = 0.533<br/>samples = 426<br/>value = [23, 0, 0, 269, 106, 26, 0, 0, 0, 0, 2, 0]<br/>class = D>, fillcolor="#a1f29a"] ;
133 -> 134 ;
135 [label=<Lower Margin &le; -1.583<br/>gini = 0.706<br/>samples = 122<br/>value = [9, 0, 0, 41, 44, 26, 0, 0, 0, 0, 2, 0]<br/>class = E>, fillcolor="#f8fefa"] ;
134 -> 135 ;
136 [label=<Exploitation &le; -0.057<br/>gini = 0.089<br/>samples = 43<br/>value = [0, 0, 0, 41, 0, 0, 0, 0, 0, 0, 2, 0]<br/>class = D>, fillcolor="#50e643"] ;
135 -> 136 ;
137 [label=<gini = 0.0<br/>samples = 41<br/>value = [0, 0, 0, 41, 0, 0, 0, 0, 0, 0, 0, 0]<br/>class = D>, fillcolor="#47e539"] ;
136 -> 137 ;
138 [label=<gini = 0.0<br/>samples = 2<br/>value = [0, 0, 0, 0, 0, 0, 0, 0, 0, 0, 2, 0]<br/>class = X>, fillcolor="#e5399d"] ;
136 -> 138 ;
139 [label=<Upper Margin &le; 0.321<br/>gini = 0.568<br/>samples = 79<br/>value = [9, 0, 0, 0, 44, 26, 0, 0, 0, 0, 0, 0]<br/>class = E>, fillcolor="#bcf6d4"] ;
135 -> 139 ;
140 [label=<Lower Margin &le; 0.237<br/>gini = 0.282<br/>samples = 53<br/>value = [9, 0, 0, 0, 44, 0, 0, 0, 0, 0, 0, 0]<br/>class = E>, fillcolor="#61ea9b"] ;
139 -> 140 ;
141 [label=<gini = 0.0<br/>samples = 43<br/>value = [0, 0, 0, 0, 43, 0, 0, 0, 0, 0, 0, 0]<br/>class = E>, fillcolor="#39e581"] ;
140 -> 141 ;
142 [label=<Modular Ratio/Interlinear Spacing &le; 0.133<br/>gini = 0.18<br/>samples = 10<br/>value = [9, 0, 0, 0, 1, 0, 0, 0, 0, 0, 0, 0]<br/>class = A>, fillcolor="#e88f4f"] ;
140 -> 142 ;
143 [label=<gini = 0.0<br/>samples = 1<br/>value = [0, 0, 0, 0, 1, 0, 0, 0, 0, 0, 0, 0]<br/>class = E>, fillcolor="#39e581"] ;
142 -> 143 ;
144 [label=<gini = 0.0<br/>samples = 9<br/>value = [9, 0, 0, 0, 0, 0, 0, 0, 0, 0, 0, 0]<br/>class = A>, fillcolor="#e58139"] ;
142 -> 144 ;
145 [label=<gini = 0.0<br/>samples = 26<br/>value = [0, 0, 0, 0, 0, 26, 0, 0, 0, 0, 0, 0]<br/>class = F>, fillcolor="#39e5d7"] ;
139 -> 145 ;
146 [label=<Upper Margin &le; 0.396<br/>gini = 0.394<br/>samples = 304<br/>value = [14, 0, 0, 228, 62, 0, 0, 0, 0, 0, 0, 0]<br/>class = D>, fillcolor="#81ed77"] ;
134 -> 146 ;
147 [label=<Row Number &le; -0.096<br/>gini = 0.359<br/>samples = 292<br/>value = [14, 0, 0, 228, 50, 0, 0, 0, 0, 0, 0, 0]<br/>class = D>, fillcolor="#78ec6d"] ;
146 -> 147 ;
148 [label=<Upper Margin &le; 0.207<br/>gini = 0.496<br/>samples = 55<br/>value = [0, 0, 0, 25, 30, 0, 0, 0, 0, 0, 0, 0]<br/>class = E>, fillcolor="#defbea"] ;
147 -> 148 ;
149 [label=<gini = 0.0<br/>samples = 30<br/>value = [0, 0, 0, 0, 30, 0, 0, 0, 0, 0, 0, 0]<br/>class = E>, fillcolor="#39e581"] ;
148 -> 149 ;
150 [label=<gini = 0.0<br/>samples = 25<br/>value = [0, 0, 0, 25, 0, 0, 0, 0, 0, 0, 0, 0]<br/>class = D>, fillcolor="#47e539"] ;
148 -> 150 ;
151 [label=<Intercolumnar Distance &le; -0.222<br/>gini = 0.256<br/>samples = 237<br/>value = [14, 0, 0, 203, 20, 0, 0, 0, 0, 0, 0, 0]<br/>class = D>, fillcolor="#64e958"] ;
147 -> 151 ;
152 [label=<Upper Margin &le; 0.152<br/>gini = 0.089<br/>samples = 171<br/>value = [0, 0, 0, 163, 8, 0, 0, 0, 0, 0, 0, 0]<br/>class = D>, fillcolor="#50e643"] ;
151 -> 152 ;
153 [label=<Intercolumnar Distance &le; -0.592<br/>gini = 0.058<br/>samples = 168<br/>value = [0, 0, 0, 163, 5, 0, 0, 0, 0, 0, 0, 0]<br/>class = D>, fillcolor="#4de63f"] ;
152 -> 153 ;
154 [label=<Intercolumnar Distance &le; -0.721<br/>gini = 0.32<br/>samples = 25<br/>value = [0, 0, 0, 20, 5, 0, 0, 0, 0, 0, 0, 0]<br/>class = D>, fillcolor="#75ec6a"] ;
153 -> 154 ;
155 [label=<gini = 0.0<br/>samples = 20<br/>value = [0, 0, 0, 20, 0, 0, 0, 0, 0, 0, 0, 0]<br/>class = D>, fillcolor="#47e539"] ;
154 -> 155 ;
156 [label=<gini = 0.0<br/>samples = 5<br/>value = [0, 0, 0, 0, 5, 0, 0, 0, 0, 0, 0, 0]<br/>class = E>, fillcolor="#39e581"] ;
154 -> 156 ;
157 [label=<gini = 0.0<br/>samples = 143<br/>value = [0, 0, 0, 143, 0, 0, 0, 0, 0, 0, 0, 0]<br/>class = D>, fillcolor="#47e539"] ;
153 -> 157 ;
158 [label=<gini = 0.0<br/>samples = 3<br/>value = [0, 0, 0, 0, 3, 0, 0, 0, 0, 0, 0, 0]<br/>class = E>, fillcolor="#39e581"] ;
152 -> 158 ;
159 [label=<Lower Margin &le; 0.419<br/>gini = 0.555<br/>samples = 66<br/>value = [14, 0, 0, 40, 12, 0, 0, 0, 0, 0, 0, 0]<br/>class = D>, fillcolor="#a3f29c"] ;
151 -> 159 ;
160 [label=<Intercolumnar Distance &le; -0.209<br/>gini = 0.165<br/>samples = 44<br/>value = [0, 0, 0, 40, 4, 0, 0, 0, 0, 0, 0, 0]<br/>class = D>, fillcolor="#59e84d"] ;
159 -> 160 ;
161 [label=<gini = 0.0<br/>samples = 4<br/>value = [0, 0, 0, 0, 4, 0, 0, 0, 0, 0, 0, 0]<br/>class = E>, fillcolor="#39e581"] ;
160 -> 161 ;
162 [label=<gini = 0.0<br/>samples = 40<br/>value = [0, 0, 0, 40, 0, 0, 0, 0, 0, 0, 0, 0]<br/>class = D>, fillcolor="#47e539"] ;
160 -> 162 ;
163 [label=<Row Number &le; 0.128<br/>gini = 0.463<br/>samples = 22<br/>value = [14, 0, 0, 0, 8, 0, 0, 0, 0, 0, 0, 0]<br/>class = A>, fillcolor="#f4c9aa"] ;
159 -> 163 ;
164 [label=<gini = 0.0<br/>samples = 14<br/>value = [14, 0, 0, 0, 0, 0, 0, 0, 0, 0, 0, 0]<br/>class = A>, fillcolor="#e58139"] ;
163 -> 164 ;
165 [label=<gini = 0.0<br/>samples = 8<br/>value = [0, 0, 0, 0, 8, 0, 0, 0, 0, 0, 0, 0]<br/>class = E>, fillcolor="#39e581"] ;
163 -> 165 ;
166 [label=<gini = 0.0<br/>samples = 12<br/>value = [0, 0, 0, 0, 12, 0, 0, 0, 0, 0, 0, 0]<br/>class = E>, fillcolor="#39e581"] ;
146 -> 166 ;
167 [label=<gini = 0.0<br/>samples = 15<br/>value = [0, 0, 15, 0, 0, 0, 0, 0, 0, 0, 0, 0]<br/>class = C>, fillcolor="#9de539"] ;
133 -> 167 ;
168 [label=<gini = 0.0<br/>samples = 19<br/>value = [19, 0, 0, 0, 0, 0, 0, 0, 0, 0, 0, 0]<br/>class = A>, fillcolor="#e58139"] ;
132 -> 168 ;
169 [label=<Intercolumnar Distance &le; -0.4<br/>gini = 0.426<br/>samples = 41<br/>value = [0, 0, 0, 0, 7, 0, 0, 0, 0, 0, 30, 4]<br/>class = X>, fillcolor="#ed79bd"] ;
107 -> 169 ;
170 [label=<Row Number &le; -0.409<br/>gini = 0.64<br/>samples = 15<br/>value = [0, 0, 0, 0, 7, 0, 0, 0, 0, 0, 4, 4]<br/>class = E>, fillcolor="#c9f8dd"] ;
169 -> 170 ;
171 [label=<gini = 0.0<br/>samples = 7<br/>value = [0, 0, 0, 0, 7, 0, 0, 0, 0, 0, 0, 0]<br/>class = E>, fillcolor="#39e581"] ;
170 -> 171 ;
172 [label=<Exploitation &le; 1.727<br/>gini = 0.5<br/>samples = 8<br/>value = [0, 0, 0, 0, 0, 0, 0, 0, 0, 0, 4, 4]<br/>class = X>, fillcolor="#ffffff"] ;
170 -> 172 ;
173 [label=<gini = 0.0<br/>samples = 4<br/>value = [0, 0, 0, 0, 0, 0, 0, 0, 0, 0, 0, 4]<br/>class = Y>, fillcolor="#e53947"] ;
172 -> 173 ;
174 [label=<gini = 0.0<br/>samples = 4<br/>value = [0, 0, 0, 0, 0, 0, 0, 0, 0, 0, 4, 0]<br/>class = X>, fillcolor="#e5399d"] ;
172 -> 174 ;
175 [label=<gini = 0.0<br/>samples = 26<br/>value = [0, 0, 0, 0, 0, 0, 0, 0, 0, 0, 26, 0]<br/>class = X>, fillcolor="#e5399d"] ;
169 -> 175 ;
176 [label=<Lower Margin &le; 0.12<br/>gini = 0.699<br/>samples = 678<br/>value = [190, 0, 12, 41, 307, 70, 27, 1, 0, 24, 6, 0]<br/>class = E>, fillcolor="#d0f9e1"] ;
106 -> 176 ;
177 [label=<Exploitation &le; 0.855<br/>gini = 0.77<br/>samples = 290<br/>value = [112, 0, 0, 25, 50, 49, 27, 0, 0, 24, 3, 0]<br/>class = A>, fillcolor="#f8decc"] ;
176 -> 177 ;
178 [label=<Exploitation &le; -0.802<br/>gini = 0.726<br/>samples = 228<br/>value = [99, 0, 0, 25, 50, 0, 27, 0, 0, 24, 3, 0]<br/>class = A>, fillcolor="#f8dcc8"] ;
177 -> 178 ;
179 [label=<gini = 0.0<br/>samples = 25<br/>value = [0, 0, 0, 25, 0, 0, 0, 0, 0, 0, 0, 0]<br/>class = D>, fillcolor="#47e539"] ;
178 -> 179 ;
180 [label=<Intercolumnar Distance &le; -0.641<br/>gini = 0.67<br/>samples = 203<br/>value = [99, 0, 0, 0, 50, 0, 27, 0, 0, 24, 3, 0]<br/>class = A>, fillcolor="#f7d7c0"] ;
178 -> 180 ;
181 [label=<gini = 0.0<br/>samples = 24<br/>value = [0, 0, 0, 0, 0, 0, 0, 0, 0, 24, 0, 0]<br/>class = W>, fillcolor="#d739e5"] ;
180 -> 181 ;
182 [label=<Modular Ratio/Interlinear Spacing &le; 0.283<br/>gini = 0.593<br/>samples = 179<br/>value = [99, 0, 0, 0, 50, 0, 27, 0, 0, 0, 3, 0]<br/>class = A>, fillcolor="#f5cfb4"] ;
180 -> 182 ;
183 [label=<Exploitation &le; 0.376<br/>gini = 0.553<br/>samples = 77<br/>value = [24, 0, 0, 0, 45, 0, 7, 0, 0, 0, 1, 0]<br/>class = E>, fillcolor="#b1f5cd"] ;
182 -> 183 ;
184 [label=<Upper Margin &le; -0.016<br/>gini = 0.338<br/>samples = 56<br/>value = [5, 0, 0, 0, 45, 0, 5, 0, 0, 0, 1, 0]<br/>class = E>, fillcolor="#64eb9c"] ;
183 -> 184 ;
185 [label=<Upper Margin &le; -1.39<br/>gini = 0.081<br/>samples = 47<br/>value = [2, 0, 0, 0, 45, 0, 0, 0, 0, 0, 0, 0]<br/>class = E>, fillcolor="#42e687"] ;
184 -> 185 ;
186 [label=<gini = 0.0<br/>samples = 2<br/>value = [2, 0, 0, 0, 0, 0, 0, 0, 0, 0, 0, 0]<br/>class = A>, fillcolor="#e58139"] ;
185 -> 186 ;
187 [label=<gini = 0.0<br/>samples = 45<br/>value = [0, 0, 0, 0, 45, 0, 0, 0, 0, 0, 0, 0]<br/>class = E>, fillcolor="#39e581"] ;
185 -> 187 ;
188 [label=<Peak Number &le; -0.061<br/>gini = 0.568<br/>samples = 9<br/>value = [3, 0, 0, 0, 0, 0, 5, 0, 0, 0, 1, 0]<br/>class = G>, fillcolor="#bddef6"] ;
184 -> 188 ;
189 [label=<Upper Margin &le; 0.219<br/>gini = 0.375<br/>samples = 4<br/>value = [3, 0, 0, 0, 0, 0, 0, 0, 0, 0, 1, 0]<br/>class = A>, fillcolor="#eeab7b"] ;
188 -> 189 ;
190 [label=<gini = 0.0<br/>samples = 1<br/>value = [0, 0, 0, 0, 0, 0, 0, 0, 0, 0, 1, 0]<br/>class = X>, fillcolor="#e5399d"] ;
189 -> 190 ;
191 [label=<gini = 0.0<br/>samples = 3<br/>value = [3, 0, 0, 0, 0, 0, 0, 0, 0, 0, 0, 0]<br/>class = A>, fillcolor="#e58139"] ;
189 -> 191 ;
192 [label=<gini = 0.0<br/>samples = 5<br/>value = [0, 0, 0, 0, 0, 0, 5, 0, 0, 0, 0, 0]<br/>class = G>, fillcolor="#399de5"] ;
188 -> 192 ;
193 [label=<Intercolumnar Distance &le; -0.339<br/>gini = 0.172<br/>samples = 21<br/>value = [19, 0, 0, 0, 0, 0, 2, 0, 0, 0, 0, 0]<br/>class = A>, fillcolor="#e88e4e"] ;
183 -> 193 ;
194 [label=<gini = 0.0<br/>samples = 2<br/>value = [0, 0, 0, 0, 0, 0, 2, 0, 0, 0, 0, 0]<br/>class = G>, fillcolor="#399de5"] ;
193 -> 194 ;
195 [label=<gini = 0.0<br/>samples = 19<br/>value = [19, 0, 0, 0, 0, 0, 0, 0, 0, 0, 0, 0]<br/>class = A>, fillcolor="#e58139"] ;
193 -> 195 ;
196 [label=<Intercolumnar Distance &le; -0.339<br/>gini = 0.418<br/>samples = 102<br/>value = [75, 0, 0, 0, 5, 0, 20, 0, 0, 0, 2, 0]<br/>class = A>, fillcolor="#eeaa7a"] ;
182 -> 196 ;
197 [label=<Upper Margin &le; 0.411<br/>gini = 0.562<br/>samples = 43<br/>value = [20, 0, 0, 0, 3, 0, 20, 0, 0, 0, 0, 0]<br/>class = A>, fillcolor="#ffffff"] ;
196 -> 197 ;
198 [label=<Lower Margin &le; -1.605<br/>gini = 0.227<br/>samples = 23<br/>value = [0, 0, 0, 0, 3, 0, 20, 0, 0, 0, 0, 0]<br/>class = G>, fillcolor="#57ace9"] ;
197 -> 198 ;
199 [label=<gini = 0.0<br/>samples = 3<br/>value = [0, 0, 0, 0, 3, 0, 0, 0, 0, 0, 0, 0]<br/>class = E>, fillcolor="#39e581"] ;
198 -> 199 ;
200 [label=<gini = 0.0<br/>samples = 20<br/>value = [0, 0, 0, 0, 0, 0, 20, 0, 0, 0, 0, 0]<br/>class = G>, fillcolor="#399de5"] ;
198 -> 200 ;
201 [label=<gini = 0.0<br/>samples = 20<br/>value = [20, 0, 0, 0, 0, 0, 0, 0, 0, 0, 0, 0]<br/>class = A>, fillcolor="#e58139"] ;
197 -> 201 ;
202 [label=<Lower Margin &le; -0.844<br/>gini = 0.129<br/>samples = 59<br/>value = [55, 0, 0, 0, 2, 0, 0, 0, 0, 0, 2, 0]<br/>class = A>, fillcolor="#e78a47"] ;
196 -> 202 ;
203 [label=<Weight &le; -1.12<br/>gini = 0.444<br/>samples = 3<br/>value = [0, 0, 0, 0, 1, 0, 0, 0, 0, 0, 2, 0]<br/>class = X>, fillcolor="#f29cce"] ;
202 -> 203 ;
204 [label=<gini = 0.0<br/>samples = 2<br/>value = [0, 0, 0, 0, 0, 0, 0, 0, 0, 0, 2, 0]<br/>class = X>, fillcolor="#e5399d"] ;
203 -> 204 ;
205 [label=<gini = 0.0<br/>samples = 1<br/>value = [0, 0, 0, 0, 1, 0, 0, 0, 0, 0, 0, 0]<br/>class = E>, fillcolor="#39e581"] ;
203 -> 205 ;
206 [label=<Interlinear Spacing &le; -0.403<br/>gini = 0.035<br/>samples = 56<br/>value = [55, 0, 0, 0, 1, 0, 0, 0, 0, 0, 0, 0]<br/>class = A>, fillcolor="#e5833d"] ;
202 -> 206 ;
207 [label=<gini = 0.0<br/>samples = 1<br/>value = [0, 0, 0, 0, 1, 0, 0, 0, 0, 0, 0, 0]<br/>class = E>, fillcolor="#39e581"] ;
206 -> 207 ;
208 [label=<gini = 0.0<br/>samples = 55<br/>value = [55, 0, 0, 0, 0, 0, 0, 0, 0, 0, 0, 0]<br/>class = A>, fillcolor="#e58139"] ;
206 -> 208 ;
209 [label=<Upper Margin &le; -0.052<br/>gini = 0.331<br/>samples = 62<br/>value = [13, 0, 0, 0, 0, 49, 0, 0, 0, 0, 0, 0]<br/>class = F>, fillcolor="#6eece2"] ;
177 -> 209 ;
210 [label=<gini = 0.0<br/>samples = 13<br/>value = [13, 0, 0, 0, 0, 0, 0, 0, 0, 0, 0, 0]<br/>class = A>, fillcolor="#e58139"] ;
209 -> 210 ;
211 [label=<gini = 0.0<br/>samples = 49<br/>value = [0, 0, 0, 0, 0, 49, 0, 0, 0, 0, 0, 0]<br/>class = F>, fillcolor="#39e5d7"] ;
209 -> 211 ;
212 [label=<Upper Margin &le; -0.095<br/>gini = 0.515<br/>samples = 388<br/>value = [78, 0, 12, 16, 257, 21, 0, 1, 0, 0, 3, 0]<br/>class = E>, fillcolor="#8df0b6"] ;
176 -> 212 ;
213 [label=<Lower Margin &le; 0.389<br/>gini = 0.65<br/>samples = 214<br/>value = [78, 0, 0, 16, 96, 21, 0, 0, 0, 0, 3, 0]<br/>class = E>, fillcolor="#e5fcee"] ;
212 -> 213 ;
214 [label=<Intercolumnar Distance &le; -0.345<br/>gini = 0.465<br/>samples = 111<br/>value = [78, 0, 0, 16, 16, 0, 0, 0, 0, 0, 1, 0]<br/>class = A>, fillcolor="#eead7e"] ;
213 -> 214 ;
215 [label=<gini = 0.0<br/>samples = 16<br/>value = [0, 0, 0, 0, 16, 0, 0, 0, 0, 0, 0, 0]<br/>class = E>, fillcolor="#39e581"] ;
214 -> 215 ;
216 [label=<Intercolumnar Distance &le; -0.24<br/>gini = 0.297<br/>samples = 95<br/>value = [78, 0, 0, 16, 0, 0, 0, 0, 0, 0, 1, 0]<br/>class = A>, fillcolor="#eb9c64"] ;
214 -> 216 ;
217 [label=<gini = 0.0<br/>samples = 78<br/>value = [78, 0, 0, 0, 0, 0, 0, 0, 0, 0, 0, 0]<br/>class = A>, fillcolor="#e58139"] ;
216 -> 217 ;
218 [label=<Exploitation &le; 0.517<br/>gini = 0.111<br/>samples = 17<br/>value = [0, 0, 0, 16, 0, 0, 0, 0, 0, 0, 1, 0]<br/>class = D>, fillcolor="#52e745"] ;
216 -> 218 ;
219 [label=<gini = 0.0<br/>samples = 16<br/>value = [0, 0, 0, 16, 0, 0, 0, 0, 0, 0, 0, 0]<br/>class = D>, fillcolor="#47e539"] ;
218 -> 219 ;
220 [label=<gini = 0.0<br/>samples = 1<br/>value = [0, 0, 0, 0, 0, 0, 0, 0, 0, 0, 1, 0]<br/>class = X>, fillcolor="#e5399d"] ;
218 -> 220 ;
221 [label=<Exploitation &le; -0.897<br/>gini = 0.355<br/>samples = 103<br/>value = [0, 0, 0, 0, 80, 21, 0, 0, 0, 0, 2, 0]<br/>class = E>, fillcolor="#71eca4"] ;
213 -> 221 ;
222 [label=<Lower Margin &le; 0.44<br/>gini = 0.437<br/>samples = 31<br/>value = [0, 0, 0, 0, 10, 21, 0, 0, 0, 0, 0, 0]<br/>class = F>, fillcolor="#97f1ea"] ;
221 -> 222 ;
223 [label=<gini = 0.0<br/>samples = 21<br/>value = [0, 0, 0, 0, 0, 21, 0, 0, 0, 0, 0, 0]<br/>class = F>, fillcolor="#39e5d7"] ;
222 -> 223 ;
224 [label=<gini = 0.0<br/>samples = 10<br/>value = [0, 0, 0, 0, 10, 0, 0, 0, 0, 0, 0, 0]<br/>class = E>, fillcolor="#39e581"] ;
222 -> 224 ;
225 [label=<Lower Margin &le; 0.552<br/>gini = 0.054<br/>samples = 72<br/>value = [0, 0, 0, 0, 70, 0, 0, 0, 0, 0, 2, 0]<br/>class = E>, fillcolor="#3fe685"] ;
221 -> 225 ;
226 [label=<gini = 0.0<br/>samples = 70<br/>value = [0, 0, 0, 0, 70, 0, 0, 0, 0, 0, 0, 0]<br/>class = E>, fillcolor="#39e581"] ;
225 -> 226 ;
227 [label=<gini = 0.0<br/>samples = 2<br/>value = [0, 0, 0, 0, 0, 0, 0, 0, 0, 0, 2, 0]<br/>class = X>, fillcolor="#e5399d"] ;
225 -> 227 ;
228 [label=<Exploitation &le; -0.579<br/>gini = 0.139<br/>samples = 174<br/>value = [0, 0, 12, 0, 161, 0, 0, 1, 0, 0, 0, 0]<br/>class = E>, fillcolor="#49e78b"] ;
212 -> 228 ;
229 [label=<Weight &le; -0.523<br/>gini = 0.142<br/>samples = 13<br/>value = [0, 0, 12, 0, 0, 0, 0, 1, 0, 0, 0, 0]<br/>class = C>, fillcolor="#a5e749"] ;
228 -> 229 ;
230 [label=<gini = 0.0<br/>samples = 9<br/>value = [0, 0, 9, 0, 0, 0, 0, 0, 0, 0, 0, 0]<br/>class = C>, fillcolor="#9de539"] ;
229 -> 230 ;
231 [label=<Weight &le; -0.461<br/>gini = 0.375<br/>samples = 4<br/>value = [0, 0, 3, 0, 0, 0, 0, 1, 0, 0, 0, 0]<br/>class = C>, fillcolor="#beee7b"] ;
229 -> 231 ;
232 [label=<gini = 0.0<br/>samples = 1<br/>value = [0, 0, 0, 0, 0, 0, 0, 1, 0, 0, 0, 0]<br/>class = H>, fillcolor="#3947e5"] ;
231 -> 232 ;
233 [label=<gini = 0.0<br/>samples = 3<br/>value = [0, 0, 3, 0, 0, 0, 0, 0, 0, 0, 0, 0]<br/>class = C>, fillcolor="#9de539"] ;
231 -> 233 ;
234 [label=<gini = 0.0<br/>samples = 161<br/>value = [0, 0, 0, 0, 161, 0, 0, 0, 0, 0, 0, 0]<br/>class = E>, fillcolor="#39e581"] ;
228 -> 234 ;
235 [label=<Lower Margin &le; 0.497<br/>gini = 0.727<br/>samples = 1389<br/>value = [471, 0, 41, 98, 131, 521, 36, 42, 0, 16, 33, 0]<br/>class = F>, fillcolor="#f4fefd"] ;
105 -> 235 ;
236 [label=<Modular Ratio &le; 0.142<br/>gini = 0.677<br/>samples = 1235<br/>value = [453, 0, 0, 33, 101, 521, 36, 42, 0, 16, 33, 0]<br/>class = F>, fillcolor="#eefdfc"] ;
235 -> 236 ;
237 [label=<Modular Ratio/Interlinear Spacing &le; -0.926<br/>gini = 0.635<br/>samples = 561<br/>value = [126, 0, 0, 17, 46, 309, 21, 15, 0, 3, 24, 0]<br/>class = F>, fillcolor="#acf4ee"] ;
236 -> 237 ;
238 [label=<Row Number &le; 0.038<br/>gini = 0.793<br/>samples = 73<br/>value = [22, 0, 0, 8, 18, 6, 0, 7, 0, 0, 12, 0]<br/>class = A>, fillcolor="#fdf6f1"] ;
237 -> 238 ;
239 [label=<Modular Ratio/Interlinear Spacing &le; -1.09<br/>gini = 0.111<br/>samples = 17<br/>value = [16, 0, 0, 0, 1, 0, 0, 0, 0, 0, 0, 0]<br/>class = A>, fillcolor="#e78945"] ;
238 -> 239 ;
240 [label=<gini = 0.0<br/>samples = 16<br/>value = [16, 0, 0, 0, 0, 0, 0, 0, 0, 0, 0, 0]<br/>class = A>, fillcolor="#e58139"] ;
239 -> 240 ;
241 [label=<gini = 0.0<br/>samples = 1<br/>value = [0, 0, 0, 0, 1, 0, 0, 0, 0, 0, 0, 0]<br/>class = E>, fillcolor="#39e581"] ;
239 -> 241 ;
242 [label=<Exploitation &le; -0.516<br/>gini = 0.803<br/>samples = 56<br/>value = [6, 0, 0, 8, 17, 6, 0, 7, 0, 0, 12, 0]<br/>class = E>, fillcolor="#e8fcf1"] ;
238 -> 242 ;
243 [label=<Exploitation &le; -0.932<br/>gini = 0.555<br/>samples = 16<br/>value = [1, 0, 0, 8, 0, 0, 0, 0, 0, 0, 7, 0]<br/>class = D>, fillcolor="#ebfce9"] ;
242 -> 243 ;
244 [label=<gini = 0.0<br/>samples = 7<br/>value = [0, 0, 0, 0, 0, 0, 0, 0, 0, 0, 7, 0]<br/>class = X>, fillcolor="#e5399d"] ;
243 -> 244 ;
245 [label=<Row Number &le; 0.217<br/>gini = 0.198<br/>samples = 9<br/>value = [1, 0, 0, 8, 0, 0, 0, 0, 0, 0, 0, 0]<br/>class = D>, fillcolor="#5ee852"] ;
243 -> 245 ;
246 [label=<gini = 0.0<br/>samples = 8<br/>value = [0, 0, 0, 8, 0, 0, 0, 0, 0, 0, 0, 0]<br/>class = D>, fillcolor="#47e539"] ;
245 -> 246 ;
247 [label=<gini = 0.0<br/>samples = 1<br/>value = [1, 0, 0, 0, 0, 0, 0, 0, 0, 0, 0, 0]<br/>class = A>, fillcolor="#e58139"] ;
245 -> 247 ;
248 [label=<Exploitation &le; 0.011<br/>gini = 0.735<br/>samples = 40<br/>value = [5, 0, 0, 0, 17, 6, 0, 7, 0, 0, 5, 0]<br/>class = E>, fillcolor="#c3f7d9"] ;
242 -> 248 ;
249 [label=<Exploitation &le; -0.333<br/>gini = 0.204<br/>samples = 18<br/>value = [0, 0, 0, 0, 16, 1, 0, 1, 0, 0, 0, 0]<br/>class = E>, fillcolor="#50e890"] ;
248 -> 249 ;
250 [label=<Interlinear Spacing &le; 0.182<br/>gini = 0.5<br/>samples = 2<br/>value = [0, 0, 0, 0, 0, 1, 0, 1, 0, 0, 0, 0]<br/>class = F>, fillcolor="#ffffff"] ;
249 -> 250 ;
251 [label=<gini = 0.0<br/>samples = 1<br/>value = [0, 0, 0, 0, 0, 0, 0, 1, 0, 0, 0, 0]<br/>class = H>, fillcolor="#3947e5"] ;
250 -> 251 ;
252 [label=<gini = 0.0<br/>samples = 1<br/>value = [0, 0, 0, 0, 0, 1, 0, 0, 0, 0, 0, 0]<br/>class = F>, fillcolor="#39e5d7"] ;
250 -> 252 ;
253 [label=<gini = 0.0<br/>samples = 16<br/>value = [0, 0, 0, 0, 16, 0, 0, 0, 0, 0, 0, 0]<br/>class = E>, fillcolor="#39e581"] ;
249 -> 253 ;
254 [label=<Upper Margin &le; 0.207<br/>gini = 0.769<br/>samples = 22<br/>value = [5, 0, 0, 0, 1, 5, 0, 6, 0, 0, 5, 0]<br/>class = H>, fillcolor="#f3f4fd"] ;
248 -> 254 ;
255 [label=<Upper Margin &le; -0.048<br/>gini = 0.734<br/>samples = 17<br/>value = [5, 0, 0, 0, 1, 5, 0, 1, 0, 0, 5, 0]<br/>class = A>, fillcolor="#ffffff"] ;
254 -> 255 ;
256 [label=<Lower Margin &le; 0.376<br/>gini = 0.568<br/>samples = 9<br/>value = [3, 0, 0, 0, 1, 5, 0, 0, 0, 0, 0, 0]<br/>class = F>, fillcolor="#bdf6f2"] ;
255 -> 256 ;
257 [label=<Modular Ratio/Interlinear Spacing &le; -1.118<br/>gini = 0.449<br/>samples = 7<br/>value = [1, 0, 0, 0, 1, 5, 0, 0, 0, 0, 0, 0]<br/>class = F>, fillcolor="#7beee4"] ;
256 -> 257 ;
258 [label=<gini = 0.0<br/>samples = 5<br/>value = [0, 0, 0, 0, 0, 5, 0, 0, 0, 0, 0, 0]<br/>class = F>, fillcolor="#39e5d7"] ;
257 -> 258 ;
259 [label=<Upper Margin &le; -0.35<br/>gini = 0.5<br/>samples = 2<br/>value = [1, 0, 0, 0, 1, 0, 0, 0, 0, 0, 0, 0]<br/>class = A>, fillcolor="#ffffff"] ;
257 -> 259 ;
260 [label=<gini = 0.0<br/>samples = 1<br/>value = [0, 0, 0, 0, 1, 0, 0, 0, 0, 0, 0, 0]<br/>class = E>, fillcolor="#39e581"] ;
259 -> 260 ;
261 [label=<gini = 0.0<br/>samples = 1<br/>value = [1, 0, 0, 0, 0, 0, 0, 0, 0, 0, 0, 0]<br/>class = A>, fillcolor="#e58139"] ;
259 -> 261 ;
262 [label=<gini = 0.0<br/>samples = 2<br/>value = [2, 0, 0, 0, 0, 0, 0, 0, 0, 0, 0, 0]<br/>class = A>, fillcolor="#e58139"] ;
256 -> 262 ;
263 [label=<Upper Margin &le; 0.046<br/>gini = 0.531<br/>samples = 8<br/>value = [2, 0, 0, 0, 0, 0, 0, 1, 0, 0, 5, 0]<br/>class = X>, fillcolor="#f29cce"] ;
255 -> 263 ;
264 [label=<gini = 0.0<br/>samples = 5<br/>value = [0, 0, 0, 0, 0, 0, 0, 0, 0, 0, 5, 0]<br/>class = X>, fillcolor="#e5399d"] ;
263 -> 264 ;
265 [label=<Lower Margin &le; 0.122<br/>gini = 0.444<br/>samples = 3<br/>value = [2, 0, 0, 0, 0, 0, 0, 1, 0, 0, 0, 0]<br/>class = A>, fillcolor="#f2c09c"] ;
263 -> 265 ;
266 [label=<gini = 0.0<br/>samples = 2<br/>value = [2, 0, 0, 0, 0, 0, 0, 0, 0, 0, 0, 0]<br/>class = A>, fillcolor="#e58139"] ;
265 -> 266 ;
267 [label=<gini = 0.0<br/>samples = 1<br/>value = [0, 0, 0, 0, 0, 0, 0, 1, 0, 0, 0, 0]<br/>class = H>, fillcolor="#3947e5"] ;
265 -> 267 ;
268 [label=<gini = 0.0<br/>samples = 5<br/>value = [0, 0, 0, 0, 0, 0, 0, 5, 0, 0, 0, 0]<br/>class = H>, fillcolor="#3947e5"] ;
254 -> 268 ;
269 [label=<Exploitation &le; 0.957<br/>gini = 0.563<br/>samples = 488<br/>value = [104, 0, 0, 9, 28, 303, 21, 8, 0, 3, 12, 0]<br/>class = F>, fillcolor="#98f2ea"] ;
237 -> 269 ;
270 [label=<Exploitation &le; 0.137<br/>gini = 0.507<br/>samples = 450<br/>value = [85, 0, 0, 9, 14, 303, 19, 8, 0, 0, 12, 0]<br/>class = F>, fillcolor="#89efe7"] ;
269 -> 270 ;
271 [label=<Exploitation &le; 0.038<br/>gini = 0.752<br/>samples = 134<br/>value = [34, 0, 0, 9, 12, 53, 12, 4, 0, 0, 10, 0]<br/>class = F>, fillcolor="#d9faf7"] ;
270 -> 271 ;
272 [label=<Intercolumnar Distance &le; -0.123<br/>gini = 0.731<br/>samples = 114<br/>value = [14, 0, 0, 9, 12, 53, 12, 4, 0, 0, 10, 0]<br/>class = F>, fillcolor="#b2f5ef"] ;
271 -> 272 ;
273 [label=<Lower Margin &le; -3.059<br/>gini = 0.411<br/>samples = 70<br/>value = [5, 0, 0, 6, 3, 53, 0, 0, 0, 0, 3, 0]<br/>class = F>, fillcolor="#6eece2"] ;
272 -> 273 ;
274 [label=<Exploitation &le; -0.622<br/>gini = 0.444<br/>samples = 9<br/>value = [3, 0, 0, 6, 0, 0, 0, 0, 0, 0, 0, 0]<br/>class = D>, fillcolor="#a3f29c"] ;
273 -> 274 ;
275 [label=<gini = 0.0<br/>samples = 6<br/>value = [0, 0, 0, 6, 0, 0, 0, 0, 0, 0, 0, 0]<br/>class = D>, fillcolor="#47e539"] ;
274 -> 275 ;
276 [label=<gini = 0.0<br/>samples = 3<br/>value = [3, 0, 0, 0, 0, 0, 0, 0, 0, 0, 0, 0]<br/>class = A>, fillcolor="#e58139"] ;
274 -> 276 ;
277 [label=<Upper Margin &le; -0.382<br/>gini = 0.239<br/>samples = 61<br/>value = [2, 0, 0, 0, 3, 53, 0, 0, 0, 0, 3, 0]<br/>class = F>, fillcolor="#54e9dd"] ;
273 -> 277 ;
278 [label=<Exploitation &le; -0.614<br/>gini = 0.375<br/>samples = 4<br/>value = [0, 0, 0, 0, 1, 0, 0, 0, 0, 0, 3, 0]<br/>class = X>, fillcolor="#ee7bbe"] ;
277 -> 278 ;
279 [label=<gini = 0.0<br/>samples = 3<br/>value = [0, 0, 0, 0, 0, 0, 0, 0, 0, 0, 3, 0]<br/>class = X>, fillcolor="#e5399d"] ;
278 -> 279 ;
280 [label=<gini = 0.0<br/>samples = 1<br/>value = [0, 0, 0, 0, 1, 0, 0, 0, 0, 0, 0, 0]<br/>class = E>, fillcolor="#39e581"] ;
278 -> 280 ;
281 [label=<Intercolumnar Distance &le; -0.172<br/>gini = 0.133<br/>samples = 57<br/>value = [2, 0, 0, 0, 2, 53, 0, 0, 0, 0, 0, 0]<br/>class = F>, fillcolor="#47e7da"] ;
277 -> 281 ;
282 [label=<gini = 0.0<br/>samples = 2<br/>value = [2, 0, 0, 0, 0, 0, 0, 0, 0, 0, 0, 0]<br/>class = A>, fillcolor="#e58139"] ;
281 -> 282 ;
283 [label=<Upper Margin &le; -0.013<br/>gini = 0.07<br/>samples = 55<br/>value = [0, 0, 0, 0, 2, 53, 0, 0, 0, 0, 0, 0]<br/>class = F>, fillcolor="#40e6d9"] ;
281 -> 283 ;
284 [label=<gini = 0.0<br/>samples = 53<br/>value = [0, 0, 0, 0, 0, 53, 0, 0, 0, 0, 0, 0]<br/>class = F>, fillcolor="#39e5d7"] ;
283 -> 284 ;
285 [label=<gini = 0.0<br/>samples = 2<br/>value = [0, 0, 0, 0, 2, 0, 0, 0, 0, 0, 0, 0]<br/>class = E>, fillcolor="#39e581"] ;
283 -> 285 ;
286 [label=<Upper Margin &le; 0.368<br/>gini = 0.804<br/>samples = 44<br/>value = [9, 0, 0, 3, 9, 0, 12, 4, 0, 0, 7, 0]<br/>class = G>, fillcolor="#eef7fd"] ;
272 -> 286 ;
287 [label=<Lower Margin &le; 0.122<br/>gini = 0.77<br/>samples = 32<br/>value = [9, 0, 0, 3, 9, 0, 0, 4, 0, 0, 7, 0]<br/>class = A>, fillcolor="#ffffff"] ;
286 -> 287 ;
288 [label=<Exploitation &le; -0.597<br/>gini = 0.18<br/>samples = 10<br/>value = [9, 0, 0, 0, 0, 0, 0, 1, 0, 0, 0, 0]<br/>class = A>, fillcolor="#e88f4f"] ;
287 -> 288 ;
289 [label=<gini = 0.0<br/>samples = 9<br/>value = [9, 0, 0, 0, 0, 0, 0, 0, 0, 0, 0, 0]<br/>class = A>, fillcolor="#e58139"] ;
288 -> 289 ;
290 [label=<gini = 0.0<br/>samples = 1<br/>value = [0, 0, 0, 0, 0, 0, 0, 1, 0, 0, 0, 0]<br/>class = H>, fillcolor="#3947e5"] ;
288 -> 290 ;
291 [label=<Upper Margin &le; -0.688<br/>gini = 0.694<br/>samples = 22<br/>value = [0, 0, 0, 3, 9, 0, 0, 3, 0, 0, 7, 0]<br/>class = E>, fillcolor="#e5fcee"] ;
287 -> 291 ;
292 [label=<gini = 0.0<br/>samples = 7<br/>value = [0, 0, 0, 0, 0, 0, 0, 0, 0, 0, 7, 0]<br/>class = X>, fillcolor="#e5399d"] ;
291 -> 292 ;
293 [label=<Exploitation &le; -0.335<br/>gini = 0.56<br/>samples = 15<br/>value = [0, 0, 0, 3, 9, 0, 0, 3, 0, 0, 0, 0]<br/>class = E>, fillcolor="#9cf2c0"] ;
291 -> 293 ;
294 [label=<gini = 0.0<br/>samples = 3<br/>value = [0, 0, 0, 3, 0, 0, 0, 0, 0, 0, 0, 0]<br/>class = D>, fillcolor="#47e539"] ;
293 -> 294 ;
295 [label=<Exploitation &le; 0.011<br/>gini = 0.375<br/>samples = 12<br/>value = [0, 0, 0, 0, 9, 0, 0, 3, 0, 0, 0, 0]<br/>class = E>, fillcolor="#7beeab"] ;
293 -> 295 ;
296 [label=<gini = 0.0<br/>samples = 9<br/>value = [0, 0, 0, 0, 9, 0, 0, 0, 0, 0, 0, 0]<br/>class = E>, fillcolor="#39e581"] ;
295 -> 296 ;
297 [label=<gini = 0.0<br/>samples = 3<br/>value = [0, 0, 0, 0, 0, 0, 0, 3, 0, 0, 0, 0]<br/>class = H>, fillcolor="#3947e5"] ;
295 -> 297 ;
298 [label=<gini = 0.0<br/>samples = 12<br/>value = [0, 0, 0, 0, 0, 0, 12, 0, 0, 0, 0, 0]<br/>class = G>, fillcolor="#399de5"] ;
286 -> 298 ;
299 [label=<gini = 0.0<br/>samples = 20<br/>value = [20, 0, 0, 0, 0, 0, 0, 0, 0, 0, 0, 0]<br/>class = A>, fillcolor="#e58139"] ;
271 -> 299 ;
300 [label=<Peak Number &le; -2.43<br/>gini = 0.347<br/>samples = 316<br/>value = [51, 0, 0, 0, 2, 250, 7, 4, 0, 0, 2, 0]<br/>class = F>, fillcolor="#6aebe1"] ;
270 -> 300 ;
301 [label=<gini = 0.0<br/>samples = 9<br/>value = [9, 0, 0, 0, 0, 0, 0, 0, 0, 0, 0, 0]<br/>class = A>, fillcolor="#e58139"] ;
300 -> 301 ;
302 [label=<Intercolumnar Distance &le; -0.135<br/>gini = 0.317<br/>samples = 307<br/>value = [42, 0, 0, 0, 2, 250, 7, 4, 0, 0, 2, 0]<br/>class = F>, fillcolor="#64ebe0"] ;
300 -> 302 ;
303 [label=<Lower Margin &le; 0.31<br/>gini = 0.063<br/>samples = 123<br/>value = [2, 0, 0, 0, 2, 119, 0, 0, 0, 0, 0, 0]<br/>class = F>, fillcolor="#40e6d8"] ;
302 -> 303 ;
304 [label=<Row Number &le; 0.217<br/>gini = 0.017<br/>samples = 120<br/>value = [1, 0, 0, 0, 0, 119, 0, 0, 0, 0, 0, 0]<br/>class = F>, fillcolor="#3be5d7"] ;
303 -> 304 ;
305 [label=<Row Number &le; 0.128<br/>gini = 0.142<br/>samples = 13<br/>value = [1, 0, 0, 0, 0, 12, 0, 0, 0, 0, 0, 0]<br/>class = F>, fillcolor="#49e7da"] ;
304 -> 305 ;
306 [label=<gini = 0.0<br/>samples = 12<br/>value = [0, 0, 0, 0, 0, 12, 0, 0, 0, 0, 0, 0]<br/>class = F>, fillcolor="#39e5d7"] ;
305 -> 306 ;
307 [label=<gini = 0.0<br/>samples = 1<br/>value = [1, 0, 0, 0, 0, 0, 0, 0, 0, 0, 0, 0]<br/>class = A>, fillcolor="#e58139"] ;
305 -> 307 ;
308 [label=<gini = 0.0<br/>samples = 107<br/>value = [0, 0, 0, 0, 0, 107, 0, 0, 0, 0, 0, 0]<br/>class = F>, fillcolor="#39e5d7"] ;
304 -> 308 ;
309 [label=<Lower Margin &le; 0.405<br/>gini = 0.444<br/>samples = 3<br/>value = [1, 0, 0, 0, 2, 0, 0, 0, 0, 0, 0, 0]<br/>class = E>, fillcolor="#9cf2c0"] ;
303 -> 309 ;
310 [label=<gini = 0.0<br/>samples = 2<br/>value = [0, 0, 0, 0, 2, 0, 0, 0, 0, 0, 0, 0]<br/>class = E>, fillcolor="#39e581"] ;
309 -> 310 ;
311 [label=<gini = 0.0<br/>samples = 1<br/>value = [1, 0, 0, 0, 0, 0, 0, 0, 0, 0, 0, 0]<br/>class = A>, fillcolor="#e58139"] ;
309 -> 311 ;
312 [label=<Lower Margin &le; 0.077<br/>gini = 0.444<br/>samples = 184<br/>value = [40, 0, 0, 0, 0, 131, 7, 4, 0, 0, 2, 0]<br/>class = F>, fillcolor="#82efe6"] ;
302 -> 312 ;
313 [label=<Upper Margin &le; 0.392<br/>gini = 0.553<br/>samples = 21<br/>value = [12, 0, 0, 0, 0, 0, 7, 0, 0, 0, 2, 0]<br/>class = A>, fillcolor="#f6d2b8"] ;
312 -> 313 ;
314 [label=<Exploitation &le; 0.542<br/>gini = 0.245<br/>samples = 14<br/>value = [12, 0, 0, 0, 0, 0, 0, 0, 0, 0, 2, 0]<br/>class = A>, fillcolor="#e9965a"] ;
313 -> 314 ;
315 [label=<gini = 0.0<br/>samples = 12<br/>value = [12, 0, 0, 0, 0, 0, 0, 0, 0, 0, 0, 0]<br/>class = A>, fillcolor="#e58139"] ;
314 -> 315 ;
316 [label=<gini = 0.0<br/>samples = 2<br/>value = [0, 0, 0, 0, 0, 0, 0, 0, 0, 0, 2, 0]<br/>class = X>, fillcolor="#e5399d"] ;
314 -> 316 ;
317 [label=<gini = 0.0<br/>samples = 7<br/>value = [0, 0, 0, 0, 0, 0, 7, 0, 0, 0, 0, 0]<br/>class = G>, fillcolor="#399de5"] ;
313 -> 317 ;
318 [label=<Upper Margin &le; 0.305<br/>gini = 0.324<br/>samples = 163<br/>value = [28, 0, 0, 0, 0, 131, 0, 4, 0, 0, 0, 0]<br/>class = F>, fillcolor="#68ebe0"] ;
312 -> 318 ;
319 [label=<Weight &le; -0.278<br/>gini = 0.284<br/>samples = 157<br/>value = [22, 0, 0, 0, 0, 131, 0, 4, 0, 0, 0, 0]<br/>class = F>, fillcolor="#5feadf"] ;
318 -> 319 ;
320 [label=<Lower Margin &le; 0.357<br/>gini = 0.561<br/>samples = 28<br/>value = [12, 0, 0, 0, 0, 14, 0, 2, 0, 0, 0, 0]<br/>class = F>, fillcolor="#e6fcfa"] ;
319 -> 320 ;
321 [label=<Exploitation &le; 0.216<br/>gini = 0.494<br/>samples = 18<br/>value = [12, 0, 0, 0, 0, 4, 0, 2, 0, 0, 0, 0]<br/>class = A>, fillcolor="#f0b78e"] ;
320 -> 321 ;
322 [label=<gini = 0.0<br/>samples = 3<br/>value = [0, 0, 0, 0, 0, 3, 0, 0, 0, 0, 0, 0]<br/>class = F>, fillcolor="#39e5d7"] ;
321 -> 322 ;
323 [label=<Upper Margin &le; 0.046<br/>gini = 0.338<br/>samples = 15<br/>value = [12, 0, 0, 0, 0, 1, 0, 2, 0, 0, 0, 0]<br/>class = A>, fillcolor="#eb9e67"] ;
321 -> 323 ;
324 [label=<Interlinear Spacing &le; -0.214<br/>gini = 0.142<br/>samples = 13<br/>value = [12, 0, 0, 0, 0, 1, 0, 0, 0, 0, 0, 0]<br/>class = A>, fillcolor="#e78c49"] ;
323 -> 324 ;
325 [label=<gini = 0.0<br/>samples = 1<br/>value = [0, 0, 0, 0, 0, 1, 0, 0, 0, 0, 0, 0]<br/>class = F>, fillcolor="#39e5d7"] ;
324 -> 325 ;
326 [label=<gini = 0.0<br/>samples = 12<br/>value = [12, 0, 0, 0, 0, 0, 0, 0, 0, 0, 0, 0]<br/>class = A>, fillcolor="#e58139"] ;
324 -> 326 ;
327 [label=<gini = 0.0<br/>samples = 2<br/>value = [0, 0, 0, 0, 0, 0, 0, 2, 0, 0, 0, 0]<br/>class = H>, fillcolor="#3947e5"] ;
323 -> 327 ;
328 [label=<gini = 0.0<br/>samples = 10<br/>value = [0, 0, 0, 0, 0, 10, 0, 0, 0, 0, 0, 0]<br/>class = F>, fillcolor="#39e5d7"] ;
320 -> 328 ;
329 [label=<Row Number &le; 0.128<br/>gini = 0.171<br/>samples = 129<br/>value = [10, 0, 0, 0, 0, 117, 0, 2, 0, 0, 0, 0]<br/>class = F>, fillcolor="#4de8db"] ;
319 -> 329 ;
330 [label=<Row Number &le; -0.051<br/>gini = 0.444<br/>samples = 3<br/>value = [2, 0, 0, 0, 0, 0, 0, 1, 0, 0, 0, 0]<br/>class = A>, fillcolor="#f2c09c"] ;
329 -> 330 ;
331 [label=<gini = 0.0<br/>samples = 2<br/>value = [2, 0, 0, 0, 0, 0, 0, 0, 0, 0, 0, 0]<br/>class = A>, fillcolor="#e58139"] ;
330 -> 331 ;
332 [label=<gini = 0.0<br/>samples = 1<br/>value = [0, 0, 0, 0, 0, 0, 0, 1, 0, 0, 0, 0]<br/>class = H>, fillcolor="#3947e5"] ;
330 -> 332 ;
333 [label=<Interlinear Spacing &le; 0.277<br/>gini = 0.134<br/>samples = 126<br/>value = [8, 0, 0, 0, 0, 117, 0, 1, 0, 0, 0, 0]<br/>class = F>, fillcolor="#48e7da"] ;
329 -> 333 ;
334 [label=<Modular Ratio/Interlinear Spacing &le; 0.239<br/>gini = 0.04<br/>samples = 97<br/>value = [2, 0, 0, 0, 0, 95, 0, 0, 0, 0, 0, 0]<br/>class = F>, fillcolor="#3de6d8"] ;
333 -> 334 ;
335 [label=<gini = 0.0<br/>samples = 90<br/>value = [0, 0, 0, 0, 0, 90, 0, 0, 0, 0, 0, 0]<br/>class = F>, fillcolor="#39e5d7"] ;
334 -> 335 ;
336 [label=<Upper Margin &le; -0.193<br/>gini = 0.408<br/>samples = 7<br/>value = [2, 0, 0, 0, 0, 5, 0, 0, 0, 0, 0, 0]<br/>class = F>, fillcolor="#88efe7"] ;
334 -> 336 ;
337 [label=<gini = 0.0<br/>samples = 4<br/>value = [0, 0, 0, 0, 0, 4, 0, 0, 0, 0, 0, 0]<br/>class = F>, fillcolor="#39e5d7"] ;
336 -> 337 ;
338 [label=<Lower Margin &le; 0.282<br/>gini = 0.444<br/>samples = 3<br/>value = [2, 0, 0, 0, 0, 1, 0, 0, 0, 0, 0, 0]<br/>class = A>, fillcolor="#f2c09c"] ;
336 -> 338 ;
339 [label=<gini = 0.0<br/>samples = 1<br/>value = [0, 0, 0, 0, 0, 1, 0, 0, 0, 0, 0, 0]<br/>class = F>, fillcolor="#39e5d7"] ;
338 -> 339 ;
340 [label=<gini = 0.0<br/>samples = 2<br/>value = [2, 0, 0, 0, 0, 0, 0, 0, 0, 0, 0, 0]<br/>class = A>, fillcolor="#e58139"] ;
338 -> 340 ;
341 [label=<Lower Margin &le; 0.344<br/>gini = 0.38<br/>samples = 29<br/>value = [6, 0, 0, 0, 0, 22, 0, 1, 0, 0, 0, 0]<br/>class = F>, fillcolor="#75ede3"] ;
333 -> 341 ;
342 [label=<Peak Number &le; 0.36<br/>gini = 0.194<br/>samples = 19<br/>value = [1, 0, 0, 0, 0, 17, 0, 1, 0, 0, 0, 0]<br/>class = F>, fillcolor="#4fe8db"] ;
341 -> 342 ;
343 [label=<gini = 0.0<br/>samples = 17<br/>value = [0, 0, 0, 0, 0, 17, 0, 0, 0, 0, 0, 0]<br/>class = F>, fillcolor="#39e5d7"] ;
342 -> 343 ;
344 [label=<Exploitation &le; 0.353<br/>gini = 0.5<br/>samples = 2<br/>value = [1, 0, 0, 0, 0, 0, 0, 1, 0, 0, 0, 0]<br/>class = A>, fillcolor="#ffffff"] ;
342 -> 344 ;
345 [label=<gini = 0.0<br/>samples = 1<br/>value = [0, 0, 0, 0, 0, 0, 0, 1, 0, 0, 0, 0]<br/>class = H>, fillcolor="#3947e5"] ;
344 -> 345 ;
346 [label=<gini = 0.0<br/>samples = 1<br/>value = [1, 0, 0, 0, 0, 0, 0, 0, 0, 0, 0, 0]<br/>class = A>, fillcolor="#e58139"] ;
344 -> 346 ;
347 [label=<Lower Margin &le; 0.367<br/>gini = 0.5<br/>samples = 10<br/>value = [5, 0, 0, 0, 0, 5, 0, 0, 0, 0, 0, 0]<br/>class = A>, fillcolor="#ffffff"] ;
341 -> 347 ;
348 [label=<gini = 0.0<br/>samples = 5<br/>value = [5, 0, 0, 0, 0, 0, 0, 0, 0, 0, 0, 0]<br/>class = A>, fillcolor="#e58139"] ;
347 -> 348 ;
349 [label=<gini = 0.0<br/>samples = 5<br/>value = [0, 0, 0, 0, 0, 5, 0, 0, 0, 0, 0, 0]<br/>class = F>, fillcolor="#39e5d7"] ;
347 -> 349 ;
350 [label=<gini = 0.0<br/>samples = 6<br/>value = [6, 0, 0, 0, 0, 0, 0, 0, 0, 0, 0, 0]<br/>class = A>, fillcolor="#e58139"] ;
318 -> 350 ;
351 [label=<Lower Margin &le; 0.234<br/>gini = 0.605<br/>samples = 38<br/>value = [19, 0, 0, 0, 14, 0, 2, 0, 0, 3, 0, 0]<br/>class = A>, fillcolor="#fae5d6"] ;
269 -> 351 ;
352 [label=<Lower Margin &le; 0.138<br/>gini = 0.172<br/>samples = 21<br/>value = [19, 0, 0, 0, 0, 0, 2, 0, 0, 0, 0, 0]<br/>class = A>, fillcolor="#e88e4e"] ;
351 -> 352 ;
353 [label=<gini = 0.0<br/>samples = 2<br/>value = [0, 0, 0, 0, 0, 0, 2, 0, 0, 0, 0, 0]<br/>class = G>, fillcolor="#399de5"] ;
352 -> 353 ;
354 [label=<gini = 0.0<br/>samples = 19<br/>value = [19, 0, 0, 0, 0, 0, 0, 0, 0, 0, 0, 0]<br/>class = A>, fillcolor="#e58139"] ;
352 -> 354 ;
355 [label=<Exploitation &le; 1.447<br/>gini = 0.291<br/>samples = 17<br/>value = [0, 0, 0, 0, 14, 0, 0, 0, 0, 3, 0, 0]<br/>class = E>, fillcolor="#63eb9c"] ;
351 -> 355 ;
356 [label=<gini = 0.0<br/>samples = 14<br/>value = [0, 0, 0, 0, 14, 0, 0, 0, 0, 0, 0, 0]<br/>class = E>, fillcolor="#39e581"] ;
355 -> 356 ;
357 [label=<gini = 0.0<br/>samples = 3<br/>value = [0, 0, 0, 0, 0, 0, 0, 0, 0, 3, 0, 0]<br/>class = W>, fillcolor="#d739e5"] ;
355 -> 357 ;
358 [label=<Upper Margin &le; 0.651<br/>gini = 0.656<br/>samples = 674<br/>value = [327, 0, 0, 16, 55, 212, 15, 27, 0, 13, 9, 0]<br/>class = A>, fillcolor="#f9e0ce"] ;
236 -> 358 ;
359 [label=<Lower Margin &le; 0.282<br/>gini = 0.651<br/>samples = 642<br/>value = [327, 0, 0, 16, 55, 180, 15, 27, 0, 13, 9, 0]<br/>class = A>, fillcolor="#f7d7c0"] ;
358 -> 359 ;
360 [label=<Exploitation &le; -0.879<br/>gini = 0.567<br/>samples = 426<br/>value = [265, 0, 0, 13, 30, 82, 15, 16, 0, 0, 5, 0]<br/>class = A>, fillcolor="#f1bc96"] ;
359 -> 360 ;
361 [label=<Intercolumnar Distance &le; -0.123<br/>gini = 0.698<br/>samples = 42<br/>value = [0, 0, 0, 13, 17, 7, 0, 0, 0, 0, 5, 0]<br/>class = E>, fillcolor="#e4fbee"] ;
360 -> 361 ;
362 [label=<Exploitation &le; -0.932<br/>gini = 0.611<br/>samples = 25<br/>value = [0, 0, 0, 13, 0, 7, 0, 0, 0, 0, 5, 0]<br/>class = D>, fillcolor="#c2f6bd"] ;
361 -> 362 ;
363 [label=<Upper Margin &le; -0.507<br/>gini = 0.486<br/>samples = 12<br/>value = [0, 0, 0, 0, 0, 7, 0, 0, 0, 0, 5, 0]<br/>class = F>, fillcolor="#c6f8f4"] ;
362 -> 363 ;
364 [label=<gini = 0.0<br/>samples = 5<br/>value = [0, 0, 0, 0, 0, 0, 0, 0, 0, 0, 5, 0]<br/>class = X>, fillcolor="#e5399d"] ;
363 -> 364 ;
365 [label=<gini = 0.0<br/>samples = 7<br/>value = [0, 0, 0, 0, 0, 7, 0, 0, 0, 0, 0, 0]<br/>class = F>, fillcolor="#39e5d7"] ;
363 -> 365 ;
366 [label=<gini = 0.0<br/>samples = 13<br/>value = [0, 0, 0, 13, 0, 0, 0, 0, 0, 0, 0, 0]<br/>class = D>, fillcolor="#47e539"] ;
362 -> 366 ;
367 [label=<gini = 0.0<br/>samples = 17<br/>value = [0, 0, 0, 0, 17, 0, 0, 0, 0, 0, 0, 0]<br/>class = E>, fillcolor="#39e581"] ;
361 -> 367 ;
368 [label=<Upper Margin &le; 0.404<br/>gini = 0.481<br/>samples = 384<br/>value = [265, 0, 0, 0, 13, 75, 15, 16, 0, 0, 0, 0]<br/>class = A>, fillcolor="#efb285"] ;
360 -> 368 ;
369 [label=<Upper Margin &le; 0.219<br/>gini = 0.44<br/>samples = 369<br/>value = [265, 0, 0, 0, 13, 75, 0, 16, 0, 0, 0, 0]<br/>class = A>, fillcolor="#eeae7f"] ;
368 -> 369 ;
370 [label=<Upper Margin &le; -0.126<br/>gini = 0.302<br/>samples = 283<br/>value = [231, 0, 0, 0, 2, 50, 0, 0, 0, 0, 0, 0]<br/>class = A>, fillcolor="#eb9d65"] ;
369 -> 370 ;
371 [label=<Exploitation &le; 0.113<br/>gini = 0.463<br/>samples = 130<br/>value = [84, 0, 0, 0, 1, 45, 0, 0, 0, 0, 0, 0]<br/>class = A>, fillcolor="#f3c5a4"] ;
370 -> 371 ;
372 [label=<Upper Margin &le; -0.374<br/>gini = 0.026<br/>samples = 75<br/>value = [74, 0, 0, 0, 1, 0, 0, 0, 0, 0, 0, 0]<br/>class = A>, fillcolor="#e5833c"] ;
371 -> 372 ;
373 [label=<gini = 0.0<br/>samples = 1<br/>value = [0, 0, 0, 0, 1, 0, 0, 0, 0, 0, 0, 0]<br/>class = E>, fillcolor="#39e581"] ;
372 -> 373 ;
374 [label=<gini = 0.0<br/>samples = 74<br/>value = [74, 0, 0, 0, 0, 0, 0, 0, 0, 0, 0, 0]<br/>class = A>, fillcolor="#e58139"] ;
372 -> 374 ;
375 [label=<Row Number &le; 0.038<br/>gini = 0.298<br/>samples = 55<br/>value = [10, 0, 0, 0, 0, 45, 0, 0, 0, 0, 0, 0]<br/>class = F>, fillcolor="#65ebe0"] ;
371 -> 375 ;
376 [label=<gini = 0.0<br/>samples = 10<br/>value = [10, 0, 0, 0, 0, 0, 0, 0, 0, 0, 0, 0]<br/>class = A>, fillcolor="#e58139"] ;
375 -> 376 ;
377 [label=<gini = 0.0<br/>samples = 45<br/>value = [0, 0, 0, 0, 0, 45, 0, 0, 0, 0, 0, 0]<br/>class = F>, fillcolor="#39e5d7"] ;
375 -> 377 ;
378 [label=<Row Number &le; -0.409<br/>gini = 0.076<br/>samples = 153<br/>value = [147, 0, 0, 0, 1, 5, 0, 0, 0, 0, 0, 0]<br/>class = A>, fillcolor="#e68641"] ;
370 -> 378 ;
379 [label=<gini = 0.0<br/>samples = 2<br/>value = [0, 0, 0, 0, 0, 2, 0, 0, 0, 0, 0, 0]<br/>class = F>, fillcolor="#39e5d7"] ;
378 -> 379 ;
380 [label=<Weight &le; 1.079<br/>gini = 0.052<br/>samples = 151<br/>value = [147, 0, 0, 0, 1, 3, 0, 0, 0, 0, 0, 0]<br/>class = A>, fillcolor="#e6843e"] ;
378 -> 380 ;
381 [label=<Lower Margin &le; -1.121<br/>gini = 0.027<br/>samples = 148<br/>value = [146, 0, 0, 0, 1, 1, 0, 0, 0, 0, 0, 0]<br/>class = A>, fillcolor="#e5833c"] ;
380 -> 381 ;
382 [label=<gini = 0.0<br/>samples = 1<br/>value = [0, 0, 0, 0, 1, 0, 0, 0, 0, 0, 0, 0]<br/>class = E>, fillcolor="#39e581"] ;
381 -> 382 ;
383 [label=<Modular Ratio/Interlinear Spacing &le; 0.075<br/>gini = 0.014<br/>samples = 147<br/>value = [146, 0, 0, 0, 0, 1, 0, 0, 0, 0, 0, 0]<br/>class = A>, fillcolor="#e5823a"] ;
381 -> 383 ;
384 [label=<Peak Number &le; -0.357<br/>gini = 0.219<br/>samples = 8<br/>value = [7, 0, 0, 0, 0, 1, 0, 0, 0, 0, 0, 0]<br/>class = A>, fillcolor="#e99355"] ;
383 -> 384 ;
385 [label=<gini = 0.0<br/>samples = 1<br/>value = [0, 0, 0, 0, 0, 1, 0, 0, 0, 0, 0, 0]<br/>class = F>, fillcolor="#39e5d7"] ;
384 -> 385 ;
386 [label=<gini = 0.0<br/>samples = 7<br/>value = [7, 0, 0, 0, 0, 0, 0, 0, 0, 0, 0, 0]<br/>class = A>, fillcolor="#e58139"] ;
384 -> 386 ;
387 [label=<gini = 0.0<br/>samples = 139<br/>value = [139, 0, 0, 0, 0, 0, 0, 0, 0, 0, 0, 0]<br/>class = A>, fillcolor="#e58139"] ;
383 -> 387 ;
388 [label=<Modular Ratio/Interlinear Spacing &le; 0.266<br/>gini = 0.444<br/>samples = 3<br/>value = [1, 0, 0, 0, 0, 2, 0, 0, 0, 0, 0, 0]<br/>class = F>, fillcolor="#9cf2eb"] ;
380 -> 388 ;
389 [label=<gini = 0.0<br/>samples = 2<br/>value = [0, 0, 0, 0, 0, 2, 0, 0, 0, 0, 0, 0]<br/>class = F>, fillcolor="#39e5d7"] ;
388 -> 389 ;
390 [label=<gini = 0.0<br/>samples = 1<br/>value = [1, 0, 0, 0, 0, 0, 0, 0, 0, 0, 0, 0]<br/>class = A>, fillcolor="#e58139"] ;
388 -> 390 ;
391 [label=<Lower Margin &le; 0.109<br/>gini = 0.708<br/>samples = 86<br/>value = [34, 0, 0, 0, 11, 25, 0, 16, 0, 0, 0, 0]<br/>class = A>, fillcolor="#fbece2"] ;
369 -> 391 ;
392 [label=<Exploitation &le; -0.107<br/>gini = 0.074<br/>samples = 26<br/>value = [0, 0, 0, 0, 0, 25, 0, 1, 0, 0, 0, 0]<br/>class = F>, fillcolor="#41e6d9"] ;
391 -> 392 ;
393 [label=<gini = 0.0<br/>samples = 1<br/>value = [0, 0, 0, 0, 0, 0, 0, 1, 0, 0, 0, 0]<br/>class = H>, fillcolor="#3947e5"] ;
392 -> 393 ;
394 [label=<gini = 0.0<br/>samples = 25<br/>value = [0, 0, 0, 0, 0, 25, 0, 0, 0, 0, 0, 0]<br/>class = F>, fillcolor="#39e5d7"] ;
392 -> 394 ;
395 [label=<Upper Margin &le; 0.302<br/>gini = 0.583<br/>samples = 60<br/>value = [34, 0, 0, 0, 11, 0, 0, 15, 0, 0, 0, 0]<br/>class = A>, fillcolor="#f4caab"] ;
391 -> 395 ;
396 [label=<Upper Margin &le; 0.258<br/>gini = 0.475<br/>samples = 18<br/>value = [0, 0, 0, 0, 11, 0, 0, 7, 0, 0, 0, 0]<br/>class = E>, fillcolor="#b7f6d1"] ;
395 -> 396 ;
397 [label=<gini = 0.0<br/>samples = 7<br/>value = [0, 0, 0, 0, 0, 0, 0, 7, 0, 0, 0, 0]<br/>class = H>, fillcolor="#3947e5"] ;
396 -> 397 ;
398 [label=<gini = 0.0<br/>samples = 11<br/>value = [0, 0, 0, 0, 11, 0, 0, 0, 0, 0, 0, 0]<br/>class = E>, fillcolor="#39e581"] ;
396 -> 398 ;
399 [label=<Weight &le; -0.341<br/>gini = 0.308<br/>samples = 42<br/>value = [34, 0, 0, 0, 0, 0, 0, 8, 0, 0, 0, 0]<br/>class = A>, fillcolor="#eb9f68"] ;
395 -> 399 ;
400 [label=<Lower Margin &le; 0.161<br/>gini = 0.42<br/>samples = 10<br/>value = [3, 0, 0, 0, 0, 0, 0, 7, 0, 0, 0, 0]<br/>class = H>, fillcolor="#8e96f0"] ;
399 -> 400 ;
401 [label=<gini = 0.0<br/>samples = 3<br/>value = [3, 0, 0, 0, 0, 0, 0, 0, 0, 0, 0, 0]<br/>class = A>, fillcolor="#e58139"] ;
400 -> 401 ;
402 [label=<gini = 0.0<br/>samples = 7<br/>value = [0, 0, 0, 0, 0, 0, 0, 7, 0, 0, 0, 0]<br/>class = H>, fillcolor="#3947e5"] ;
400 -> 402 ;
403 [label=<Peak Number &le; 0.204<br/>gini = 0.061<br/>samples = 32<br/>value = [31, 0, 0, 0, 0, 0, 0, 1, 0, 0, 0, 0]<br/>class = A>, fillcolor="#e6853f"] ;
399 -> 403 ;
404 [label=<gini = 0.0<br/>samples = 24<br/>value = [24, 0, 0, 0, 0, 0, 0, 0, 0, 0, 0, 0]<br/>class = A>, fillcolor="#e58139"] ;
403 -> 404 ;
405 [label=<Modular Ratio &le; 0.792<br/>gini = 0.219<br/>samples = 8<br/>value = [7, 0, 0, 0, 0, 0, 0, 1, 0, 0, 0, 0]<br/>class = A>, fillcolor="#e99355"] ;
403 -> 405 ;
406 [label=<gini = 0.0<br/>samples = 6<br/>value = [6, 0, 0, 0, 0, 0, 0, 0, 0, 0, 0, 0]<br/>class = A>, fillcolor="#e58139"] ;
405 -> 406 ;
407 [label=<Upper Margin &le; 0.364<br/>gini = 0.5<br/>samples = 2<br/>value = [1, 0, 0, 0, 0, 0, 0, 1, 0, 0, 0, 0]<br/>class = A>, fillcolor="#ffffff"] ;
405 -> 407 ;
408 [label=<gini = 0.0<br/>samples = 1<br/>value = [0, 0, 0, 0, 0, 0, 0, 1, 0, 0, 0, 0]<br/>class = H>, fillcolor="#3947e5"] ;
407 -> 408 ;
409 [label=<gini = 0.0<br/>samples = 1<br/>value = [1, 0, 0, 0, 0, 0, 0, 0, 0, 0, 0, 0]<br/>class = A>, fillcolor="#e58139"] ;
407 -> 409 ;
410 [label=<gini = 0.0<br/>samples = 15<br/>value = [0, 0, 0, 0, 0, 0, 15, 0, 0, 0, 0, 0]<br/>class = G>, fillcolor="#399de5"] ;
368 -> 410 ;
411 [label=<Upper Margin &le; 0.003<br/>gini = 0.692<br/>samples = 216<br/>value = [62, 0, 0, 3, 25, 98, 0, 11, 0, 13, 4, 0]<br/>class = F>, fillcolor="#d1f9f6"] ;
359 -> 411 ;
412 [label=<Lower Margin &le; 0.486<br/>gini = 0.541<br/>samples = 172<br/>value = [62, 0, 0, 0, 11, 98, 0, 0, 0, 0, 1, 0]<br/>class = F>, fillcolor="#bef6f2"] ;
411 -> 412 ;
413 [label=<Row Number &le; 0.217<br/>gini = 0.483<br/>samples = 146<br/>value = [36, 0, 0, 0, 11, 98, 0, 0, 0, 0, 1, 0]<br/>class = F>, fillcolor="#8ff0e8"] ;
412 -> 413 ;
414 [label=<Exploitation &le; 0.437<br/>gini = 0.475<br/>samples = 42<br/>value = [27, 0, 0, 0, 0, 14, 0, 0, 0, 0, 1, 0]<br/>class = A>, fillcolor="#f3c4a3"] ;
413 -> 414 ;
415 [label=<Upper Margin &le; -0.688<br/>gini = 0.069<br/>samples = 28<br/>value = [27, 0, 0, 0, 0, 0, 0, 0, 0, 0, 1, 0]<br/>class = A>, fillcolor="#e68640"] ;
414 -> 415 ;
416 [label=<gini = 0.0<br/>samples = 1<br/>value = [0, 0, 0, 0, 0, 0, 0, 0, 0, 0, 1, 0]<br/>class = X>, fillcolor="#e5399d"] ;
415 -> 416 ;
417 [label=<gini = 0.0<br/>samples = 27<br/>value = [27, 0, 0, 0, 0, 0, 0, 0, 0, 0, 0, 0]<br/>class = A>, fillcolor="#e58139"] ;
415 -> 417 ;
418 [label=<gini = 0.0<br/>samples = 14<br/>value = [0, 0, 0, 0, 0, 14, 0, 0, 0, 0, 0, 0]<br/>class = F>, fillcolor="#39e5d7"] ;
414 -> 418 ;
419 [label=<Intercolumnar Distance &le; -0.166<br/>gini = 0.329<br/>samples = 104<br/>value = [9, 0, 0, 0, 11, 84, 0, 0, 0, 0, 0, 0]<br/>class = F>, fillcolor="#64ebe0"] ;
413 -> 419 ;
420 [label=<gini = 0.0<br/>samples = 5<br/>value = [0, 0, 0, 0, 5, 0, 0, 0, 0, 0, 0, 0]<br/>class = E>, fillcolor="#39e581"] ;
419 -> 420 ;
421 [label=<Exploitation &le; 0.024<br/>gini = 0.268<br/>samples = 99<br/>value = [9, 0, 0, 0, 6, 84, 0, 0, 0, 0, 0, 0]<br/>class = F>, fillcolor="#5ae9de"] ;
419 -> 421 ;
422 [label=<Upper Margin &le; -0.346<br/>gini = 0.5<br/>samples = 12<br/>value = [0, 0, 0, 0, 6, 6, 0, 0, 0, 0, 0, 0]<br/>class = E>, fillcolor="#ffffff"] ;
421 -> 422 ;
423 [label=<gini = 0.0<br/>samples = 6<br/>value = [0, 0, 0, 0, 0, 6, 0, 0, 0, 0, 0, 0]<br/>class = F>, fillcolor="#39e5d7"] ;
422 -> 423 ;
424 [label=<gini = 0.0<br/>samples = 6<br/>value = [0, 0, 0, 0, 6, 0, 0, 0, 0, 0, 0, 0]<br/>class = E>, fillcolor="#39e581"] ;
422 -> 424 ;
425 [label=<Peak Number &le; 0.08<br/>gini = 0.185<br/>samples = 87<br/>value = [9, 0, 0, 0, 0, 78, 0, 0, 0, 0, 0, 0]<br/>class = F>, fillcolor="#50e8dc"] ;
421 -> 425 ;
426 [label=<Weight &le; -1.673<br/>gini = 0.101<br/>samples = 75<br/>value = [4, 0, 0, 0, 0, 71, 0, 0, 0, 0, 0, 0]<br/>class = F>, fillcolor="#44e6d9"] ;
425 -> 426 ;
427 [label=<Upper Margin &le; -0.181<br/>gini = 0.444<br/>samples = 3<br/>value = [2, 0, 0, 0, 0, 1, 0, 0, 0, 0, 0, 0]<br/>class = A>, fillcolor="#f2c09c"] ;
426 -> 427 ;
428 [label=<gini = 0.0<br/>samples = 2<br/>value = [2, 0, 0, 0, 0, 0, 0, 0, 0, 0, 0, 0]<br/>class = A>, fillcolor="#e58139"] ;
427 -> 428 ;
429 [label=<gini = 0.0<br/>samples = 1<br/>value = [0, 0, 0, 0, 0, 1, 0, 0, 0, 0, 0, 0]<br/>class = F>, fillcolor="#39e5d7"] ;
427 -> 429 ;
430 [label=<Modular Ratio &le; 0.232<br/>gini = 0.054<br/>samples = 72<br/>value = [2, 0, 0, 0, 0, 70, 0, 0, 0, 0, 0, 0]<br/>class = F>, fillcolor="#3fe6d8"] ;
426 -> 430 ;
431 [label=<Lower Margin &le; 0.367<br/>gini = 0.278<br/>samples = 6<br/>value = [1, 0, 0, 0, 0, 5, 0, 0, 0, 0, 0, 0]<br/>class = F>, fillcolor="#61eadf"] ;
430 -> 431 ;
432 [label=<Intercolumnar Distance &le; -0.123<br/>gini = 0.5<br/>samples = 2<br/>value = [1, 0, 0, 0, 0, 1, 0, 0, 0, 0, 0, 0]<br/>class = A>, fillcolor="#ffffff"] ;
431 -> 432 ;
433 [label=<gini = 0.0<br/>samples = 1<br/>value = [0, 0, 0, 0, 0, 1, 0, 0, 0, 0, 0, 0]<br/>class = F>, fillcolor="#39e5d7"] ;
432 -> 433 ;
434 [label=<gini = 0.0<br/>samples = 1<br/>value = [1, 0, 0, 0, 0, 0, 0, 0, 0, 0, 0, 0]<br/>class = A>, fillcolor="#e58139"] ;
432 -> 434 ;
435 [label=<gini = 0.0<br/>samples = 4<br/>value = [0, 0, 0, 0, 0, 4, 0, 0, 0, 0, 0, 0]<br/>class = F>, fillcolor="#39e5d7"] ;
431 -> 435 ;
436 [label=<Interlinear Spacing &le; 0.466<br/>gini = 0.03<br/>samples = 66<br/>value = [1, 0, 0, 0, 0, 65, 0, 0, 0, 0, 0, 0]<br/>class = F>, fillcolor="#3ce5d8"] ;
430 -> 436 ;
437 [label=<gini = 0.0<br/>samples = 51<br/>value = [0, 0, 0, 0, 0, 51, 0, 0, 0, 0, 0, 0]<br/>class = F>, fillcolor="#39e5d7"] ;
436 -> 437 ;
438 [label=<Weight &le; -0.463<br/>gini = 0.124<br/>samples = 15<br/>value = [1, 0, 0, 0, 0, 14, 0, 0, 0, 0, 0, 0]<br/>class = F>, fillcolor="#47e7da"] ;
436 -> 438 ;
439 [label=<gini = 0.0<br/>samples = 12<br/>value = [0, 0, 0, 0, 0, 12, 0, 0, 0, 0, 0, 0]<br/>class = F>, fillcolor="#39e5d7"] ;
438 -> 439 ;
440 [label=<Interlinear Spacing &le; 0.522<br/>gini = 0.444<br/>samples = 3<br/>value = [1, 0, 0, 0, 0, 2, 0, 0, 0, 0, 0, 0]<br/>class = F>, fillcolor="#9cf2eb"] ;
438 -> 440 ;
441 [label=<gini = 0.0<br/>samples = 1<br/>value = [1, 0, 0, 0, 0, 0, 0, 0, 0, 0, 0, 0]<br/>class = A>, fillcolor="#e58139"] ;
440 -> 441 ;
442 [label=<gini = 0.0<br/>samples = 2<br/>value = [0, 0, 0, 0, 0, 2, 0, 0, 0, 0, 0, 0]<br/>class = F>, fillcolor="#39e5d7"] ;
440 -> 442 ;
443 [label=<Exploitation &le; 0.28<br/>gini = 0.486<br/>samples = 12<br/>value = [5, 0, 0, 0, 0, 7, 0, 0, 0, 0, 0, 0]<br/>class = F>, fillcolor="#c6f8f4"] ;
425 -> 443 ;
444 [label=<gini = 0.0<br/>samples = 5<br/>value = [5, 0, 0, 0, 0, 0, 0, 0, 0, 0, 0, 0]<br/>class = A>, fillcolor="#e58139"] ;
443 -> 444 ;
445 [label=<gini = 0.0<br/>samples = 7<br/>value = [0, 0, 0, 0, 0, 7, 0, 0, 0, 0, 0, 0]<br/>class = F>, fillcolor="#39e5d7"] ;
443 -> 445 ;
446 [label=<gini = 0.0<br/>samples = 26<br/>value = [26, 0, 0, 0, 0, 0, 0, 0, 0, 0, 0, 0]<br/>class = A>, fillcolor="#e58139"] ;
412 -> 446 ;
447 [label=<Intercolumnar Distance &le; -0.086<br/>gini = 0.74<br/>samples = 44<br/>value = [0, 0, 0, 3, 14, 0, 0, 11, 0, 13, 3, 0]<br/>class = E>, fillcolor="#f9fefb"] ;
411 -> 447 ;
448 [label=<Lower Margin &le; 0.412<br/>gini = 0.658<br/>samples = 30<br/>value = [0, 0, 0, 3, 0, 0, 0, 11, 0, 13, 3, 0]<br/>class = W>, fillcolor="#fbeafc"] ;
447 -> 448 ;
449 [label=<Lower Margin &le; 0.325<br/>gini = 0.519<br/>samples = 17<br/>value = [0, 0, 0, 3, 0, 0, 0, 11, 0, 0, 3, 0]<br/>class = H>, fillcolor="#8e96f0"] ;
448 -> 449 ;
450 [label=<gini = 0.0<br/>samples = 11<br/>value = [0, 0, 0, 0, 0, 0, 0, 11, 0, 0, 0, 0]<br/>class = H>, fillcolor="#3947e5"] ;
449 -> 450 ;
451 [label=<Intercolumnar Distance &le; -0.11<br/>gini = 0.5<br/>samples = 6<br/>value = [0, 0, 0, 3, 0, 0, 0, 0, 0, 0, 3, 0]<br/>class = D>, fillcolor="#ffffff"] ;
449 -> 451 ;
452 [label=<gini = 0.0<br/>samples = 3<br/>value = [0, 0, 0, 3, 0, 0, 0, 0, 0, 0, 0, 0]<br/>class = D>, fillcolor="#47e539"] ;
451 -> 452 ;
453 [label=<gini = 0.0<br/>samples = 3<br/>value = [0, 0, 0, 0, 0, 0, 0, 0, 0, 0, 3, 0]<br/>class = X>, fillcolor="#e5399d"] ;
451 -> 453 ;
454 [label=<gini = 0.0<br/>samples = 13<br/>value = [0, 0, 0, 0, 0, 0, 0, 0, 0, 13, 0, 0]<br/>class = W>, fillcolor="#d739e5"] ;
448 -> 454 ;
455 [label=<gini = 0.0<br/>samples = 14<br/>value = [0, 0, 0, 0, 14, 0, 0, 0, 0, 0, 0, 0]<br/>class = E>, fillcolor="#39e581"] ;
447 -> 455 ;
456 [label=<gini = 0.0<br/>samples = 32<br/>value = [0, 0, 0, 0, 0, 32, 0, 0, 0, 0, 0, 0]<br/>class = F>, fillcolor="#39e5d7"] ;
358 -> 456 ;
457 [label=<Lower Margin &le; 0.54<br/>gini = 0.699<br/>samples = 154<br/>value = [18, 0, 41, 65, 30, 0, 0, 0, 0, 0, 0, 0]<br/>class = D>, fillcolor="#d8f9d5"] ;
235 -> 457 ;
458 [label=<gini = 0.0<br/>samples = 30<br/>value = [0, 0, 0, 0, 30, 0, 0, 0, 0, 0, 0, 0]<br/>class = E>, fillcolor="#39e581"] ;
457 -> 458 ;
459 [label=<Lower Margin &le; 0.639<br/>gini = 0.595<br/>samples = 124<br/>value = [18, 0, 41, 65, 0, 0, 0, 0, 0, 0, 0, 0]<br/>class = D>, fillcolor="#caf7c6"] ;
457 -> 459 ;
460 [label=<Exploitation &le; -1.265<br/>gini = 0.329<br/>samples = 82<br/>value = [0, 0, 17, 65, 0, 0, 0, 0, 0, 0, 0, 0]<br/>class = D>, fillcolor="#77ec6d"] ;
459 -> 460 ;
461 [label=<gini = 0.0<br/>samples = 17<br/>value = [0, 0, 17, 0, 0, 0, 0, 0, 0, 0, 0, 0]<br/>class = C>, fillcolor="#9de539"] ;
460 -> 461 ;
462 [label=<gini = 0.0<br/>samples = 65<br/>value = [0, 0, 0, 65, 0, 0, 0, 0, 0, 0, 0, 0]<br/>class = D>, fillcolor="#47e539"] ;
460 -> 462 ;
463 [label=<Intercolumnar Distance &le; -0.11<br/>gini = 0.49<br/>samples = 42<br/>value = [18, 0, 24, 0, 0, 0, 0, 0, 0, 0, 0, 0]<br/>class = C>, fillcolor="#e6f8ce"] ;
459 -> 463 ;
464 [label=<gini = 0.0<br/>samples = 18<br/>value = [18, 0, 0, 0, 0, 0, 0, 0, 0, 0, 0, 0]<br/>class = A>, fillcolor="#e58139"] ;
463 -> 464 ;
465 [label=<gini = 0.0<br/>samples = 24<br/>value = [0, 0, 24, 0, 0, 0, 0, 0, 0, 0, 0, 0]<br/>class = C>, fillcolor="#9de539"] ;
463 -> 465 ;
466 [label=<Intercolumnar Distance &le; -0.16<br/>gini = 0.615<br/>samples = 1625<br/>value = [118, 6, 31, 127, 975, 22, 68, 96, 15, 15, 144, 8]<br/>class = E>, fillcolor="#90f0b8"] ;
4 -> 466 ;
467 [label=<Exploitation &le; 1.654<br/>gini = 0.488<br/>samples = 1227<br/>value = [67, 0, 23, 107, 862, 4, 26, 4, 15, 9, 102, 8]<br/>class = E>, fillcolor="#7aedaa"] ;
466 -> 467 ;
468 [label=<Upper Margin &le; -0.853<br/>gini = 0.447<br/>samples = 1175<br/>value = [67, 0, 23, 107, 862, 4, 26, 4, 8, 9, 57, 8]<br/>class = E>, fillcolor="#73eda6"] ;
467 -> 468 ;
469 [label=<Row Number &le; 0.083<br/>gini = 0.412<br/>samples = 31<br/>value = [0, 0, 0, 22, 0, 0, 0, 0, 0, 0, 9, 0]<br/>class = D>, fillcolor="#92f08a"] ;
468 -> 469 ;
470 [label=<gini = 0.0<br/>samples = 9<br/>value = [0, 0, 0, 0, 0, 0, 0, 0, 0, 0, 9, 0]<br/>class = X>, fillcolor="#e5399d"] ;
469 -> 470 ;
471 [label=<gini = 0.0<br/>samples = 22<br/>value = [0, 0, 0, 22, 0, 0, 0, 0, 0, 0, 0, 0]<br/>class = D>, fillcolor="#47e539"] ;
469 -> 471 ;
472 [label=<Exploitation &le; -0.623<br/>gini = 0.42<br/>samples = 1144<br/>value = [67, 0, 23, 85, 862, 4, 26, 4, 8, 9, 48, 8]<br/>class = E>, fillcolor="#6eeca3"] ;
468 -> 472 ;
473 [label=<Lower Margin &le; 0.38<br/>gini = 0.749<br/>samples = 75<br/>value = [13, 0, 11, 23, 24, 0, 0, 4, 0, 0, 0, 0]<br/>class = E>, fillcolor="#fbfefd"] ;
472 -> 473 ;
474 [label=<Intercolumnar Distance &le; -0.431<br/>gini = 0.668<br/>samples = 46<br/>value = [11, 0, 9, 22, 0, 0, 0, 4, 0, 0, 0, 0]<br/>class = D>, fillcolor="#c5f7c1"] ;
473 -> 474 ;
475 [label=<Intercolumnar Distance &le; -1.993<br/>gini = 0.632<br/>samples = 22<br/>value = [9, 0, 9, 0, 0, 0, 0, 4, 0, 0, 0, 0]<br/>class = A>, fillcolor="#ffffff"] ;
474 -> 475 ;
476 [label=<gini = 0.0<br/>samples = 9<br/>value = [9, 0, 0, 0, 0, 0, 0, 0, 0, 0, 0, 0]<br/>class = A>, fillcolor="#e58139"] ;
475 -> 476 ;
477 [label=<Weight &le; 0.268<br/>gini = 0.426<br/>samples = 13<br/>value = [0, 0, 9, 0, 0, 0, 0, 4, 0, 0, 0, 0]<br/>class = C>, fillcolor="#c9f191"] ;
475 -> 477 ;
478 [label=<Peak Number &le; 0.906<br/>gini = 0.298<br/>samples = 11<br/>value = [0, 0, 9, 0, 0, 0, 0, 2, 0, 0, 0, 0]<br/>class = C>, fillcolor="#b3eb65"] ;
477 -> 478 ;
479 [label=<gini = 0.0<br/>samples = 7<br/>value = [0, 0, 7, 0, 0, 0, 0, 0, 0, 0, 0, 0]<br/>class = C>, fillcolor="#9de539"] ;
478 -> 479 ;
480 [label=<Modular Ratio/Interlinear Spacing &le; -0.948<br/>gini = 0.5<br/>samples = 4<br/>value = [0, 0, 2, 0, 0, 0, 0, 2, 0, 0, 0, 0]<br/>class = C>, fillcolor="#ffffff"] ;
478 -> 480 ;
481 [label=<gini = 0.0<br/>samples = 1<br/>value = [0, 0, 1, 0, 0, 0, 0, 0, 0, 0, 0, 0]<br/>class = C>, fillcolor="#9de539"] ;
480 -> 481 ;
482 [label=<Modular Ratio/Interlinear Spacing &le; -0.378<br/>gini = 0.444<br/>samples = 3<br/>value = [0, 0, 1, 0, 0, 0, 0, 2, 0, 0, 0, 0]<br/>class = H>, fillcolor="#9ca3f2"] ;
480 -> 482 ;
483 [label=<gini = 0.0<br/>samples = 1<br/>value = [0, 0, 0, 0, 0, 0, 0, 1, 0, 0, 0, 0]<br/>class = H>, fillcolor="#3947e5"] ;
482 -> 483 ;
484 [label=<Modular Ratio/Interlinear Spacing &le; -0.111<br/>gini = 0.5<br/>samples = 2<br/>value = [0, 0, 1, 0, 0, 0, 0, 1, 0, 0, 0, 0]<br/>class = C>, fillcolor="#ffffff"] ;
482 -> 484 ;
485 [label=<gini = 0.0<br/>samples = 1<br/>value = [0, 0, 1, 0, 0, 0, 0, 0, 0, 0, 0, 0]<br/>class = C>, fillcolor="#9de539"] ;
484 -> 485 ;
486 [label=<gini = 0.0<br/>samples = 1<br/>value = [0, 0, 0, 0, 0, 0, 0, 1, 0, 0, 0, 0]<br/>class = H>, fillcolor="#3947e5"] ;
484 -> 486 ;
487 [label=<gini = 0.0<br/>samples = 2<br/>value = [0, 0, 0, 0, 0, 0, 0, 2, 0, 0, 0, 0]<br/>class = H>, fillcolor="#3947e5"] ;
477 -> 487 ;
488 [label=<Modular Ratio/Interlinear Spacing &le; 0.327<br/>gini = 0.153<br/>samples = 24<br/>value = [2, 0, 0, 22, 0, 0, 0, 0, 0, 0, 0, 0]<br/>class = D>, fillcolor="#58e74b"] ;
474 -> 488 ;
489 [label=<gini = 0.0<br/>samples = 22<br/>value = [0, 0, 0, 22, 0, 0, 0, 0, 0, 0, 0, 0]<br/>class = D>, fillcolor="#47e539"] ;
488 -> 489 ;
490 [label=<gini = 0.0<br/>samples = 2<br/>value = [2, 0, 0, 0, 0, 0, 0, 0, 0, 0, 0, 0]<br/>class = A>, fillcolor="#e58139"] ;
488 -> 490 ;
491 [label=<Row Number &le; -0.543<br/>gini = 0.304<br/>samples = 29<br/>value = [2, 0, 2, 1, 24, 0, 0, 0, 0, 0, 0, 0]<br/>class = E>, fillcolor="#5eea98"] ;
473 -> 491 ;
492 [label=<Modular Ratio &le; 0.564<br/>gini = 0.5<br/>samples = 4<br/>value = [2, 0, 2, 0, 0, 0, 0, 0, 0, 0, 0, 0]<br/>class = A>, fillcolor="#ffffff"] ;
491 -> 492 ;
493 [label=<gini = 0.0<br/>samples = 2<br/>value = [0, 0, 2, 0, 0, 0, 0, 0, 0, 0, 0, 0]<br/>class = C>, fillcolor="#9de539"] ;
492 -> 493 ;
494 [label=<gini = 0.0<br/>samples = 2<br/>value = [2, 0, 0, 0, 0, 0, 0, 0, 0, 0, 0, 0]<br/>class = A>, fillcolor="#e58139"] ;
492 -> 494 ;
495 [label=<Intercolumnar Distance &le; -0.419<br/>gini = 0.077<br/>samples = 25<br/>value = [0, 0, 0, 1, 24, 0, 0, 0, 0, 0, 0, 0]<br/>class = E>, fillcolor="#41e686"] ;
491 -> 495 ;
496 [label=<gini = 0.0<br/>samples = 1<br/>value = [0, 0, 0, 1, 0, 0, 0, 0, 0, 0, 0, 0]<br/>class = D>, fillcolor="#47e539"] ;
495 -> 496 ;
497 [label=<gini = 0.0<br/>samples = 24<br/>value = [0, 0, 0, 0, 24, 0, 0, 0, 0, 0, 0, 0]<br/>class = E>, fillcolor="#39e581"] ;
495 -> 497 ;
498 [label=<Exploitation &le; 0.758<br/>gini = 0.377<br/>samples = 1069<br/>value = [54, 0, 12, 62, 838, 4, 26, 0, 8, 9, 48, 8]<br/>class = E>, fillcolor="#66eb9e"] ;
472 -> 498 ;
499 [label=<Lower Margin &le; 0.588<br/>gini = 0.262<br/>samples = 809<br/>value = [22, 0, 12, 39, 693, 2, 13, 0, 8, 3, 17, 0]<br/>class = E>, fillcolor="#57e994"] ;
498 -> 499 ;
500 [label=<Lower Margin &le; 0.067<br/>gini = 0.24<br/>samples = 797<br/>value = [22, 0, 0, 39, 693, 2, 13, 0, 8, 3, 17, 0]<br/>class = E>, fillcolor="#54e992"] ;
499 -> 500 ;
501 [label=<Exploitation &le; 0.376<br/>gini = 0.572<br/>samples = 142<br/>value = [18, 0, 0, 3, 89, 2, 13, 0, 0, 3, 14, 0]<br/>class = E>, fillcolor="#8ef0b7"] ;
500 -> 501 ;
502 [label=<Lower Margin &le; 0.036<br/>gini = 0.329<br/>samples = 110<br/>value = [1, 0, 0, 3, 89, 0, 13, 0, 0, 0, 4, 0]<br/>class = E>, fillcolor="#64eb9c"] ;
501 -> 502 ;
503 [label=<Row Number &le; 0.172<br/>gini = 0.155<br/>samples = 97<br/>value = [1, 0, 0, 3, 89, 0, 0, 0, 0, 0, 4, 0]<br/>class = E>, fillcolor="#4ae78c"] ;
502 -> 503 ;
504 [label=<Modular Ratio &le; 0.439<br/>gini = 0.375<br/>samples = 4<br/>value = [1, 0, 0, 3, 0, 0, 0, 0, 0, 0, 0, 0]<br/>class = D>, fillcolor="#84ee7b"] ;
503 -> 504 ;
505 [label=<gini = 0.0<br/>samples = 3<br/>value = [0, 0, 0, 3, 0, 0, 0, 0, 0, 0, 0, 0]<br/>class = D>, fillcolor="#47e539"] ;
504 -> 505 ;
506 [label=<gini = 0.0<br/>samples = 1<br/>value = [1, 0, 0, 0, 0, 0, 0, 0, 0, 0, 0, 0]<br/>class = A>, fillcolor="#e58139"] ;
504 -> 506 ;
507 [label=<Weight &le; 0.217<br/>gini = 0.082<br/>samples = 93<br/>value = [0, 0, 0, 0, 89, 0, 0, 0, 0, 0, 4, 0]<br/>class = E>, fillcolor="#42e687"] ;
503 -> 507 ;
508 [label=<Intercolumnar Distance &le; -0.259<br/>gini = 0.391<br/>samples = 15<br/>value = [0, 0, 0, 0, 11, 0, 0, 0, 0, 0, 4, 0]<br/>class = E>, fillcolor="#81eeaf"] ;
507 -> 508 ;
509 [label=<gini = 0.0<br/>samples = 11<br/>value = [0, 0, 0, 0, 11, 0, 0, 0, 0, 0, 0, 0]<br/>class = E>, fillcolor="#39e581"] ;
508 -> 509 ;
510 [label=<gini = 0.0<br/>samples = 4<br/>value = [0, 0, 0, 0, 0, 0, 0, 0, 0, 0, 4, 0]<br/>class = X>, fillcolor="#e5399d"] ;
508 -> 510 ;
511 [label=<gini = 0.0<br/>samples = 78<br/>value = [0, 0, 0, 0, 78, 0, 0, 0, 0, 0, 0, 0]<br/>class = E>, fillcolor="#39e581"] ;
507 -> 511 ;
512 [label=<gini = 0.0<br/>samples = 13<br/>value = [0, 0, 0, 0, 0, 0, 13, 0, 0, 0, 0, 0]<br/>class = G>, fillcolor="#399de5"] ;
502 -> 512 ;
513 [label=<Lower Margin &le; -0.024<br/>gini = 0.607<br/>samples = 32<br/>value = [17, 0, 0, 0, 0, 2, 0, 0, 0, 3, 10, 0]<br/>class = A>, fillcolor="#f7d7c0"] ;
501 -> 513 ;
514 [label=<Row Number &le; 0.172<br/>gini = 0.498<br/>samples = 15<br/>value = [0, 0, 0, 0, 0, 2, 0, 0, 0, 3, 10, 0]<br/>class = X>, fillcolor="#f08cc6"] ;
513 -> 514 ;
515 [label=<gini = 0.0<br/>samples = 10<br/>value = [0, 0, 0, 0, 0, 0, 0, 0, 0, 0, 10, 0]<br/>class = X>, fillcolor="#e5399d"] ;
514 -> 515 ;
516 [label=<Lower Margin &le; -1.626<br/>gini = 0.48<br/>samples = 5<br/>value = [0, 0, 0, 0, 0, 2, 0, 0, 0, 3, 0, 0]<br/>class = W>, fillcolor="#f2bdf6"] ;
514 -> 516 ;
517 [label=<gini = 0.0<br/>samples = 3<br/>value = [0, 0, 0, 0, 0, 0, 0, 0, 0, 3, 0, 0]<br/>class = W>, fillcolor="#d739e5"] ;
516 -> 517 ;
518 [label=<gini = 0.0<br/>samples = 2<br/>value = [0, 0, 0, 0, 0, 2, 0, 0, 0, 0, 0, 0]<br/>class = F>, fillcolor="#39e5d7"] ;
516 -> 518 ;
519 [label=<gini = 0.0<br/>samples = 17<br/>value = [17, 0, 0, 0, 0, 0, 0, 0, 0, 0, 0, 0]<br/>class = A>, fillcolor="#e58139"] ;
513 -> 519 ;
520 [label=<Intercolumnar Distance &le; -0.721<br/>gini = 0.146<br/>samples = 655<br/>value = [4, 0, 0, 36, 604, 0, 0, 0, 8, 0, 3, 0]<br/>class = E>, fillcolor="#49e78b"] ;
500 -> 520 ;
521 [label=<Upper Margin &le; -0.052<br/>gini = 0.653<br/>samples = 24<br/>value = [0, 0, 0, 6, 10, 0, 0, 0, 8, 0, 0, 0]<br/>class = E>, fillcolor="#e6fcef"] ;
520 -> 521 ;
522 [label=<Interlinear Spacing &le; -0.289<br/>gini = 0.49<br/>samples = 14<br/>value = [0, 0, 0, 6, 0, 0, 0, 0, 8, 0, 0, 0]<br/>class = I>, fillcolor="#e0cef8"] ;
521 -> 522 ;
523 [label=<gini = 0.0<br/>samples = 8<br/>value = [0, 0, 0, 0, 0, 0, 0, 0, 8, 0, 0, 0]<br/>class = I>, fillcolor="#8139e5"] ;
522 -> 523 ;
524 [label=<gini = 0.0<br/>samples = 6<br/>value = [0, 0, 0, 6, 0, 0, 0, 0, 0, 0, 0, 0]<br/>class = D>, fillcolor="#47e539"] ;
522 -> 524 ;
525 [label=<gini = 0.0<br/>samples = 10<br/>value = [0, 0, 0, 0, 10, 0, 0, 0, 0, 0, 0, 0]<br/>class = E>, fillcolor="#39e581"] ;
521 -> 525 ;
526 [label=<Lower Margin &le; 0.394<br/>gini = 0.112<br/>samples = 631<br/>value = [4, 0, 0, 30, 594, 0, 0, 0, 0, 0, 3, 0]<br/>class = E>, fillcolor="#45e789"] ;
520 -> 526 ;
527 [label=<Modular Ratio/Interlinear Spacing &le; 3.071<br/>gini = 0.021<br/>samples = 478<br/>value = [2, 0, 0, 0, 473, 0, 0, 0, 0, 0, 3, 0]<br/>class = E>, fillcolor="#3be582"] ;
526 -> 527 ;
528 [label=<Modular Ratio &le; 1.706<br/>gini = 0.017<br/>samples = 477<br/>value = [2, 0, 0, 0, 473, 0, 0, 0, 0, 0, 2, 0]<br/>class = E>, fillcolor="#3be582"] ;
527 -> 528 ;
529 [label=<Interlinear Spacing &le; -2.951<br/>gini = 0.013<br/>samples = 475<br/>value = [1, 0, 0, 0, 472, 0, 0, 0, 0, 0, 2, 0]<br/>class = E>, fillcolor="#3ae582"] ;
528 -> 529 ;
530 [label=<Interlinear Spacing &le; -3.14<br/>gini = 0.444<br/>samples = 3<br/>value = [0, 0, 0, 0, 2, 0, 0, 0, 0, 0, 1, 0]<br/>class = E>, fillcolor="#9cf2c0"] ;
529 -> 530 ;
531 [label=<gini = 0.0<br/>samples = 2<br/>value = [0, 0, 0, 0, 2, 0, 0, 0, 0, 0, 0, 0]<br/>class = E>, fillcolor="#39e581"] ;
530 -> 531 ;
532 [label=<gini = 0.0<br/>samples = 1<br/>value = [0, 0, 0, 0, 0, 0, 0, 0, 0, 0, 1, 0]<br/>class = X>, fillcolor="#e5399d"] ;
530 -> 532 ;
533 [label=<Modular Ratio &le; 1.498<br/>gini = 0.008<br/>samples = 472<br/>value = [1, 0, 0, 0, 470, 0, 0, 0, 0, 0, 1, 0]<br/>class = E>, fillcolor="#3ae582"] ;
529 -> 533 ;
534 [label=<Peak Number &le; 0.485<br/>gini = 0.004<br/>samples = 465<br/>value = [1, 0, 0, 0, 464, 0, 0, 0, 0, 0, 0, 0]<br/>class = E>, fillcolor="#39e581"] ;
533 -> 534 ;
535 [label=<Interlinear Spacing &le; -0.006<br/>gini = 0.056<br/>samples = 35<br/>value = [1, 0, 0, 0, 34, 0, 0, 0, 0, 0, 0, 0]<br/>class = E>, fillcolor="#3fe685"] ;
534 -> 535 ;
536 [label=<Upper Margin &le; -0.067<br/>gini = 0.278<br/>samples = 6<br/>value = [1, 0, 0, 0, 5, 0, 0, 0, 0, 0, 0, 0]<br/>class = E>, fillcolor="#61ea9a"] ;
535 -> 536 ;
537 [label=<gini = 0.0<br/>samples = 1<br/>value = [1, 0, 0, 0, 0, 0, 0, 0, 0, 0, 0, 0]<br/>class = A>, fillcolor="#e58139"] ;
536 -> 537 ;
538 [label=<gini = 0.0<br/>samples = 5<br/>value = [0, 0, 0, 0, 5, 0, 0, 0, 0, 0, 0, 0]<br/>class = E>, fillcolor="#39e581"] ;
536 -> 538 ;
539 [label=<gini = 0.0<br/>samples = 29<br/>value = [0, 0, 0, 0, 29, 0, 0, 0, 0, 0, 0, 0]<br/>class = E>, fillcolor="#39e581"] ;
535 -> 539 ;
540 [label=<gini = 0.0<br/>samples = 430<br/>value = [0, 0, 0, 0, 430, 0, 0, 0, 0, 0, 0, 0]<br/>class = E>, fillcolor="#39e581"] ;
534 -> 540 ;
541 [label=<Row Number &le; 0.217<br/>gini = 0.245<br/>samples = 7<br/>value = [0, 0, 0, 0, 6, 0, 0, 0, 0, 0, 1, 0]<br/>class = E>, fillcolor="#5ae996"] ;
533 -> 541 ;
542 [label=<gini = 0.0<br/>samples = 1<br/>value = [0, 0, 0, 0, 0, 0, 0, 0, 0, 0, 1, 0]<br/>class = X>, fillcolor="#e5399d"] ;
541 -> 542 ;
543 [label=<gini = 0.0<br/>samples = 6<br/>value = [0, 0, 0, 0, 6, 0, 0, 0, 0, 0, 0, 0]<br/>class = E>, fillcolor="#39e581"] ;
541 -> 543 ;
544 [label=<Modular Ratio/Interlinear Spacing &le; 1.394<br/>gini = 0.5<br/>samples = 2<br/>value = [1, 0, 0, 0, 1, 0, 0, 0, 0, 0, 0, 0]<br/>class = A>, fillcolor="#ffffff"] ;
528 -> 544 ;
545 [label=<gini = 0.0<br/>samples = 1<br/>value = [1, 0, 0, 0, 0, 0, 0, 0, 0, 0, 0, 0]<br/>class = A>, fillcolor="#e58139"] ;
544 -> 545 ;
546 [label=<gini = 0.0<br/>samples = 1<br/>value = [0, 0, 0, 0, 1, 0, 0, 0, 0, 0, 0, 0]<br/>class = E>, fillcolor="#39e581"] ;
544 -> 546 ;
547 [label=<gini = 0.0<br/>samples = 1<br/>value = [0, 0, 0, 0, 0, 0, 0, 0, 0, 0, 1, 0]<br/>class = X>, fillcolor="#e5399d"] ;
527 -> 547 ;
548 [label=<Lower Margin &le; 0.428<br/>gini = 0.336<br/>samples = 153<br/>value = [2, 0, 0, 30, 121, 0, 0, 0, 0, 0, 0, 0]<br/>class = E>, fillcolor="#6deca2"] ;
526 -> 548 ;
549 [label=<Exploitation &le; -0.042<br/>gini = 0.444<br/>samples = 33<br/>value = [0, 0, 0, 22, 11, 0, 0, 0, 0, 0, 0, 0]<br/>class = D>, fillcolor="#a3f29c"] ;
548 -> 549 ;
550 [label=<gini = 0.0<br/>samples = 11<br/>value = [0, 0, 0, 0, 11, 0, 0, 0, 0, 0, 0, 0]<br/>class = E>, fillcolor="#39e581"] ;
549 -> 550 ;
551 [label=<gini = 0.0<br/>samples = 22<br/>value = [0, 0, 0, 22, 0, 0, 0, 0, 0, 0, 0, 0]<br/>class = D>, fillcolor="#47e539"] ;
549 -> 551 ;
552 [label=<Exploitation &le; -0.142<br/>gini = 0.155<br/>samples = 120<br/>value = [2, 0, 0, 8, 110, 0, 0, 0, 0, 0, 0, 0]<br/>class = E>, fillcolor="#4be78c"] ;
548 -> 552 ;
553 [label=<gini = 0.0<br/>samples = 2<br/>value = [2, 0, 0, 0, 0, 0, 0, 0, 0, 0, 0, 0]<br/>class = A>, fillcolor="#e58139"] ;
552 -> 553 ;
554 [label=<Upper Margin &le; -0.087<br/>gini = 0.126<br/>samples = 118<br/>value = [0, 0, 0, 8, 110, 0, 0, 0, 0, 0, 0, 0]<br/>class = E>, fillcolor="#47e78a"] ;
552 -> 554 ;
555 [label=<Weight &le; -0.048<br/>gini = 0.021<br/>samples = 94<br/>value = [0, 0, 0, 1, 93, 0, 0, 0, 0, 0, 0, 0]<br/>class = E>, fillcolor="#3be582"] ;
554 -> 555 ;
556 [label=<Weight &le; -0.057<br/>gini = 0.1<br/>samples = 19<br/>value = [0, 0, 0, 1, 18, 0, 0, 0, 0, 0, 0, 0]<br/>class = E>, fillcolor="#44e688"] ;
555 -> 556 ;
557 [label=<gini = 0.0<br/>samples = 18<br/>value = [0, 0, 0, 0, 18, 0, 0, 0, 0, 0, 0, 0]<br/>class = E>, fillcolor="#39e581"] ;
556 -> 557 ;
558 [label=<gini = 0.0<br/>samples = 1<br/>value = [0, 0, 0, 1, 0, 0, 0, 0, 0, 0, 0, 0]<br/>class = D>, fillcolor="#47e539"] ;
556 -> 558 ;
559 [label=<gini = 0.0<br/>samples = 75<br/>value = [0, 0, 0, 0, 75, 0, 0, 0, 0, 0, 0, 0]<br/>class = E>, fillcolor="#39e581"] ;
555 -> 559 ;
560 [label=<Exploitation &le; 0.155<br/>gini = 0.413<br/>samples = 24<br/>value = [0, 0, 0, 7, 17, 0, 0, 0, 0, 0, 0, 0]<br/>class = E>, fillcolor="#8bf0b5"] ;
554 -> 560 ;
561 [label=<gini = 0.0<br/>samples = 7<br/>value = [0, 0, 0, 7, 0, 0, 0, 0, 0, 0, 0, 0]<br/>class = D>, fillcolor="#47e539"] ;
560 -> 561 ;
562 [label=<gini = 0.0<br/>samples = 17<br/>value = [0, 0, 0, 0, 17, 0, 0, 0, 0, 0, 0, 0]<br/>class = E>, fillcolor="#39e581"] ;
560 -> 562 ;
563 [label=<gini = 0.0<br/>samples = 12<br/>value = [0, 0, 12, 0, 0, 0, 0, 0, 0, 0, 0, 0]<br/>class = C>, fillcolor="#9de539"] ;
499 -> 563 ;
564 [label=<Lower Margin &le; 0.234<br/>gini = 0.648<br/>samples = 260<br/>value = [32, 0, 0, 23, 145, 2, 13, 0, 0, 6, 31, 8]<br/>class = E>, fillcolor="#9df2c1"] ;
498 -> 564 ;
565 [label=<Upper Margin &le; -0.217<br/>gini = 0.735<br/>samples = 72<br/>value = [31, 0, 0, 0, 11, 2, 13, 0, 0, 6, 9, 0]<br/>class = A>, fillcolor="#f7d9c3"] ;
564 -> 565 ;
566 [label=<gini = 0.0<br/>samples = 31<br/>value = [31, 0, 0, 0, 0, 0, 0, 0, 0, 0, 0, 0]<br/>class = A>, fillcolor="#e58139"] ;
565 -> 566 ;
567 [label=<Exploitation &le; 0.821<br/>gini = 0.756<br/>samples = 41<br/>value = [0, 0, 0, 0, 11, 2, 13, 0, 0, 6, 9, 0]<br/>class = G>, fillcolor="#f2f8fd"] ;
565 -> 567 ;
568 [label=<gini = 0.0<br/>samples = 13<br/>value = [0, 0, 0, 0, 0, 0, 13, 0, 0, 0, 0, 0]<br/>class = G>, fillcolor="#399de5"] ;
567 -> 568 ;
569 [label=<Upper Margin &le; -0.134<br/>gini = 0.691<br/>samples = 28<br/>value = [0, 0, 0, 0, 11, 2, 0, 0, 0, 6, 9, 0]<br/>class = E>, fillcolor="#eafcf2"] ;
567 -> 569 ;
570 [label=<gini = 0.0<br/>samples = 11<br/>value = [0, 0, 0, 0, 11, 0, 0, 0, 0, 0, 0, 0]<br/>class = E>, fillcolor="#39e581"] ;
569 -> 570 ;
571 [label=<Exploitation &le; 1.188<br/>gini = 0.581<br/>samples = 17<br/>value = [0, 0, 0, 0, 0, 2, 0, 0, 0, 6, 9, 0]<br/>class = X>, fillcolor="#f8c9e4"] ;
569 -> 571 ;
572 [label=<Exploitation &le; 0.973<br/>gini = 0.298<br/>samples = 11<br/>value = [0, 0, 0, 0, 0, 2, 0, 0, 0, 0, 9, 0]<br/>class = X>, fillcolor="#eb65b3"] ;
571 -> 572 ;
573 [label=<gini = 0.0<br/>samples = 2<br/>value = [0, 0, 0, 0, 0, 2, 0, 0, 0, 0, 0, 0]<br/>class = F>, fillcolor="#39e5d7"] ;
572 -> 573 ;
574 [label=<gini = 0.0<br/>samples = 9<br/>value = [0, 0, 0, 0, 0, 0, 0, 0, 0, 0, 9, 0]<br/>class = X>, fillcolor="#e5399d"] ;
572 -> 574 ;
575 [label=<gini = 0.0<br/>samples = 6<br/>value = [0, 0, 0, 0, 0, 0, 0, 0, 0, 6, 0, 0]<br/>class = W>, fillcolor="#d739e5"] ;
571 -> 575 ;
576 [label=<Upper Margin &le; 0.36<br/>gini = 0.461<br/>samples = 188<br/>value = [1, 0, 0, 23, 134, 0, 0, 0, 0, 0, 22, 8]<br/>class = E>, fillcolor="#7aeeaa"] ;
564 -> 576 ;
577 [label=<Weight &le; 0.323<br/>gini = 0.359<br/>samples = 170<br/>value = [1, 0, 0, 5, 134, 0, 0, 0, 0, 0, 22, 8]<br/>class = E>, fillcolor="#69eba0"] ;
576 -> 577 ;
578 [label=<Row Number &le; 0.217<br/>gini = 0.636<br/>samples = 37<br/>value = [1, 0, 0, 1, 15, 0, 0, 0, 0, 0, 16, 4]<br/>class = X>, fillcolor="#fef6fb"] ;
577 -> 578 ;
579 [label=<Lower Margin &le; 0.301<br/>gini = 0.538<br/>samples = 25<br/>value = [0, 0, 0, 1, 4, 0, 0, 0, 0, 0, 16, 4]<br/>class = X>, fillcolor="#f08ec7"] ;
578 -> 579 ;
580 [label=<Upper Margin &le; -0.166<br/>gini = 0.49<br/>samples = 7<br/>value = [0, 0, 0, 0, 3, 0, 0, 0, 0, 0, 0, 4]<br/>class = Y>, fillcolor="#f8ced1"] ;
579 -> 580 ;
581 [label=<gini = 0.0<br/>samples = 4<br/>value = [0, 0, 0, 0, 0, 0, 0, 0, 0, 0, 0, 4]<br/>class = Y>, fillcolor="#e53947"] ;
580 -> 581 ;
582 [label=<gini = 0.0<br/>samples = 3<br/>value = [0, 0, 0, 0, 3, 0, 0, 0, 0, 0, 0, 0]<br/>class = E>, fillcolor="#39e581"] ;
580 -> 582 ;
583 [label=<Upper Margin &le; -0.075<br/>gini = 0.204<br/>samples = 18<br/>value = [0, 0, 0, 1, 1, 0, 0, 0, 0, 0, 16, 0]<br/>class = X>, fillcolor="#e850a9"] ;
579 -> 583 ;
584 [label=<Exploitation &le; 1.246<br/>gini = 0.5<br/>samples = 2<br/>value = [0, 0, 0, 1, 1, 0, 0, 0, 0, 0, 0, 0]<br/>class = D>, fillcolor="#ffffff"] ;
583 -> 584 ;
585 [label=<gini = 0.0<br/>samples = 1<br/>value = [0, 0, 0, 1, 0, 0, 0, 0, 0, 0, 0, 0]<br/>class = D>, fillcolor="#47e539"] ;
584 -> 585 ;
586 [label=<gini = 0.0<br/>samples = 1<br/>value = [0, 0, 0, 0, 1, 0, 0, 0, 0, 0, 0, 0]<br/>class = E>, fillcolor="#39e581"] ;
584 -> 586 ;
587 [label=<gini = 0.0<br/>samples = 16<br/>value = [0, 0, 0, 0, 0, 0, 0, 0, 0, 0, 16, 0]<br/>class = X>, fillcolor="#e5399d"] ;
583 -> 587 ;
588 [label=<Modular Ratio/Interlinear Spacing &le; 1.442<br/>gini = 0.153<br/>samples = 12<br/>value = [1, 0, 0, 0, 11, 0, 0, 0, 0, 0, 0, 0]<br/>class = E>, fillcolor="#4be78c"] ;
578 -> 588 ;
589 [label=<gini = 0.0<br/>samples = 11<br/>value = [0, 0, 0, 0, 11, 0, 0, 0, 0, 0, 0, 0]<br/>class = E>, fillcolor="#39e581"] ;
588 -> 589 ;
590 [label=<gini = 0.0<br/>samples = 1<br/>value = [1, 0, 0, 0, 0, 0, 0, 0, 0, 0, 0, 0]<br/>class = A>, fillcolor="#e58139"] ;
588 -> 590 ;
591 [label=<Exploitation &le; 0.896<br/>gini = 0.196<br/>samples = 133<br/>value = [0, 0, 0, 4, 119, 0, 0, 0, 0, 0, 6, 4]<br/>class = E>, fillcolor="#4fe88f"] ;
577 -> 591 ;
592 [label=<gini = 0.0<br/>samples = 4<br/>value = [0, 0, 0, 4, 0, 0, 0, 0, 0, 0, 0, 0]<br/>class = D>, fillcolor="#47e539"] ;
591 -> 592 ;
593 [label=<Peak Number &le; 1.265<br/>gini = 0.146<br/>samples = 129<br/>value = [0, 0, 0, 0, 119, 0, 0, 0, 0, 0, 6, 4]<br/>class = E>, fillcolor="#49e78b"] ;
591 -> 593 ;
594 [label=<Modular Ratio/Interlinear Spacing &le; 2.031<br/>gini = 0.081<br/>samples = 120<br/>value = [0, 0, 0, 0, 115, 0, 0, 0, 0, 0, 3, 2]<br/>class = E>, fillcolor="#41e686"] ;
593 -> 594 ;
595 [label=<Modular Ratio &le; -1.222<br/>gini = 0.065<br/>samples = 119<br/>value = [0, 0, 0, 0, 115, 0, 0, 0, 0, 0, 3, 1]<br/>class = E>, fillcolor="#40e685"] ;
594 -> 595 ;
596 [label=<gini = 0.0<br/>samples = 1<br/>value = [0, 0, 0, 0, 0, 0, 0, 0, 0, 0, 1, 0]<br/>class = X>, fillcolor="#e5399d"] ;
595 -> 596 ;
597 [label=<Interlinear Spacing &le; 0.843<br/>gini = 0.05<br/>samples = 118<br/>value = [0, 0, 0, 0, 115, 0, 0, 0, 0, 0, 2, 1]<br/>class = E>, fillcolor="#3ee684"] ;
595 -> 597 ;
598 [label=<Upper Margin &le; 0.184<br/>gini = 0.034<br/>samples = 115<br/>value = [0, 0, 0, 0, 113, 0, 0, 0, 0, 0, 2, 0]<br/>class = E>, fillcolor="#3de583"] ;
597 -> 598 ;
599 [label=<gini = 0.0<br/>samples = 98<br/>value = [0, 0, 0, 0, 98, 0, 0, 0, 0, 0, 0, 0]<br/>class = E>, fillcolor="#39e581"] ;
598 -> 599 ;
600 [label=<Exploitation &le; 1.413<br/>gini = 0.208<br/>samples = 17<br/>value = [0, 0, 0, 0, 15, 0, 0, 0, 0, 0, 2, 0]<br/>class = E>, fillcolor="#53e892"] ;
598 -> 600 ;
601 [label=<gini = 0.0<br/>samples = 2<br/>value = [0, 0, 0, 0, 0, 0, 0, 0, 0, 0, 2, 0]<br/>class = X>, fillcolor="#e5399d"] ;
600 -> 601 ;
602 [label=<gini = 0.0<br/>samples = 15<br/>value = [0, 0, 0, 0, 15, 0, 0, 0, 0, 0, 0, 0]<br/>class = E>, fillcolor="#39e581"] ;
600 -> 602 ;
603 [label=<Exploitation &le; 1.231<br/>gini = 0.444<br/>samples = 3<br/>value = [0, 0, 0, 0, 2, 0, 0, 0, 0, 0, 0, 1]<br/>class = E>, fillcolor="#9cf2c0"] ;
597 -> 603 ;
604 [label=<gini = 0.0<br/>samples = 2<br/>value = [0, 0, 0, 0, 2, 0, 0, 0, 0, 0, 0, 0]<br/>class = E>, fillcolor="#39e581"] ;
603 -> 604 ;
605 [label=<gini = 0.0<br/>samples = 1<br/>value = [0, 0, 0, 0, 0, 0, 0, 0, 0, 0, 0, 1]<br/>class = Y>, fillcolor="#e53947"] ;
603 -> 605 ;
606 [label=<gini = 0.0<br/>samples = 1<br/>value = [0, 0, 0, 0, 0, 0, 0, 0, 0, 0, 0, 1]<br/>class = Y>, fillcolor="#e53947"] ;
594 -> 606 ;
607 [label=<Interlinear Spacing &le; -0.573<br/>gini = 0.642<br/>samples = 9<br/>value = [0, 0, 0, 0, 4, 0, 0, 0, 0, 0, 3, 2]<br/>class = E>, fillcolor="#defbea"] ;
593 -> 607 ;
608 [label=<gini = 0.0<br/>samples = 2<br/>value = [0, 0, 0, 0, 0, 0, 0, 0, 0, 0, 0, 2]<br/>class = Y>, fillcolor="#e53947"] ;
607 -> 608 ;
609 [label=<Intercolumnar Distance &le; -0.283<br/>gini = 0.49<br/>samples = 7<br/>value = [0, 0, 0, 0, 4, 0, 0, 0, 0, 0, 3, 0]<br/>class = E>, fillcolor="#cef8e0"] ;
607 -> 609 ;
610 [label=<gini = 0.0<br/>samples = 3<br/>value = [0, 0, 0, 0, 3, 0, 0, 0, 0, 0, 0, 0]<br/>class = E>, fillcolor="#39e581"] ;
609 -> 610 ;
611 [label=<Lower Margin &le; 0.319<br/>gini = 0.375<br/>samples = 4<br/>value = [0, 0, 0, 0, 1, 0, 0, 0, 0, 0, 3, 0]<br/>class = X>, fillcolor="#ee7bbe"] ;
609 -> 611 ;
612 [label=<gini = 0.0<br/>samples = 1<br/>value = [0, 0, 0, 0, 1, 0, 0, 0, 0, 0, 0, 0]<br/>class = E>, fillcolor="#39e581"] ;
611 -> 612 ;
613 [label=<gini = 0.0<br/>samples = 3<br/>value = [0, 0, 0, 0, 0, 0, 0, 0, 0, 0, 3, 0]<br/>class = X>, fillcolor="#e5399d"] ;
611 -> 613 ;
614 [label=<gini = 0.0<br/>samples = 18<br/>value = [0, 0, 0, 18, 0, 0, 0, 0, 0, 0, 0, 0]<br/>class = D>, fillcolor="#47e539"] ;
576 -> 614 ;
615 [label=<Lower Margin &le; 4.002<br/>gini = 0.233<br/>samples = 52<br/>value = [0, 0, 0, 0, 0, 0, 0, 0, 7, 0, 45, 0]<br/>class = X>, fillcolor="#e958ac"] ;
467 -> 615 ;
616 [label=<gini = 0.0<br/>samples = 45<br/>value = [0, 0, 0, 0, 0, 0, 0, 0, 0, 0, 45, 0]<br/>class = X>, fillcolor="#e5399d"] ;
615 -> 616 ;
617 [label=<gini = 0.0<br/>samples = 7<br/>value = [0, 0, 0, 0, 0, 0, 0, 0, 7, 0, 0, 0]<br/>class = I>, fillcolor="#8139e5"] ;
615 -> 617 ;
618 [label=<Upper Margin &le; 0.404<br/>gini = 0.822<br/>samples = 398<br/>value = [51, 6, 8, 20, 113, 18, 42, 92, 0, 6, 42, 0]<br/>class = E>, fillcolor="#f1fdf6"] ;
466 -> 618 ;
619 [label=<Upper Margin &le; 0.046<br/>gini = 0.784<br/>samples = 350<br/>value = [51, 0, 8, 20, 113, 18, 0, 92, 0, 6, 42, 0]<br/>class = E>, fillcolor="#effdf5"] ;
618 -> 619 ;
620 [label=<Exploitation &le; 0.033<br/>gini = 0.764<br/>samples = 171<br/>value = [43, 0, 8, 12, 58, 14, 0, 0, 0, 0, 36, 0]<br/>class = E>, fillcolor="#e8fcf0"] ;
619 -> 620 ;
621 [label=<Upper Margin &le; -0.747<br/>gini = 0.63<br/>samples = 104<br/>value = [6, 0, 8, 10, 58, 1, 0, 0, 0, 0, 21, 0]<br/>class = E>, fillcolor="#a7f3c7"] ;
620 -> 621 ;
622 [label=<Upper Margin &le; -1.12<br/>gini = 0.346<br/>samples = 27<br/>value = [0, 0, 0, 6, 0, 0, 0, 0, 0, 0, 21, 0]<br/>class = X>, fillcolor="#ec72b9"] ;
621 -> 622 ;
623 [label=<gini = 0.0<br/>samples = 6<br/>value = [0, 0, 0, 6, 0, 0, 0, 0, 0, 0, 0, 0]<br/>class = D>, fillcolor="#47e539"] ;
622 -> 623 ;
624 [label=<gini = 0.0<br/>samples = 21<br/>value = [0, 0, 0, 0, 0, 0, 0, 0, 0, 0, 21, 0]<br/>class = X>, fillcolor="#e5399d"] ;
622 -> 624 ;
625 [label=<Lower Margin &le; 0.55<br/>gini = 0.413<br/>samples = 77<br/>value = [6, 0, 8, 4, 58, 1, 0, 0, 0, 0, 0, 0]<br/>class = E>, fillcolor="#70eca4"] ;
621 -> 625 ;
626 [label=<Lower Margin &le; -1.619<br/>gini = 0.282<br/>samples = 69<br/>value = [6, 0, 0, 4, 58, 1, 0, 0, 0, 0, 0, 0]<br/>class = E>, fillcolor="#5cea97"] ;
625 -> 626 ;
627 [label=<Intercolumnar Distance &le; -0.141<br/>gini = 0.48<br/>samples = 10<br/>value = [6, 0, 0, 4, 0, 0, 0, 0, 0, 0, 0, 0]<br/>class = A>, fillcolor="#f6d5bd"] ;
626 -> 627 ;
628 [label=<gini = 0.0<br/>samples = 6<br/>value = [6, 0, 0, 0, 0, 0, 0, 0, 0, 0, 0, 0]<br/>class = A>, fillcolor="#e58139"] ;
627 -> 628 ;
629 [label=<gini = 0.0<br/>samples = 4<br/>value = [0, 0, 0, 4, 0, 0, 0, 0, 0, 0, 0, 0]<br/>class = D>, fillcolor="#47e539"] ;
627 -> 629 ;
630 [label=<Row Number &le; -0.453<br/>gini = 0.033<br/>samples = 59<br/>value = [0, 0, 0, 0, 58, 1, 0, 0, 0, 0, 0, 0]<br/>class = E>, fillcolor="#3ce583"] ;
626 -> 630 ;
