digraph Tree {
node [shape=box, style="filled, rounded", color="black", fontname="helvetica"] ;
edge [fontname="helvetica"] ;
0 [label=<Row Number &le; 0.843<br/>gini = 0.771<br/>samples = 18780<br/>value = [7671, 9, 183, 644, 1993, 3545, 813, 931, 1488, 78<br/>941, 484]<br/>class = A>, fillcolor="#f8ddc9"] ;
1 [label=<Intercolumnar Distance &le; -0.073<br/>gini = 0.743<br/>samples = 17497<br/>value = [7671, 9, 183, 644, 1993, 3545, 813, 931, 205, 78<br/>941, 484]<br/>class = A>, fillcolor="#f7dac4"] ;
0 -> 1 [labeldistance=2.5, labelangle=45, headlabel="True"] ;
2 [label=<Peak Number &le; 1.358<br/>gini = 0.829<br/>samples = 6031<br/>value = [1260, 9, 112, 569, 1690, 733, 134, 158, 45, 78<br/>838, 405]<br/>class = E>, fillcolor="#edfdf4"] ;
1 -> 2 ;
3 [label=<Row Number &le; 0.396<br/>gini = 0.811<br/>samples = 5343<br/>value = [1260, 6, 112, 565, 1639, 733, 126, 156, 37, 78<br/>296, 335]<br/>class = E>, fillcolor="#edfdf3"] ;
2 -> 3 ;
4 [label=<Peak Number &le; 0.428<br/>gini = 0.79<br/>samples = 5005<br/>value = [1260, 6, 112, 565, 1639, 733, 126, 156, 37, 78<br/>248, 45]<br/>class = E>, fillcolor="#ebfcf2"] ;
3 -> 4 ;
5 [label=<Intercolumnar Distance &le; -0.184<br/>gini = 0.785<br/>samples = 3379<br/>value = [1135, 0, 82, 440, 666, 709, 61, 64, 24, 62, 100<br/>36]<br/>class = A>, fillcolor="#fbebdf"] ;
4 -> 5 ;
6 [label=<Intercolumnar Distance &le; -1.548<br/>gini = 0.772<br/>samples = 1977<br/>value = [668, 0, 43, 337, 539, 174, 22, 22, 24, 46, 66<br/>36]<br/>class = A>, fillcolor="#fdf4ed"] ;
5 -> 6 ;
7 [label=<Exploitation &le; 1.042<br/>gini = 0.605<br/>samples = 680<br/>value = [414, 0, 16, 3, 51, 72, 0, 21, 24, 23, 25, 31]<br/>class = A>, fillcolor="#f0b890"] ;
6 -> 7 ;
8 [label=<Row Number &le; 0.038<br/>gini = 0.563<br/>samples = 643<br/>value = [413, 0, 16, 3, 49, 72, 0, 21, 23, 15, 0, 31]<br/>class = A>, fillcolor="#efb489"] ;
7 -> 8 ;
9 [label=<Lower Margin &le; 0.364<br/>gini = 0.505<br/>samples = 587<br/>value = [405, 0, 16, 3, 49, 45, 0, 0, 23, 15, 0, 31]<br/>class = A>, fillcolor="#eeac7c"] ;
8 -> 9 ;
10 [label=<Interlinear Spacing &le; -0.365<br/>gini = 0.361<br/>samples = 409<br/>value = [324, 0, 6, 3, 4, 18, 0, 0, 23, 0, 0, 31]<br/>class = A>, fillcolor="#eb9d66"] ;
9 -> 10 ;
11 [label=<Interlinear Spacing &le; -2.007<br/>gini = 0.669<br/>samples = 111<br/>value = [54, 0, 0, 3, 0, 8, 0, 0, 19, 0, 0, 27]<br/>class = A>, fillcolor="#f7d7bf"] ;
10 -> 11 ;
12 [label=<Weight &le; 1.813<br/>gini = 0.342<br/>samples = 65<br/>value = [52, 0, 0, 3, 0, 8, 0, 0, 2, 0, 0, 0]<br/>class = A>, fillcolor="#eb9e66"] ;
11 -> 12 ;
13 [label=<Interlinear Spacing &le; -10.803<br/>gini = 0.077<br/>samples = 50<br/>value = [48, 0, 0, 0, 0, 0, 0, 0, 2, 0, 0, 0]<br/>class = A>, fillcolor="#e68641"] ;
12 -> 13 ;
14 [label=<Row Number &le; -3.313<br/>gini = 0.48<br/>samples = 5<br/>value = [3, 0, 0, 0, 0, 0, 0, 0, 2, 0, 0, 0]<br/>class = A>, fillcolor="#f6d5bd"] ;
13 -> 14 ;
15 [label=<gini = 0.0<br/>samples = 3<br/>value = [3, 0, 0, 0, 0, 0, 0, 0, 0, 0, 0, 0]<br/>class = A>, fillcolor="#e58139"] ;
14 -> 15 ;
16 [label=<gini = 0.0<br/>samples = 2<br/>value = [0, 0, 0, 0, 0, 0, 0, 0, 2, 0, 0, 0]<br/>class = I>, fillcolor="#8139e5"] ;
14 -> 16 ;
17 [label=<gini = 0.0<br/>samples = 45<br/>value = [45, 0, 0, 0, 0, 0, 0, 0, 0, 0, 0, 0]<br/>class = A>, fillcolor="#e58139"] ;
13 -> 17 ;
18 [label=<Upper Margin &le; 0.313<br/>gini = 0.604<br/>samples = 15<br/>value = [4, 0, 0, 3, 0, 8, 0, 0, 0, 0, 0, 0]<br/>class = F>, fillcolor="#b7f6f0"] ;
12 -> 18 ;
19 [label=<gini = 0.0<br/>samples = 8<br/>value = [0, 0, 0, 0, 0, 8, 0, 0, 0, 0, 0, 0]<br/>class = F>, fillcolor="#39e5d7"] ;
18 -> 19 ;
20 [label=<Row Number &le; -4.878<br/>gini = 0.49<br/>samples = 7<br/>value = [4, 0, 0, 3, 0, 0, 0, 0, 0, 0, 0, 0]<br/>class = A>, fillcolor="#f8e0ce"] ;
18 -> 20 ;
21 [label=<gini = 0.0<br/>samples = 3<br/>value = [0, 0, 0, 3, 0, 0, 0, 0, 0, 0, 0, 0]<br/>class = D>, fillcolor="#47e539"] ;
20 -> 21 ;
22 [label=<gini = 0.0<br/>samples = 4<br/>value = [4, 0, 0, 0, 0, 0, 0, 0, 0, 0, 0, 0]<br/>class = A>, fillcolor="#e58139"] ;
20 -> 22 ;
23 [label=<Upper Margin &le; 0.533<br/>gini = 0.517<br/>samples = 46<br/>value = [2, 0, 0, 0, 0, 0, 0, 0, 17, 0, 0, 27]<br/>class = Y>, fillcolor="#f6bbc0"] ;
11 -> 23 ;
24 [label=<Lower Margin &le; 0.168<br/>gini = 0.188<br/>samples = 19<br/>value = [2, 0, 0, 0, 0, 0, 0, 0, 17, 0, 0, 0]<br/>class = I>, fillcolor="#9050e8"] ;
23 -> 24 ;
25 [label=<gini = 0.0<br/>samples = 17<br/>value = [0, 0, 0, 0, 0, 0, 0, 0, 17, 0, 0, 0]<br/>class = I>, fillcolor="#8139e5"] ;
24 -> 25 ;
26 [label=<gini = 0.0<br/>samples = 2<br/>value = [2, 0, 0, 0, 0, 0, 0, 0, 0, 0, 0, 0]<br/>class = A>, fillcolor="#e58139"] ;
24 -> 26 ;
27 [label=<gini = 0.0<br/>samples = 27<br/>value = [0, 0, 0, 0, 0, 0, 0, 0, 0, 0, 0, 27]<br/>class = Y>, fillcolor="#e53947"] ;
23 -> 27 ;
28 [label=<Modular Ratio/Interlinear Spacing &le; -1.225<br/>gini = 0.177<br/>samples = 298<br/>value = [270, 0, 6, 0, 4, 10, 0, 0, 4, 0, 0, 4]<br/>class = A>, fillcolor="#e88d4c"] ;
10 -> 28 ;
29 [label=<Upper Margin &le; 11.203<br/>gini = 0.605<br/>samples = 36<br/>value = [21, 0, 6, 0, 1, 5, 0, 0, 3, 0, 0, 0]<br/>class = A>, fillcolor="#f2c09c"] ;
28 -> 29 ;
30 [label=<Lower Margin &le; 0.04<br/>gini = 0.471<br/>samples = 30<br/>value = [21, 0, 0, 0, 1, 5, 0, 0, 3, 0, 0, 0]<br/>class = A>, fillcolor="#eeae80"] ;
29 -> 30 ;
31 [label=<Weight &le; 0.942<br/>gini = 0.62<br/>samples = 10<br/>value = [2, 0, 0, 0, 0, 5, 0, 0, 3, 0, 0, 0]<br/>class = F>, fillcolor="#c6f8f4"] ;
30 -> 31 ;
32 [label=<Intercolumnar Distance &le; -3.153<br/>gini = 0.48<br/>samples = 5<br/>value = [2, 0, 0, 0, 0, 0, 0, 0, 3, 0, 0, 0]<br/>class = I>, fillcolor="#d5bdf6"] ;
31 -> 32 ;
33 [label=<gini = 0.0<br/>samples = 3<br/>value = [0, 0, 0, 0, 0, 0, 0, 0, 3, 0, 0, 0]<br/>class = I>, fillcolor="#8139e5"] ;
32 -> 33 ;
34 [label=<gini = 0.0<br/>samples = 2<br/>value = [2, 0, 0, 0, 0, 0, 0, 0, 0, 0, 0, 0]<br/>class = A>, fillcolor="#e58139"] ;
32 -> 34 ;
35 [label=<gini = 0.0<br/>samples = 5<br/>value = [0, 0, 0, 0, 0, 5, 0, 0, 0, 0, 0, 0]<br/>class = F>, fillcolor="#39e5d7"] ;
31 -> 35 ;
36 [label=<Peak Number &le; -0.591<br/>gini = 0.095<br/>samples = 20<br/>value = [19, 0, 0, 0, 1, 0, 0, 0, 0, 0, 0, 0]<br/>class = A>, fillcolor="#e68843"] ;
30 -> 36 ;
37 [label=<gini = 0.0<br/>samples = 19<br/>value = [19, 0, 0, 0, 0, 0, 0, 0, 0, 0, 0, 0]<br/>class = A>, fillcolor="#e58139"] ;
36 -> 37 ;
38 [label=<gini = 0.0<br/>samples = 1<br/>value = [0, 0, 0, 0, 1, 0, 0, 0, 0, 0, 0, 0]<br/>class = E>, fillcolor="#39e581"] ;
36 -> 38 ;
39 [label=<gini = 0.0<br/>samples = 6<br/>value = [0, 0, 6, 0, 0, 0, 0, 0, 0, 0, 0, 0]<br/>class = C>, fillcolor="#9de539"] ;
29 -> 39 ;
40 [label=<Interlinear Spacing &le; 1.202<br/>gini = 0.096<br/>samples = 262<br/>value = [249, 0, 0, 0, 3, 5, 0, 0, 1, 0, 0, 4]<br/>class = A>, fillcolor="#e68743"] ;
28 -> 40 ;
41 [label=<Weight &le; 1.686<br/>gini = 0.069<br/>samples = 256<br/>value = [247, 0, 0, 0, 2, 5, 0, 0, 1, 0, 0, 1]<br/>class = A>, fillcolor="#e68640"] ;
40 -> 41 ;
42 [label=<Modular Ratio/Interlinear Spacing &le; -0.845<br/>gini = 0.033<br/>samples = 238<br/>value = [234, 0, 0, 0, 2, 0, 0, 0, 1, 0, 0, 1]<br/>class = A>, fillcolor="#e5833c"] ;
41 -> 42 ;
43 [label=<Modular Ratio/Interlinear Spacing &le; -0.856<br/>gini = 0.142<br/>samples = 26<br/>value = [24, 0, 0, 0, 2, 0, 0, 0, 0, 0, 0, 0]<br/>class = A>, fillcolor="#e78c49"] ;
42 -> 43 ;
44 [label=<gini = 0.0<br/>samples = 24<br/>value = [24, 0, 0, 0, 0, 0, 0, 0, 0, 0, 0, 0]<br/>class = A>, fillcolor="#e58139"] ;
43 -> 44 ;
45 [label=<gini = 0.0<br/>samples = 2<br/>value = [0, 0, 0, 0, 2, 0, 0, 0, 0, 0, 0, 0]<br/>class = E>, fillcolor="#39e581"] ;
43 -> 45 ;
46 [label=<Interlinear Spacing &le; 0.843<br/>gini = 0.019<br/>samples = 212<br/>value = [210, 0, 0, 0, 0, 0, 0, 0, 1, 0, 0, 1]<br/>class = A>, fillcolor="#e5823b"] ;
42 -> 46 ;
47 [label=<Weight &le; -1.341<br/>gini = 0.01<br/>samples = 204<br/>value = [203, 0, 0, 0, 0, 0, 0, 0, 1, 0, 0, 0]<br/>class = A>, fillcolor="#e5823a"] ;
46 -> 47 ;
48 [label=<Weight &le; -1.365<br/>gini = 0.142<br/>samples = 13<br/>value = [12, 0, 0, 0, 0, 0, 0, 0, 1, 0, 0, 0]<br/>class = A>, fillcolor="#e78c49"] ;
47 -> 48 ;
49 [label=<gini = 0.0<br/>samples = 12<br/>value = [12, 0, 0, 0, 0, 0, 0, 0, 0, 0, 0, 0]<br/>class = A>, fillcolor="#e58139"] ;
48 -> 49 ;
50 [label=<gini = 0.0<br/>samples = 1<br/>value = [0, 0, 0, 0, 0, 0, 0, 0, 1, 0, 0, 0]<br/>class = I>, fillcolor="#8139e5"] ;
48 -> 50 ;
51 [label=<gini = 0.0<br/>samples = 191<br/>value = [191, 0, 0, 0, 0, 0, 0, 0, 0, 0, 0, 0]<br/>class = A>, fillcolor="#e58139"] ;
47 -> 51 ;
52 [label=<Upper Margin &le; 0.706<br/>gini = 0.219<br/>samples = 8<br/>value = [7, 0, 0, 0, 0, 0, 0, 0, 0, 0, 0, 1]<br/>class = A>, fillcolor="#e99355"] ;
46 -> 52 ;
53 [label=<gini = 0.0<br/>samples = 7<br/>value = [7, 0, 0, 0, 0, 0, 0, 0, 0, 0, 0, 0]<br/>class = A>, fillcolor="#e58139"] ;
52 -> 53 ;
54 [label=<gini = 0.0<br/>samples = 1<br/>value = [0, 0, 0, 0, 0, 0, 0, 0, 0, 0, 0, 1]<br/>class = Y>, fillcolor="#e53947"] ;
52 -> 54 ;
55 [label=<Exploitation &le; -1.469<br/>gini = 0.401<br/>samples = 18<br/>value = [13, 0, 0, 0, 0, 5, 0, 0, 0, 0, 0, 0]<br/>class = A>, fillcolor="#efb185"] ;
41 -> 55 ;
56 [label=<gini = 0.0<br/>samples = 5<br/>value = [0, 0, 0, 0, 0, 5, 0, 0, 0, 0, 0, 0]<br/>class = F>, fillcolor="#39e5d7"] ;
55 -> 56 ;
57 [label=<gini = 0.0<br/>samples = 13<br/>value = [13, 0, 0, 0, 0, 0, 0, 0, 0, 0, 0, 0]<br/>class = A>, fillcolor="#e58139"] ;
55 -> 57 ;
58 [label=<Upper Margin &le; 0.6<br/>gini = 0.611<br/>samples = 6<br/>value = [2, 0, 0, 0, 1, 0, 0, 0, 0, 0, 0, 3]<br/>class = Y>, fillcolor="#f8ced1"] ;
40 -> 58 ;
59 [label=<Lower Margin &le; 0.241<br/>gini = 0.444<br/>samples = 3<br/>value = [2, 0, 0, 0, 1, 0, 0, 0, 0, 0, 0, 0]<br/>class = A>, fillcolor="#f2c09c"] ;
58 -> 59 ;
60 [label=<gini = 0.0<br/>samples = 2<br/>value = [2, 0, 0, 0, 0, 0, 0, 0, 0, 0, 0, 0]<br/>class = A>, fillcolor="#e58139"] ;
59 -> 60 ;
61 [label=<gini = 0.0<br/>samples = 1<br/>value = [0, 0, 0, 0, 1, 0, 0, 0, 0, 0, 0, 0]<br/>class = E>, fillcolor="#39e581"] ;
59 -> 61 ;
62 [label=<gini = 0.0<br/>samples = 3<br/>value = [0, 0, 0, 0, 0, 0, 0, 0, 0, 0, 0, 3]<br/>class = Y>, fillcolor="#e53947"] ;
58 -> 62 ;
63 [label=<Lower Margin &le; 0.406<br/>gini = 0.696<br/>samples = 178<br/>value = [81, 0, 10, 0, 45, 27, 0, 0, 0, 15, 0, 0]<br/>class = A>, fillcolor="#f8ddc9"] ;
9 -> 63 ;
64 [label=<gini = 0.0<br/>samples = 27<br/>value = [0, 0, 0, 0, 0, 27, 0, 0, 0, 0, 0, 0]<br/>class = F>, fillcolor="#39e5d7"] ;
63 -> 64 ;
65 [label=<Exploitation &le; -1.358<br/>gini = 0.609<br/>samples = 151<br/>value = [81, 0, 10, 0, 45, 0, 0, 0, 0, 15, 0, 0]<br/>class = A>, fillcolor="#f6d4bc"] ;
63 -> 65 ;
66 [label=<gini = 0.0<br/>samples = 57<br/>value = [57, 0, 0, 0, 0, 0, 0, 0, 0, 0, 0, 0]<br/>class = A>, fillcolor="#e58139"] ;
65 -> 66 ;
67 [label=<Upper Margin &le; 0.298<br/>gini = 0.669<br/>samples = 94<br/>value = [24, 0, 10, 0, 45, 0, 0, 0, 0, 15, 0, 0]<br/>class = E>, fillcolor="#c4f7d9"] ;
65 -> 67 ;
68 [label=<Lower Margin &le; 3.488<br/>gini = 0.52<br/>samples = 70<br/>value = [0, 0, 10, 0, 45, 0, 0, 0, 0, 15, 0, 0]<br/>class = E>, fillcolor="#93f1ba"] ;
67 -> 68 ;
69 [label=<Exploitation &le; -1.137<br/>gini = 0.298<br/>samples = 55<br/>value = [0, 0, 10, 0, 45, 0, 0, 0, 0, 0, 0, 0]<br/>class = E>, fillcolor="#65eb9d"] ;
68 -> 69 ;
70 [label=<gini = 0.0<br/>samples = 10<br/>value = [0, 0, 10, 0, 0, 0, 0, 0, 0, 0, 0, 0]<br/>class = C>, fillcolor="#9de539"] ;
69 -> 70 ;
71 [label=<gini = 0.0<br/>samples = 45<br/>value = [0, 0, 0, 0, 45, 0, 0, 0, 0, 0, 0, 0]<br/>class = E>, fillcolor="#39e581"] ;
69 -> 71 ;
72 [label=<gini = 0.0<br/>samples = 15<br/>value = [0, 0, 0, 0, 0, 0, 0, 0, 0, 15, 0, 0]<br/>class = W>, fillcolor="#d739e5"] ;
68 -> 72 ;
73 [label=<gini = 0.0<br/>samples = 24<br/>value = [24, 0, 0, 0, 0, 0, 0, 0, 0, 0, 0, 0]<br/>class = A>, fillcolor="#e58139"] ;
67 -> 73 ;
74 [label=<Upper Margin &le; -0.138<br/>gini = 0.607<br/>samples = 56<br/>value = [8, 0, 0, 0, 0, 27, 0, 21, 0, 0, 0, 0]<br/>class = F>, fillcolor="#ddfbf8"] ;
8 -> 74 ;
75 [label=<gini = 0.0<br/>samples = 27<br/>value = [0, 0, 0, 0, 0, 27, 0, 0, 0, 0, 0, 0]<br/>class = F>, fillcolor="#39e5d7"] ;
74 -> 75 ;
76 [label=<Modular Ratio/Interlinear Spacing &le; -1.009<br/>gini = 0.4<br/>samples = 29<br/>value = [8, 0, 0, 0, 0, 0, 0, 21, 0, 0, 0, 0]<br/>class = H>, fillcolor="#848def"] ;
74 -> 76 ;
77 [label=<gini = 0.0<br/>samples = 21<br/>value = [0, 0, 0, 0, 0, 0, 0, 21, 0, 0, 0, 0]<br/>class = H>, fillcolor="#3947e5"] ;
76 -> 77 ;
78 [label=<gini = 0.0<br/>samples = 8<br/>value = [8, 0, 0, 0, 0, 0, 0, 0, 0, 0, 0, 0]<br/>class = A>, fillcolor="#e58139"] ;
76 -> 78 ;
79 [label=<Modular Ratio &le; -1.055<br/>gini = 0.492<br/>samples = 37<br/>value = [1, 0, 0, 0, 2, 0, 0, 0, 1, 8, 25, 0]<br/>class = X>, fillcolor="#f08bc6"] ;
7 -> 79 ;
80 [label=<Exploitation &le; 1.838<br/>gini = 0.625<br/>samples = 4<br/>value = [1, 0, 0, 0, 2, 0, 0, 0, 1, 0, 0, 0]<br/>class = E>, fillcolor="#bdf6d5"] ;
79 -> 80 ;
81 [label=<gini = 0.0<br/>samples = 2<br/>value = [0, 0, 0, 0, 2, 0, 0, 0, 0, 0, 0, 0]<br/>class = E>, fillcolor="#39e581"] ;
80 -> 81 ;
82 [label=<Upper Margin &le; 4.011<br/>gini = 0.5<br/>samples = 2<br/>value = [1, 0, 0, 0, 0, 0, 0, 0, 1, 0, 0, 0]<br/>class = A>, fillcolor="#ffffff"] ;
80 -> 82 ;
83 [label=<gini = 0.0<br/>samples = 1<br/>value = [0, 0, 0, 0, 0, 0, 0, 0, 1, 0, 0, 0]<br/>class = I>, fillcolor="#8139e5"] ;
82 -> 83 ;
84 [label=<gini = 0.0<br/>samples = 1<br/>value = [1, 0, 0, 0, 0, 0, 0, 0, 0, 0, 0, 0]<br/>class = A>, fillcolor="#e58139"] ;
82 -> 84 ;
85 [label=<Weight &le; 0.283<br/>gini = 0.367<br/>samples = 33<br/>value = [0, 0, 0, 0, 0, 0, 0, 0, 0, 8, 25, 0]<br/>class = X>, fillcolor="#ed78bc"] ;
79 -> 85 ;
86 [label=<gini = 0.0<br/>samples = 3<br/>value = [0, 0, 0, 0, 0, 0, 0, 0, 0, 3, 0, 0]<br/>class = W>, fillcolor="#d739e5"] ;
85 -> 86 ;
87 [label=<Peak Number &le; 0.142<br/>gini = 0.278<br/>samples = 30<br/>value = [0, 0, 0, 0, 0, 0, 0, 0, 0, 5, 25, 0]<br/>class = X>, fillcolor="#ea61b1"] ;
85 -> 87 ;
88 [label=<gini = 0.0<br/>samples = 21<br/>value = [0, 0, 0, 0, 0, 0, 0, 0, 0, 0, 21, 0]<br/>class = X>, fillcolor="#e5399d"] ;
87 -> 88 ;
89 [label=<Exploitation &le; 1.163<br/>gini = 0.494<br/>samples = 9<br/>value = [0, 0, 0, 0, 0, 0, 0, 0, 0, 5, 4, 0]<br/>class = W>, fillcolor="#f7d7fa"] ;
87 -> 89 ;
90 [label=<gini = 0.0<br/>samples = 4<br/>value = [0, 0, 0, 0, 0, 0, 0, 0, 0, 0, 4, 0]<br/>class = X>, fillcolor="#e5399d"] ;
89 -> 90 ;
91 [label=<gini = 0.0<br/>samples = 5<br/>value = [0, 0, 0, 0, 0, 0, 0, 0, 0, 5, 0, 0]<br/>class = W>, fillcolor="#d739e5"] ;
89 -> 91 ;
92 [label=<Row Number &le; 0.217<br/>gini = 0.746<br/>samples = 1297<br/>value = [254, 0, 27, 334, 488, 102, 22, 1, 0, 23, 41, 5]<br/>class = E>, fillcolor="#dffbeb"] ;
6 -> 92 ;
93 [label=<Exploitation &le; 1.14<br/>gini = 0.676<br/>samples = 618<br/>value = [71, 0, 15, 297, 168, 29, 0, 0, 0, 0, 33, 5]<br/>class = D>, fillcolor="#caf8c6"] ;
92 -> 93 ;
94 [label=<Weight &le; -1.167<br/>gini = 0.636<br/>samples = 575<br/>value = [71, 0, 15, 297, 161, 29, 0, 0, 0, 0, 2, 0]<br/>class = D>, fillcolor="#c3f6be"] ;
93 -> 94 ;
95 [label=<Upper Margin &le; -0.358<br/>gini = 0.611<br/>samples = 107<br/>value = [26, 0, 0, 20, 58, 3, 0, 0, 0, 0, 0, 0]<br/>class = E>, fillcolor="#b1f5cd"] ;
94 -> 95 ;
96 [label=<Lower Margin &le; 0.463<br/>gini = 0.183<br/>samples = 49<br/>value = [0, 0, 0, 5, 44, 0, 0, 0, 0, 0, 0, 0]<br/>class = E>, fillcolor="#50e88f"] ;
95 -> 96 ;
97 [label=<Upper Margin &le; -0.892<br/>gini = 0.043<br/>samples = 45<br/>value = [0, 0, 0, 1, 44, 0, 0, 0, 0, 0, 0, 0]<br/>class = E>, fillcolor="#3de684"] ;
96 -> 97 ;
98 [label=<gini = 0.0<br/>samples = 1<br/>value = [0, 0, 0, 1, 0, 0, 0, 0, 0, 0, 0, 0]<br/>class = D>, fillcolor="#47e539"] ;
97 -> 98 ;
99 [label=<gini = 0.0<br/>samples = 44<br/>value = [0, 0, 0, 0, 44, 0, 0, 0, 0, 0, 0, 0]<br/>class = E>, fillcolor="#39e581"] ;
97 -> 99 ;
100 [label=<gini = 0.0<br/>samples = 4<br/>value = [0, 0, 0, 4, 0, 0, 0, 0, 0, 0, 0, 0]<br/>class = D>, fillcolor="#47e539"] ;
96 -> 100 ;
101 [label=<Intercolumnar Distance &le; -0.308<br/>gini = 0.671<br/>samples = 58<br/>value = [26, 0, 0, 15, 14, 3, 0, 0, 0, 0, 0, 0]<br/>class = A>, fillcolor="#f8dfcc"] ;
95 -> 101 ;
102 [label=<Exploitation &le; 0.647<br/>gini = 0.133<br/>samples = 14<br/>value = [0, 0, 0, 13, 1, 0, 0, 0, 0, 0, 0, 0]<br/>class = D>, fillcolor="#55e748"] ;
101 -> 102 ;
103 [label=<gini = 0.0<br/>samples = 13<br/>value = [0, 0, 0, 13, 0, 0, 0, 0, 0, 0, 0, 0]<br/>class = D>, fillcolor="#47e539"] ;
102 -> 103 ;
104 [label=<gini = 0.0<br/>samples = 1<br/>value = [0, 0, 0, 0, 1, 0, 0, 0, 0, 0, 0, 0]<br/>class = E>, fillcolor="#39e581"] ;
102 -> 104 ;
105 [label=<Modular Ratio/Interlinear Spacing &le; -0.524<br/>gini = 0.557<br/>samples = 44<br/>value = [26, 0, 0, 2, 13, 3, 0, 0, 0, 0, 0, 0]<br/>class = A>, fillcolor="#f4caac"] ;
101 -> 105 ;
106 [label=<Upper Margin &le; -0.221<br/>gini = 0.539<br/>samples = 16<br/>value = [3, 0, 0, 0, 10, 3, 0, 0, 0, 0, 0, 0]<br/>class = E>, fillcolor="#94f1bb"] ;
105 -> 106 ;
107 [label=<gini = 0.0<br/>samples = 3<br/>value = [3, 0, 0, 0, 0, 0, 0, 0, 0, 0, 0, 0]<br/>class = A>, fillcolor="#e58139"] ;
106 -> 107 ;
108 [label=<Lower Margin &le; 0.229<br/>gini = 0.355<br/>samples = 13<br/>value = [0, 0, 0, 0, 10, 3, 0, 0, 0, 0, 0, 0]<br/>class = E>, fillcolor="#74eda7"] ;
106 -> 108 ;
109 [label=<gini = 0.0<br/>samples = 3<br/>value = [0, 0, 0, 0, 0, 3, 0, 0, 0, 0, 0, 0]<br/>class = F>, fillcolor="#39e5d7"] ;
108 -> 109 ;
110 [label=<gini = 0.0<br/>samples = 10<br/>value = [0, 0, 0, 0, 10, 0, 0, 0, 0, 0, 0, 0]<br/>class = E>, fillcolor="#39e581"] ;
108 -> 110 ;
111 [label=<Exploitation &le; 0.049<br/>gini = 0.309<br/>samples = 28<br/>value = [23, 0, 0, 2, 3, 0, 0, 0, 0, 0, 0, 0]<br/>class = A>, fillcolor="#ea9a61"] ;
105 -> 111 ;
112 [label=<Lower Margin &le; 0.445<br/>gini = 0.08<br/>samples = 24<br/>value = [23, 0, 0, 0, 1, 0, 0, 0, 0, 0, 0, 0]<br/>class = A>, fillcolor="#e68642"] ;
111 -> 112 ;
113 [label=<gini = 0.0<br/>samples = 23<br/>value = [23, 0, 0, 0, 0, 0, 0, 0, 0, 0, 0, 0]<br/>class = A>, fillcolor="#e58139"] ;
112 -> 113 ;
114 [label=<gini = 0.0<br/>samples = 1<br/>value = [0, 0, 0, 0, 1, 0, 0, 0, 0, 0, 0, 0]<br/>class = E>, fillcolor="#39e581"] ;
112 -> 114 ;
115 [label=<Exploitation &le; 0.148<br/>gini = 0.5<br/>samples = 4<br/>value = [0, 0, 0, 2, 2, 0, 0, 0, 0, 0, 0, 0]<br/>class = D>, fillcolor="#ffffff"] ;
111 -> 115 ;
116 [label=<gini = 0.0<br/>samples = 2<br/>value = [0, 0, 0, 2, 0, 0, 0, 0, 0, 0, 0, 0]<br/>class = D>, fillcolor="#47e539"] ;
115 -> 116 ;
117 [label=<gini = 0.0<br/>samples = 2<br/>value = [0, 0, 0, 0, 2, 0, 0, 0, 0, 0, 0, 0]<br/>class = E>, fillcolor="#39e581"] ;
115 -> 117 ;
118 [label=<Upper Margin &le; 0.612<br/>gini = 0.588<br/>samples = 468<br/>value = [45, 0, 15, 277, 103, 26, 0, 0, 0, 0, 2, 0]<br/>class = D>, fillcolor="#a7f3a1"] ;
94 -> 118 ;
119 [label=<Lower Margin &le; 0.629<br/>gini = 0.559<br/>samples = 449<br/>value = [26, 0, 15, 277, 103, 26, 0, 0, 0, 0, 2, 0]<br/>class = D>, fillcolor="#a2f29b"] ;
118 -> 119 ;
120 [label=<Lower Margin &le; 0.284<br/>gini = 0.529<br/>samples = 434<br/>value = [26, 0, 0, 277, 103, 26, 0, 0, 0, 0, 2, 0]<br/>class = D>, fillcolor="#9ef197"] ;
119 -> 120 ;
121 [label=<Lower Margin &le; -1.583<br/>gini = 0.712<br/>samples = 125<br/>value = [11, 0, 0, 44, 42, 26, 0, 0, 0, 0, 2, 0]<br/>class = D>, fillcolor="#fbfefa"] ;
120 -> 121 ;
122 [label=<Exploitation &le; -0.057<br/>gini = 0.083<br/>samples = 46<br/>value = [0, 0, 0, 44, 0, 0, 0, 0, 0, 0, 2, 0]<br/>class = D>, fillcolor="#4fe642"] ;
121 -> 122 ;
123 [label=<gini = 0.0<br/>samples = 44<br/>value = [0, 0, 0, 44, 0, 0, 0, 0, 0, 0, 0, 0]<br/>class = D>, fillcolor="#47e539"] ;
122 -> 123 ;
124 [label=<gini = 0.0<br/>samples = 2<br/>value = [0, 0, 0, 0, 0, 0, 0, 0, 0, 0, 2, 0]<br/>class = X>, fillcolor="#e5399d"] ;
122 -> 124 ;
125 [label=<Upper Margin &le; 0.321<br/>gini = 0.59<br/>samples = 79<br/>value = [11, 0, 0, 0, 42, 26, 0, 0, 0, 0, 0, 0]<br/>class = E>, fillcolor="#c3f7d9"] ;
121 -> 125 ;
126 [label=<Lower Margin &le; 0.237<br/>gini = 0.329<br/>samples = 53<br/>value = [11, 0, 0, 0, 42, 0, 0, 0, 0, 0, 0, 0]<br/>class = E>, fillcolor="#6deca2"] ;
125 -> 126 ;
127 [label=<gini = 0.0<br/>samples = 41<br/>value = [0, 0, 0, 0, 41, 0, 0, 0, 0, 0, 0, 0]<br/>class = E>, fillcolor="#39e581"] ;
126 -> 127 ;
128 [label=<Intercolumnar Distance &le; -0.222<br/>gini = 0.153<br/>samples = 12<br/>value = [11, 0, 0, 0, 1, 0, 0, 0, 0, 0, 0, 0]<br/>class = A>, fillcolor="#e78c4b"] ;
126 -> 128 ;
129 [label=<gini = 0.0<br/>samples = 11<br/>value = [11, 0, 0, 0, 0, 0, 0, 0, 0, 0, 0, 0]<br/>class = A>, fillcolor="#e58139"] ;
128 -> 129 ;
130 [label=<gini = 0.0<br/>samples = 1<br/>value = [0, 0, 0, 0, 1, 0, 0, 0, 0, 0, 0, 0]<br/>class = E>, fillcolor="#39e581"] ;
128 -> 130 ;
131 [label=<gini = 0.0<br/>samples = 26<br/>value = [0, 0, 0, 0, 0, 26, 0, 0, 0, 0, 0, 0]<br/>class = F>, fillcolor="#39e5d7"] ;
125 -> 131 ;
132 [label=<Upper Margin &le; 0.396<br/>gini = 0.39<br/>samples = 309<br/>value = [15, 0, 0, 233, 61, 0, 0, 0, 0, 0, 0, 0]<br/>class = D>, fillcolor="#7fed76"] ;
120 -> 132 ;
133 [label=<Exploitation &le; -0.042<br/>gini = 0.355<br/>samples = 297<br/>value = [15, 0, 0, 233, 49, 0, 0, 0, 0, 0, 0, 0]<br/>class = D>, fillcolor="#76ec6c"] ;
132 -> 133 ;
134 [label=<Exploitation &le; -0.65<br/>gini = 0.627<br/>samples = 83<br/>value = [15, 0, 0, 38, 30, 0, 0, 0, 0, 0, 0, 0]<br/>class = D>, fillcolor="#e3fbe1"] ;
133 -> 134 ;
135 [label=<Upper Margin &le; -0.637<br/>gini = 0.365<br/>samples = 50<br/>value = [0, 0, 0, 38, 12, 0, 0, 0, 0, 0, 0, 0]<br/>class = D>, fillcolor="#81ed78"] ;
134 -> 135 ;
136 [label=<gini = 0.0<br/>samples = 7<br/>value = [0, 0, 0, 0, 7, 0, 0, 0, 0, 0, 0, 0]<br/>class = E>, fillcolor="#39e581"] ;
135 -> 136 ;
137 [label=<Lower Margin &le; 0.543<br/>gini = 0.206<br/>samples = 43<br/>value = [0, 0, 0, 38, 5, 0, 0, 0, 0, 0, 0, 0]<br/>class = D>, fillcolor="#5fe853"] ;
135 -> 137 ;
138 [label=<gini = 0.0<br/>samples = 38<br/>value = [0, 0, 0, 38, 0, 0, 0, 0, 0, 0, 0, 0]<br/>class = D>, fillcolor="#47e539"] ;
137 -> 138 ;
139 [label=<gini = 0.0<br/>samples = 5<br/>value = [0, 0, 0, 0, 5, 0, 0, 0, 0, 0, 0, 0]<br/>class = E>, fillcolor="#39e581"] ;
137 -> 139 ;
140 [label=<Upper Margin &le; -0.272<br/>gini = 0.496<br/>samples = 33<br/>value = [15, 0, 0, 0, 18, 0, 0, 0, 0, 0, 0, 0]<br/>class = E>, fillcolor="#defbea"] ;
134 -> 140 ;
141 [label=<gini = 0.0<br/>samples = 15<br/>value = [15, 0, 0, 0, 0, 0, 0, 0, 0, 0, 0, 0]<br/>class = A>, fillcolor="#e58139"] ;
140 -> 141 ;
142 [label=<gini = 0.0<br/>samples = 18<br/>value = [0, 0, 0, 0, 18, 0, 0, 0, 0, 0, 0, 0]<br/>class = E>, fillcolor="#39e581"] ;
140 -> 142 ;
143 [label=<Lower Margin &le; 0.385<br/>gini = 0.162<br/>samples = 214<br/>value = [0, 0, 0, 195, 19, 0, 0, 0, 0, 0, 0, 0]<br/>class = D>, fillcolor="#59e84c"] ;
133 -> 143 ;
144 [label=<Exploitation &le; 0.307<br/>gini = 0.478<br/>samples = 33<br/>value = [0, 0, 0, 20, 13, 0, 0, 0, 0, 0, 0, 0]<br/>class = D>, fillcolor="#bff6ba"] ;
143 -> 144 ;
145 [label=<gini = 0.0<br/>samples = 20<br/>value = [0, 0, 0, 20, 0, 0, 0, 0, 0, 0, 0, 0]<br/>class = D>, fillcolor="#47e539"] ;
144 -> 145 ;
146 [label=<gini = 0.0<br/>samples = 13<br/>value = [0, 0, 0, 0, 13, 0, 0, 0, 0, 0, 0, 0]<br/>class = E>, fillcolor="#39e581"] ;
144 -> 146 ;
147 [label=<Interlinear Spacing &le; -0.44<br/>gini = 0.064<br/>samples = 181<br/>value = [0, 0, 0, 175, 6, 0, 0, 0, 0, 0, 0, 0]<br/>class = D>, fillcolor="#4de640"] ;
143 -> 147 ;
148 [label=<Row Number &le; -0.275<br/>gini = 0.32<br/>samples = 5<br/>value = [0, 0, 0, 1, 4, 0, 0, 0, 0, 0, 0, 0]<br/>class = E>, fillcolor="#6aeca0"] ;
147 -> 148 ;
149 [label=<gini = 0.0<br/>samples = 4<br/>value = [0, 0, 0, 0, 4, 0, 0, 0, 0, 0, 0, 0]<br/>class = E>, fillcolor="#39e581"] ;
148 -> 149 ;
150 [label=<gini = 0.0<br/>samples = 1<br/>value = [0, 0, 0, 1, 0, 0, 0, 0, 0, 0, 0, 0]<br/>class = D>, fillcolor="#47e539"] ;
148 -> 150 ;
151 [label=<Modular Ratio/Interlinear Spacing &le; -1.223<br/>gini = 0.022<br/>samples = 176<br/>value = [0, 0, 0, 174, 2, 0, 0, 0, 0, 0, 0, 0]<br/>class = D>, fillcolor="#49e53b"] ;
147 -> 151 ;
152 [label=<Lower Margin &le; 0.428<br/>gini = 0.444<br/>samples = 3<br/>value = [0, 0, 0, 2, 1, 0, 0, 0, 0, 0, 0, 0]<br/>class = D>, fillcolor="#a3f29c"] ;
151 -> 152 ;
153 [label=<gini = 0.0<br/>samples = 2<br/>value = [0, 0, 0, 2, 0, 0, 0, 0, 0, 0, 0, 0]<br/>class = D>, fillcolor="#47e539"] ;
152 -> 153 ;
154 [label=<gini = 0.0<br/>samples = 1<br/>value = [0, 0, 0, 0, 1, 0, 0, 0, 0, 0, 0, 0]<br/>class = E>, fillcolor="#39e581"] ;
152 -> 154 ;
155 [label=<Row Number &le; -0.275<br/>gini = 0.011<br/>samples = 173<br/>value = [0, 0, 0, 172, 1, 0, 0, 0, 0, 0, 0, 0]<br/>class = D>, fillcolor="#48e53a"] ;
151 -> 155 ;
156 [label=<Exploitation &le; 0.422<br/>gini = 0.124<br/>samples = 15<br/>value = [0, 0, 0, 14, 1, 0, 0, 0, 0, 0, 0, 0]<br/>class = D>, fillcolor="#54e747"] ;
155 -> 156 ;
157 [label=<gini = 0.0<br/>samples = 1<br/>value = [0, 0, 0, 0, 1, 0, 0, 0, 0, 0, 0, 0]<br/>class = E>, fillcolor="#39e581"] ;
156 -> 157 ;
158 [label=<gini = 0.0<br/>samples = 14<br/>value = [0, 0, 0, 14, 0, 0, 0, 0, 0, 0, 0, 0]<br/>class = D>, fillcolor="#47e539"] ;
156 -> 158 ;
159 [label=<gini = 0.0<br/>samples = 158<br/>value = [0, 0, 0, 158, 0, 0, 0, 0, 0, 0, 0, 0]<br/>class = D>, fillcolor="#47e539"] ;
155 -> 159 ;
160 [label=<gini = 0.0<br/>samples = 12<br/>value = [0, 0, 0, 0, 12, 0, 0, 0, 0, 0, 0, 0]<br/>class = E>, fillcolor="#39e581"] ;
132 -> 160 ;
161 [label=<gini = 0.0<br/>samples = 15<br/>value = [0, 0, 15, 0, 0, 0, 0, 0, 0, 0, 0, 0]<br/>class = C>, fillcolor="#9de539"] ;
119 -> 161 ;
162 [label=<gini = 0.0<br/>samples = 19<br/>value = [19, 0, 0, 0, 0, 0, 0, 0, 0, 0, 0, 0]<br/>class = A>, fillcolor="#e58139"] ;
118 -> 162 ;
163 [label=<Intercolumnar Distance &le; -0.4<br/>gini = 0.44<br/>samples = 43<br/>value = [0, 0, 0, 0, 7, 0, 0, 0, 0, 0, 31, 5]<br/>class = X>, fillcolor="#ee7bbe"] ;
93 -> 163 ;
164 [label=<Row Number &le; -0.409<br/>gini = 0.648<br/>samples = 16<br/>value = [0, 0, 0, 0, 7, 0, 0, 0, 0, 0, 4, 5]<br/>class = E>, fillcolor="#dbfae8"] ;
163 -> 164 ;
165 [label=<gini = 0.0<br/>samples = 7<br/>value = [0, 0, 0, 0, 7, 0, 0, 0, 0, 0, 0, 0]<br/>class = E>, fillcolor="#39e581"] ;
164 -> 165 ;
166 [label=<Exploitation &le; 1.727<br/>gini = 0.494<br/>samples = 9<br/>value = [0, 0, 0, 0, 0, 0, 0, 0, 0, 0, 4, 5]<br/>class = Y>, fillcolor="#fad7da"] ;
164 -> 166 ;
167 [label=<gini = 0.0<br/>samples = 5<br/>value = [0, 0, 0, 0, 0, 0, 0, 0, 0, 0, 0, 5]<br/>class = Y>, fillcolor="#e53947"] ;
166 -> 167 ;
168 [label=<gini = 0.0<br/>samples = 4<br/>value = [0, 0, 0, 0, 0, 0, 0, 0, 0, 0, 4, 0]<br/>class = X>, fillcolor="#e5399d"] ;
166 -> 168 ;
169 [label=<gini = 0.0<br/>samples = 27<br/>value = [0, 0, 0, 0, 0, 0, 0, 0, 0, 0, 27, 0]<br/>class = X>, fillcolor="#e5399d"] ;
163 -> 169 ;
170 [label=<Lower Margin &le; 0.12<br/>gini = 0.688<br/>samples = 679<br/>value = [183, 0, 12, 37, 320, 73, 22, 1, 0, 23, 8, 0]<br/>class = E>, fillcolor="#c8f8dc"] ;
92 -> 170 ;
171 [label=<Exploitation &le; 0.855<br/>gini = 0.773<br/>samples = 284<br/>value = [105, 0, 0, 23, 53, 54, 22, 0, 0, 23, 4, 0]<br/>class = A>, fillcolor="#f9e3d3"] ;
170 -> 171 ;
172 [label=<Intercolumnar Distance &le; -0.641<br/>gini = 0.721<br/>samples = 219<br/>value = [95, 0, 0, 23, 53, 0, 22, 0, 0, 23, 3, 0]<br/>class = A>, fillcolor="#f8dfcd"] ;
171 -> 172 ;
173 [label=<gini = 0.0<br/>samples = 23<br/>value = [0, 0, 0, 0, 0, 0, 0, 0, 0, 23, 0, 0]<br/>class = W>, fillcolor="#d739e5"] ;
172 -> 173 ;
174 [label=<Exploitation &le; -0.802<br/>gini = 0.665<br/>samples = 196<br/>value = [95, 0, 0, 23, 53, 0, 22, 0, 0, 0, 3, 0]<br/>class = A>, fillcolor="#f7dac5"] ;
172 -> 174 ;
175 [label=<gini = 0.0<br/>samples = 23<br/>value = [0, 0, 0, 23, 0, 0, 0, 0, 0, 0, 0, 0]<br/>class = D>, fillcolor="#47e539"] ;
174 -> 175 ;
176 [label=<Modular Ratio/Interlinear Spacing &le; 0.283<br/>gini = 0.588<br/>samples = 173<br/>value = [95, 0, 0, 0, 53, 0, 22, 0, 0, 0, 3, 0]<br/>class = A>, fillcolor="#f6d3ba"] ;
174 -> 176 ;
177 [label=<Exploitation &le; 0.376<br/>gini = 0.541<br/>samples = 74<br/>value = [21, 0, 0, 0, 45, 0, 7, 0, 0, 0, 1, 0]<br/>class = E>, fillcolor="#a5f3c6"] ;
176 -> 177 ;
178 [label=<Upper Margin &le; -0.016<br/>gini = 0.338<br/>samples = 56<br/>value = [5, 0, 0, 0, 45, 0, 5, 0, 0, 0, 1, 0]<br/>class = E>, fillcolor="#64eb9c"] ;
177 -> 178 ;
179 [label=<Upper Margin &le; -1.39<br/>gini = 0.081<br/>samples = 47<br/>value = [2, 0, 0, 0, 45, 0, 0, 0, 0, 0, 0, 0]<br/>class = E>, fillcolor="#42e687"] ;
178 -> 179 ;
180 [label=<gini = 0.0<br/>samples = 2<br/>value = [2, 0, 0, 0, 0, 0, 0, 0, 0, 0, 0, 0]<br/>class = A>, fillcolor="#e58139"] ;
179 -> 180 ;
181 [label=<gini = 0.0<br/>samples = 45<br/>value = [0, 0, 0, 0, 45, 0, 0, 0, 0, 0, 0, 0]<br/>class = E>, fillcolor="#39e581"] ;
179 -> 181 ;
182 [label=<Row Number &le; 0.306<br/>gini = 0.568<br/>samples = 9<br/>value = [3, 0, 0, 0, 0, 0, 5, 0, 0, 0, 1, 0]<br/>class = G>, fillcolor="#bddef6"] ;
178 -> 182 ;
183 [label=<gini = 0.0<br/>samples = 5<br/>value = [0, 0, 0, 0, 0, 0, 5, 0, 0, 0, 0, 0]<br/>class = G>, fillcolor="#399de5"] ;
182 -> 183 ;
184 [label=<Weight &le; -0.912<br/>gini = 0.375<br/>samples = 4<br/>value = [3, 0, 0, 0, 0, 0, 0, 0, 0, 0, 1, 0]<br/>class = A>, fillcolor="#eeab7b"] ;
182 -> 184 ;
185 [label=<gini = 0.0<br/>samples = 3<br/>value = [3, 0, 0, 0, 0, 0, 0, 0, 0, 0, 0, 0]<br/>class = A>, fillcolor="#e58139"] ;
184 -> 185 ;
186 [label=<gini = 0.0<br/>samples = 1<br/>value = [0, 0, 0, 0, 0, 0, 0, 0, 0, 0, 1, 0]<br/>class = X>, fillcolor="#e5399d"] ;
184 -> 186 ;
187 [label=<Intercolumnar Distance &le; -0.339<br/>gini = 0.198<br/>samples = 18<br/>value = [16, 0, 0, 0, 0, 0, 2, 0, 0, 0, 0, 0]<br/>class = A>, fillcolor="#e89152"] ;
177 -> 187 ;
188 [label=<gini = 0.0<br/>samples = 2<br/>value = [0, 0, 0, 0, 0, 0, 2, 0, 0, 0, 0, 0]<br/>class = G>, fillcolor="#399de5"] ;
187 -> 188 ;
189 [label=<gini = 0.0<br/>samples = 16<br/>value = [16, 0, 0, 0, 0, 0, 0, 0, 0, 0, 0, 0]<br/>class = A>, fillcolor="#e58139"] ;
187 -> 189 ;
190 [label=<Intercolumnar Distance &le; -0.481<br/>gini = 0.411<br/>samples = 99<br/>value = [74, 0, 0, 0, 8, 0, 15, 0, 0, 0, 2, 0]<br/>class = A>, fillcolor="#eda674"] ;
176 -> 190 ;
191 [label=<Upper Margin &le; 0.058<br/>gini = 0.494<br/>samples = 9<br/>value = [0, 0, 0, 0, 4, 0, 5, 0, 0, 0, 0, 0]<br/>class = G>, fillcolor="#d7ebfa"] ;
190 -> 191 ;
192 [label=<gini = 0.0<br/>samples = 4<br/>value = [0, 0, 0, 0, 4, 0, 0, 0, 0, 0, 0, 0]<br/>class = E>, fillcolor="#39e581"] ;
191 -> 192 ;
193 [label=<gini = 0.0<br/>samples = 5<br/>value = [0, 0, 0, 0, 0, 0, 5, 0, 0, 0, 0, 0]<br/>class = G>, fillcolor="#399de5"] ;
191 -> 193 ;
194 [label=<Exploitation &le; 0.61<br/>gini = 0.309<br/>samples = 90<br/>value = [74, 0, 0, 0, 4, 0, 10, 0, 0, 0, 2, 0]<br/>class = A>, fillcolor="#ea9a61"] ;
190 -> 194 ;
195 [label=<Intercolumnar Distance &le; -0.289<br/>gini = 0.156<br/>samples = 72<br/>value = [66, 0, 0, 0, 4, 0, 0, 0, 0, 0, 2, 0]<br/>class = A>, fillcolor="#e78c4a"] ;
194 -> 195 ;
196 [label=<Weight &le; -0.797<br/>gini = 0.091<br/>samples = 63<br/>value = [60, 0, 0, 0, 3, 0, 0, 0, 0, 0, 0, 0]<br/>class = A>, fillcolor="#e68743"] ;
195 -> 196 ;
197 [label=<gini = 0.0<br/>samples = 45<br/>value = [45, 0, 0, 0, 0, 0, 0, 0, 0, 0, 0, 0]<br/>class = A>, fillcolor="#e58139"] ;
196 -> 197 ;
198 [label=<Lower Margin &le; -0.844<br/>gini = 0.278<br/>samples = 18<br/>value = [15, 0, 0, 0, 3, 0, 0, 0, 0, 0, 0, 0]<br/>class = A>, fillcolor="#ea9a61"] ;
196 -> 198 ;
199 [label=<gini = 0.0<br/>samples = 3<br/>value = [0, 0, 0, 0, 3, 0, 0, 0, 0, 0, 0, 0]<br/>class = E>, fillcolor="#39e581"] ;
198 -> 199 ;
200 [label=<gini = 0.0<br/>samples = 15<br/>value = [15, 0, 0, 0, 0, 0, 0, 0, 0, 0, 0, 0]<br/>class = A>, fillcolor="#e58139"] ;
198 -> 200 ;
201 [label=<Exploitation &le; 0.369<br/>gini = 0.494<br/>samples = 9<br/>value = [6, 0, 0, 0, 1, 0, 0, 0, 0, 0, 2, 0]<br/>class = A>, fillcolor="#f0b78e"] ;
195 -> 201 ;
202 [label=<Peak Number &le; -1.401<br/>gini = 0.444<br/>samples = 3<br/>value = [0, 0, 0, 0, 1, 0, 0, 0, 0, 0, 2, 0]<br/>class = X>, fillcolor="#f29cce"] ;
201 -> 202 ;
203 [label=<gini = 0.0<br/>samples = 1<br/>value = [0, 0, 0, 0, 1, 0, 0, 0, 0, 0, 0, 0]<br/>class = E>, fillcolor="#39e581"] ;
202 -> 203 ;
204 [label=<gini = 0.0<br/>samples = 2<br/>value = [0, 0, 0, 0, 0, 0, 0, 0, 0, 0, 2, 0]<br/>class = X>, fillcolor="#e5399d"] ;
202 -> 204 ;
205 [label=<gini = 0.0<br/>samples = 6<br/>value = [6, 0, 0, 0, 0, 0, 0, 0, 0, 0, 0, 0]<br/>class = A>, fillcolor="#e58139"] ;
201 -> 205 ;
206 [label=<Lower Margin &le; 0.054<br/>gini = 0.494<br/>samples = 18<br/>value = [8, 0, 0, 0, 0, 0, 10, 0, 0, 0, 0, 0]<br/>class = G>, fillcolor="#d7ebfa"] ;
194 -> 206 ;
207 [label=<gini = 0.0<br/>samples = 10<br/>value = [0, 0, 0, 0, 0, 0, 10, 0, 0, 0, 0, 0]<br/>class = G>, fillcolor="#399de5"] ;
206 -> 207 ;
208 [label=<gini = 0.0<br/>samples = 8<br/>value = [8, 0, 0, 0, 0, 0, 0, 0, 0, 0, 0, 0]<br/>class = A>, fillcolor="#e58139"] ;
206 -> 208 ;
209 [label=<Intercolumnar Distance &le; -0.296<br/>gini = 0.286<br/>samples = 65<br/>value = [10, 0, 0, 0, 0, 54, 0, 0, 0, 0, 1, 0]<br/>class = F>, fillcolor="#61eadf"] ;
171 -> 209 ;
210 [label=<gini = 0.0<br/>samples = 54<br/>value = [0, 0, 0, 0, 0, 54, 0, 0, 0, 0, 0, 0]<br/>class = F>, fillcolor="#39e5d7"] ;
209 -> 210 ;
211 [label=<Intercolumnar Distance &le; -0.259<br/>gini = 0.165<br/>samples = 11<br/>value = [10, 0, 0, 0, 0, 0, 0, 0, 0, 0, 1, 0]<br/>class = A>, fillcolor="#e88e4d"] ;
209 -> 211 ;
212 [label=<gini = 0.0<br/>samples = 1<br/>value = [0, 0, 0, 0, 0, 0, 0, 0, 0, 0, 1, 0]<br/>class = X>, fillcolor="#e5399d"] ;
211 -> 212 ;
213 [label=<gini = 0.0<br/>samples = 10<br/>value = [10, 0, 0, 0, 0, 0, 0, 0, 0, 0, 0, 0]<br/>class = A>, fillcolor="#e58139"] ;
211 -> 213 ;
214 [label=<Upper Margin &le; -0.095<br/>gini = 0.499<br/>samples = 395<br/>value = [78, 0, 12, 14, 267, 19, 0, 1, 0, 0, 4, 0]<br/>class = E>, fillcolor="#89efb4"] ;
170 -> 214 ;
215 [label=<Lower Margin &le; 0.389<br/>gini = 0.636<br/>samples = 219<br/>value = [78, 0, 0, 14, 104, 19, 0, 0, 0, 0, 4, 0]<br/>class = E>, fillcolor="#dafae8"] ;
214 -> 215 ;
216 [label=<Intercolumnar Distance &le; -0.345<br/>gini = 0.457<br/>samples = 110<br/>value = [78, 0, 0, 14, 17, 0, 0, 0, 0, 0, 1, 0]<br/>class = A>, fillcolor="#eeac7d"] ;
215 -> 216 ;
217 [label=<gini = 0.0<br/>samples = 17<br/>value = [0, 0, 0, 0, 17, 0, 0, 0, 0, 0, 0, 0]<br/>class = E>, fillcolor="#39e581"] ;
216 -> 217 ;
218 [label=<Intercolumnar Distance &le; -0.24<br/>gini = 0.274<br/>samples = 93<br/>value = [78, 0, 0, 14, 0, 0, 0, 0, 0, 0, 1, 0]<br/>class = A>, fillcolor="#ea995f"] ;
216 -> 218 ;
219 [label=<gini = 0.0<br/>samples = 78<br/>value = [78, 0, 0, 0, 0, 0, 0, 0, 0, 0, 0, 0]<br/>class = A>, fillcolor="#e58139"] ;
218 -> 219 ;
220 [label=<Lower Margin &le; 0.277<br/>gini = 0.124<br/>samples = 15<br/>value = [0, 0, 0, 14, 0, 0, 0, 0, 0, 0, 1, 0]<br/>class = D>, fillcolor="#54e747"] ;
218 -> 220 ;
221 [label=<gini = 0.0<br/>samples = 1<br/>value = [0, 0, 0, 0, 0, 0, 0, 0, 0, 0, 1, 0]<br/>class = X>, fillcolor="#e5399d"] ;
220 -> 221 ;
222 [label=<gini = 0.0<br/>samples = 14<br/>value = [0, 0, 0, 14, 0, 0, 0, 0, 0, 0, 0, 0]<br/>class = D>, fillcolor="#47e539"] ;
220 -> 222 ;
223 [label=<Exploitation &le; -0.897<br/>gini = 0.332<br/>samples = 109<br/>value = [0, 0, 0, 0, 87, 19, 0, 0, 0, 0, 3, 0]<br/>class = E>, fillcolor="#69eba0"] ;
215 -> 223 ;
224 [label=<Exploitation &le; -1.195<br/>gini = 0.464<br/>samples = 30<br/>value = [0, 0, 0, 0, 11, 19, 0, 0, 0, 0, 0, 0]<br/>class = F>, fillcolor="#acf4ee"] ;
223 -> 224 ;
225 [label=<gini = 0.0<br/>samples = 11<br/>value = [0, 0, 0, 0, 11, 0, 0, 0, 0, 0, 0, 0]<br/>class = E>, fillcolor="#39e581"] ;
224 -> 225 ;
226 [label=<gini = 0.0<br/>samples = 19<br/>value = [0, 0, 0, 0, 0, 19, 0, 0, 0, 0, 0, 0]<br/>class = F>, fillcolor="#39e5d7"] ;
224 -> 226 ;
227 [label=<Lower Margin &le; 0.552<br/>gini = 0.073<br/>samples = 79<br/>value = [0, 0, 0, 0, 76, 0, 0, 0, 0, 0, 3, 0]<br/>class = E>, fillcolor="#41e686"] ;
223 -> 227 ;
228 [label=<gini = 0.0<br/>samples = 76<br/>value = [0, 0, 0, 0, 76, 0, 0, 0, 0, 0, 0, 0]<br/>class = E>, fillcolor="#39e581"] ;
227 -> 228 ;
229 [label=<gini = 0.0<br/>samples = 3<br/>value = [0, 0, 0, 0, 0, 0, 0, 0, 0, 0, 3, 0]<br/>class = X>, fillcolor="#e5399d"] ;
227 -> 229 ;
230 [label=<Exploitation &le; -0.579<br/>gini = 0.138<br/>samples = 176<br/>value = [0, 0, 12, 0, 163, 0, 0, 1, 0, 0, 0, 0]<br/>class = E>, fillcolor="#49e78b"] ;
214 -> 230 ;
231 [label=<Peak Number &le; 0.345<br/>gini = 0.142<br/>samples = 13<br/>value = [0, 0, 12, 0, 0, 0, 0, 1, 0, 0, 0, 0]<br/>class = C>, fillcolor="#a5e749"] ;
230 -> 231 ;
232 [label=<gini = 0.0<br/>samples = 9<br/>value = [0, 0, 9, 0, 0, 0, 0, 0, 0, 0, 0, 0]<br/>class = C>, fillcolor="#9de539"] ;
231 -> 232 ;
233 [label=<Interlinear Spacing &le; 0.258<br/>gini = 0.375<br/>samples = 4<br/>value = [0, 0, 3, 0, 0, 0, 0, 1, 0, 0, 0, 0]<br/>class = C>, fillcolor="#beee7b"] ;
231 -> 233 ;
234 [label=<gini = 0.0<br/>samples = 1<br/>value = [0, 0, 0, 0, 0, 0, 0, 1, 0, 0, 0, 0]<br/>class = H>, fillcolor="#3947e5"] ;
233 -> 234 ;
235 [label=<gini = 0.0<br/>samples = 3<br/>value = [0, 0, 3, 0, 0, 0, 0, 0, 0, 0, 0, 0]<br/>class = C>, fillcolor="#9de539"] ;
233 -> 235 ;
236 [label=<gini = 0.0<br/>samples = 163<br/>value = [0, 0, 0, 0, 163, 0, 0, 0, 0, 0, 0, 0]<br/>class = E>, fillcolor="#39e581"] ;
230 -> 236 ;
237 [label=<Lower Margin &le; 0.497<br/>gini = 0.727<br/>samples = 1402<br/>value = [467, 0, 39, 103, 127, 535, 39, 42, 0, 16, 34, 0]<br/>class = F>, fillcolor="#f1fdfc"] ;
5 -> 237 ;
238 [label=<Exploitation &le; 0.137<br/>gini = 0.678<br/>samples = 1249<br/>value = [448, 0, 0, 38, 97, 535, 39, 42, 0, 16, 34, 0]<br/>class = F>, fillcolor="#e9fcfb"] ;
237 -> 238 ;
239 [label=<Exploitation &le; 0.038<br/>gini = 0.751<br/>samples = 377<br/>value = [156, 0, 0, 38, 57, 73, 15, 13, 0, 0, 25, 0]<br/>class = A>, fillcolor="#f8ddc9"] ;
238 -> 239 ;
240 [label=<Upper Margin &le; -0.625<br/>gini = 0.801<br/>samples = 313<br/>value = [92, 0, 0, 38, 57, 73, 15, 13, 0, 0, 25, 0]<br/>class = A>, fillcolor="#fdf5ef"] ;
239 -> 240 ;
241 [label=<gini = 0.0<br/>samples = 25<br/>value = [0, 0, 0, 0, 0, 0, 0, 0, 0, 0, 25, 0]<br/>class = X>, fillcolor="#e5399d"] ;
240 -> 241 ;
242 [label=<Exploitation &le; -0.304<br/>gini = 0.772<br/>samples = 288<br/>value = [92, 0, 0, 38, 57, 73, 15, 13, 0, 0, 0, 0]<br/>class = A>, fillcolor="#fdf4ee"] ;
240 -> 242 ;
243 [label=<Row Number &le; 0.217<br/>gini = 0.677<br/>samples = 198<br/>value = [92, 0, 0, 38, 16, 50, 0, 2, 0, 0, 0, 0]<br/>class = A>, fillcolor="#f8dbc7"] ;
242 -> 243 ;
244 [label=<Exploitation &le; -0.879<br/>gini = 0.458<br/>samples = 107<br/>value = [69, 0, 0, 38, 0, 0, 0, 0, 0, 0, 0, 0]<br/>class = A>, fillcolor="#f3c6a6"] ;
243 -> 244 ;
245 [label=<gini = 0.0<br/>samples = 24<br/>value = [0, 0, 0, 24, 0, 0, 0, 0, 0, 0, 0, 0]<br/>class = D>, fillcolor="#47e539"] ;
244 -> 245 ;
246 [label=<Upper Margin &le; 0.046<br/>gini = 0.28<br/>samples = 83<br/>value = [69, 0, 0, 14, 0, 0, 0, 0, 0, 0, 0, 0]<br/>class = A>, fillcolor="#ea9b61"] ;
244 -> 246 ;
247 [label=<gini = 0.0<br/>samples = 69<br/>value = [69, 0, 0, 0, 0, 0, 0, 0, 0, 0, 0, 0]<br/>class = A>, fillcolor="#e58139"] ;
246 -> 247 ;
248 [label=<gini = 0.0<br/>samples = 14<br/>value = [0, 0, 0, 14, 0, 0, 0, 0, 0, 0, 0, 0]<br/>class = D>, fillcolor="#47e539"] ;
246 -> 248 ;
249 [label=<Intercolumnar Distance &le; -0.135<br/>gini = 0.603<br/>samples = 91<br/>value = [23, 0, 0, 0, 16, 50, 0, 2, 0, 0, 0, 0]<br/>class = F>, fillcolor="#b0f5ef"] ;
243 -> 249 ;
250 [label=<gini = 0.0<br/>samples = 50<br/>value = [0, 0, 0, 0, 0, 50, 0, 0, 0, 0, 0, 0]<br/>class = F>, fillcolor="#39e5d7"] ;
249 -> 250 ;
251 [label=<Lower Margin &le; 0.052<br/>gini = 0.531<br/>samples = 41<br/>value = [23, 0, 0, 0, 16, 0, 0, 2, 0, 0, 0, 0]<br/>class = A>, fillcolor="#f8dcc8"] ;
249 -> 251 ;
252 [label=<Exploitation &le; -0.669<br/>gini = 0.198<br/>samples = 18<br/>value = [0, 0, 0, 0, 16, 0, 0, 2, 0, 0, 0, 0]<br/>class = E>, fillcolor="#52e891"] ;
251 -> 252 ;
253 [label=<gini = 0.0<br/>samples = 16<br/>value = [0, 0, 0, 0, 16, 0, 0, 0, 0, 0, 0, 0]<br/>class = E>, fillcolor="#39e581"] ;
252 -> 253 ;
254 [label=<gini = 0.0<br/>samples = 2<br/>value = [0, 0, 0, 0, 0, 0, 0, 2, 0, 0, 0, 0]<br/>class = H>, fillcolor="#3947e5"] ;
252 -> 254 ;
255 [label=<gini = 0.0<br/>samples = 23<br/>value = [23, 0, 0, 0, 0, 0, 0, 0, 0, 0, 0, 0]<br/>class = A>, fillcolor="#e58139"] ;
251 -> 255 ;
256 [label=<Row Number &le; -0.453<br/>gini = 0.684<br/>samples = 90<br/>value = [0, 0, 0, 0, 41, 23, 15, 11, 0, 0, 0, 0]<br/>class = E>, fillcolor="#caf8dd"] ;
242 -> 256 ;
257 [label=<gini = 0.0<br/>samples = 23<br/>value = [0, 0, 0, 0, 0, 23, 0, 0, 0, 0, 0, 0]<br/>class = F>, fillcolor="#39e5d7"] ;
256 -> 257 ;
258 [label=<Upper Margin &le; 0.356<br/>gini = 0.548<br/>samples = 67<br/>value = [0, 0, 0, 0, 41, 0, 15, 11, 0, 0, 0, 0]<br/>class = E>, fillcolor="#9cf2c0"] ;
256 -> 258 ;
259 [label=<Exploitation &le; 0.011<br/>gini = 0.334<br/>samples = 52<br/>value = [0, 0, 0, 0, 41, 0, 0, 11, 0, 0, 0, 0]<br/>class = E>, fillcolor="#6eeca3"] ;
258 -> 259 ;
260 [label=<gini = 0.0<br/>samples = 41<br/>value = [0, 0, 0, 0, 41, 0, 0, 0, 0, 0, 0, 0]<br/>class = E>, fillcolor="#39e581"] ;
259 -> 260 ;
261 [label=<gini = 0.0<br/>samples = 11<br/>value = [0, 0, 0, 0, 0, 0, 0, 11, 0, 0, 0, 0]<br/>class = H>, fillcolor="#3947e5"] ;
259 -> 261 ;
262 [label=<gini = 0.0<br/>samples = 15<br/>value = [0, 0, 0, 0, 0, 0, 15, 0, 0, 0, 0, 0]<br/>class = G>, fillcolor="#399de5"] ;
258 -> 262 ;
263 [label=<gini = 0.0<br/>samples = 64<br/>value = [64, 0, 0, 0, 0, 0, 0, 0, 0, 0, 0, 0]<br/>class = A>, fillcolor="#e58139"] ;
239 -> 263 ;
264 [label=<Exploitation &le; 0.204<br/>gini = 0.603<br/>samples = 872<br/>value = [292, 0, 0, 0, 40, 462, 24, 29, 0, 16, 9, 0]<br/>class = F>, fillcolor="#c5f7f3"] ;
238 -> 264 ;
265 [label=<gini = 0.0<br/>samples = 134<br/>value = [0, 0, 0, 0, 0, 134, 0, 0, 0, 0, 0, 0]<br/>class = F>, fillcolor="#39e5d7"] ;
264 -> 265 ;
266 [label=<Intercolumnar Distance &le; -0.135<br/>gini = 0.64<br/>samples = 738<br/>value = [292, 0, 0, 0, 40, 328, 24, 29, 0, 16, 9, 0]<br/>class = F>, fillcolor="#effdfc"] ;
264 -> 266 ;
267 [label=<Lower Margin &le; 0.261<br/>gini = 0.415<br/>samples = 239<br/>value = [51, 0, 0, 0, 13, 175, 0, 0, 0, 0, 0, 0]<br/>class = F>, fillcolor="#7ceee5"] ;
266 -> 267 ;
268 [label=<gini = 0.0<br/>samples = 146<br/>value = [0, 0, 0, 0, 0, 146, 0, 0, 0, 0, 0, 0]<br/>class = F>, fillcolor="#39e5d7"] ;
267 -> 268 ;
269 [label=<Exploitation &le; 0.636<br/>gini = 0.582<br/>samples = 93<br/>value = [51, 0, 0, 0, 13, 29, 0, 0, 0, 0, 0, 0]<br/>class = A>, fillcolor="#f6d4bb"] ;
267 -> 269 ;
270 [label=<gini = 0.0<br/>samples = 51<br/>value = [51, 0, 0, 0, 0, 0, 0, 0, 0, 0, 0, 0]<br/>class = A>, fillcolor="#e58139"] ;
269 -> 270 ;
271 [label=<Exploitation &le; 0.694<br/>gini = 0.427<br/>samples = 42<br/>value = [0, 0, 0, 0, 13, 29, 0, 0, 0, 0, 0, 0]<br/>class = F>, fillcolor="#92f1e9"] ;
269 -> 271 ;
272 [label=<gini = 0.0<br/>samples = 29<br/>value = [0, 0, 0, 0, 0, 29, 0, 0, 0, 0, 0, 0]<br/>class = F>, fillcolor="#39e5d7"] ;
271 -> 272 ;
273 [label=<gini = 0.0<br/>samples = 13<br/>value = [0, 0, 0, 0, 13, 0, 0, 0, 0, 0, 0, 0]<br/>class = E>, fillcolor="#39e581"] ;
271 -> 273 ;
274 [label=<Lower Margin &le; 0.234<br/>gini = 0.663<br/>samples = 499<br/>value = [241, 0, 0, 0, 27, 153, 24, 29, 0, 16, 9, 0]<br/>class = A>, fillcolor="#f8dfcd"] ;
266 -> 274 ;
275 [label=<Upper Margin &le; 0.404<br/>gini = 0.334<br/>samples = 211<br/>value = [170, 0, 0, 0, 0, 0, 24, 13, 0, 0, 4, 0]<br/>class = A>, fillcolor="#eb9d64"] ;
274 -> 275 ;
276 [label=<Row Number &le; 0.217<br/>gini = 0.172<br/>samples = 183<br/>value = [166, 0, 0, 0, 0, 0, 0, 13, 0, 0, 4, 0]<br/>class = A>, fillcolor="#e88e4d"] ;
275 -> 276 ;
277 [label=<gini = 0.0<br/>samples = 5<br/>value = [0, 0, 0, 0, 0, 0, 0, 5, 0, 0, 0, 0]<br/>class = H>, fillcolor="#3947e5"] ;
276 -> 277 ;
278 [label=<Upper Margin &le; 0.329<br/>gini = 0.128<br/>samples = 178<br/>value = [166, 0, 0, 0, 0, 0, 0, 8, 0, 0, 4, 0]<br/>class = A>, fillcolor="#e78a47"] ;
276 -> 278 ;
279 [label=<Modular Ratio/Interlinear Spacing &le; -1.055<br/>gini = 0.052<br/>samples = 149<br/>value = [145, 0, 0, 0, 0, 0, 0, 0, 0, 0, 4, 0]<br/>class = A>, fillcolor="#e6843e"] ;
278 -> 279 ;
280 [label=<Upper Margin &le; 0.137<br/>gini = 0.444<br/>samples = 3<br/>value = [1, 0, 0, 0, 0, 0, 0, 0, 0, 0, 2, 0]<br/>class = X>, fillcolor="#f29cce"] ;
279 -> 280 ;
281 [label=<gini = 0.0<br/>samples = 2<br/>value = [0, 0, 0, 0, 0, 0, 0, 0, 0, 0, 2, 0]<br/>class = X>, fillcolor="#e5399d"] ;
280 -> 281 ;
282 [label=<gini = 0.0<br/>samples = 1<br/>value = [1, 0, 0, 0, 0, 0, 0, 0, 0, 0, 0, 0]<br/>class = A>, fillcolor="#e58139"] ;
280 -> 282 ;
283 [label=<Modular Ratio/Interlinear Spacing &le; -0.627<br/>gini = 0.027<br/>samples = 146<br/>value = [144, 0, 0, 0, 0, 0, 0, 0, 0, 0, 2, 0]<br/>class = A>, fillcolor="#e5833c"] ;
279 -> 283 ;
284 [label=<Exploitation &le; 0.542<br/>gini = 0.32<br/>samples = 10<br/>value = [8, 0, 0, 0, 0, 0, 0, 0, 0, 0, 2, 0]<br/>class = A>, fillcolor="#eca06a"] ;
283 -> 284 ;
285 [label=<gini = 0.0<br/>samples = 8<br/>value = [8, 0, 0, 0, 0, 0, 0, 0, 0, 0, 0, 0]<br/>class = A>, fillcolor="#e58139"] ;
284 -> 285 ;
286 [label=<gini = 0.0<br/>samples = 2<br/>value = [0, 0, 0, 0, 0, 0, 0, 0, 0, 0, 2, 0]<br/>class = X>, fillcolor="#e5399d"] ;
284 -> 286 ;
287 [label=<gini = 0.0<br/>samples = 136<br/>value = [136, 0, 0, 0, 0, 0, 0, 0, 0, 0, 0, 0]<br/>class = A>, fillcolor="#e58139"] ;
283 -> 287 ;
288 [label=<Intercolumnar Distance &le; -0.11<br/>gini = 0.4<br/>samples = 29<br/>value = [21, 0, 0, 0, 0, 0, 0, 8, 0, 0, 0, 0]<br/>class = A>, fillcolor="#efb184"] ;
278 -> 288 ;
289 [label=<gini = 0.0<br/>samples = 21<br/>value = [21, 0, 0, 0, 0, 0, 0, 0, 0, 0, 0, 0]<br/>class = A>, fillcolor="#e58139"] ;
288 -> 289 ;
290 [label=<gini = 0.0<br/>samples = 8<br/>value = [0, 0, 0, 0, 0, 0, 0, 8, 0, 0, 0, 0]<br/>class = H>, fillcolor="#3947e5"] ;
288 -> 290 ;
291 [label=<Weight &le; 2.159<br/>gini = 0.245<br/>samples = 28<br/>value = [4, 0, 0, 0, 0, 0, 24, 0, 0, 0, 0, 0]<br/>class = G>, fillcolor="#5aade9"] ;
275 -> 291 ;
292 [label=<gini = 0.0<br/>samples = 24<br/>value = [0, 0, 0, 0, 0, 0, 24, 0, 0, 0, 0, 0]<br/>class = G>, fillcolor="#399de5"] ;
291 -> 292 ;
293 [label=<gini = 0.0<br/>samples = 4<br/>value = [4, 0, 0, 0, 0, 0, 0, 0, 0, 0, 0, 0]<br/>class = A>, fillcolor="#e58139"] ;
291 -> 293 ;
294 [label=<Upper Margin &le; 0.003<br/>gini = 0.642<br/>samples = 288<br/>value = [71, 0, 0, 0, 27, 153, 0, 16, 0, 16, 5, 0]<br/>class = F>, fillcolor="#b4f5f0"] ;
274 -> 294 ;
295 [label=<Row Number &le; -0.006<br/>gini = 0.433<br/>samples = 224<br/>value = [71, 0, 0, 0, 0, 153, 0, 0, 0, 0, 0, 0]<br/>class = F>, fillcolor="#95f1ea"] ;
294 -> 295 ;
296 [label=<gini = 0.0<br/>samples = 26<br/>value = [26, 0, 0, 0, 0, 0, 0, 0, 0, 0, 0, 0]<br/>class = A>, fillcolor="#e58139"] ;
295 -> 296 ;
297 [label=<Exploitation &le; 0.411<br/>gini = 0.351<br/>samples = 198<br/>value = [45, 0, 0, 0, 0, 153, 0, 0, 0, 0, 0, 0]<br/>class = F>, fillcolor="#73ede3"] ;
295 -> 297 ;
298 [label=<Lower Margin &le; 0.357<br/>gini = 0.459<br/>samples = 70<br/>value = [45, 0, 0, 0, 0, 25, 0, 0, 0, 0, 0, 0]<br/>class = A>, fillcolor="#f3c7a7"] ;
297 -> 298 ;
299 [label=<gini = 0.0<br/>samples = 45<br/>value = [45, 0, 0, 0, 0, 0, 0, 0, 0, 0, 0, 0]<br/>class = A>, fillcolor="#e58139"] ;
298 -> 299 ;
300 [label=<gini = 0.0<br/>samples = 25<br/>value = [0, 0, 0, 0, 0, 25, 0, 0, 0, 0, 0, 0]<br/>class = F>, fillcolor="#39e5d7"] ;
298 -> 300 ;
301 [label=<gini = 0.0<br/>samples = 128<br/>value = [0, 0, 0, 0, 0, 128, 0, 0, 0, 0, 0, 0]<br/>class = F>, fillcolor="#39e5d7"] ;
297 -> 301 ;
302 [label=<Lower Margin &le; 0.312<br/>gini = 0.691<br/>samples = 64<br/>value = [0, 0, 0, 0, 27, 0, 0, 16, 0, 16, 5, 0]<br/>class = E>, fillcolor="#d2f9e2"] ;
294 -> 302 ;
303 [label=<gini = 0.0<br/>samples = 27<br/>value = [0, 0, 0, 0, 27, 0, 0, 0, 0, 0, 0, 0]<br/>class = E>, fillcolor="#39e581"] ;
302 -> 303 ;
304 [label=<Lower Margin &le; 0.346<br/>gini = 0.608<br/>samples = 37<br/>value = [0, 0, 0, 0, 0, 0, 0, 16, 0, 16, 5, 0]<br/>class = H>, fillcolor="#ffffff"] ;
302 -> 304 ;
305 [label=<gini = 0.0<br/>samples = 16<br/>value = [0, 0, 0, 0, 0, 0, 0, 16, 0, 0, 0, 0]<br/>class = H>, fillcolor="#3947e5"] ;
304 -> 305 ;
306 [label=<Intercolumnar Distance &le; -0.098<br/>gini = 0.363<br/>samples = 21<br/>value = [0, 0, 0, 0, 0, 0, 0, 0, 0, 16, 5, 0]<br/>class = W>, fillcolor="#e477ed"] ;
304 -> 306 ;
307 [label=<gini = 0.0<br/>samples = 5<br/>value = [0, 0, 0, 0, 0, 0, 0, 0, 0, 0, 5, 0]<br/>class = X>, fillcolor="#e5399d"] ;
306 -> 307 ;
308 [label=<gini = 0.0<br/>samples = 16<br/>value = [0, 0, 0, 0, 0, 0, 0, 0, 0, 16, 0, 0]<br/>class = W>, fillcolor="#d739e5"] ;
306 -> 308 ;
309 [label=<Lower Margin &le; 0.54<br/>gini = 0.701<br/>samples = 153<br/>value = [19, 0, 39, 65, 30, 0, 0, 0, 0, 0, 0, 0]<br/>class = D>, fillcolor="#d5f9d2"] ;
237 -> 309 ;
310 [label=<gini = 0.0<br/>samples = 30<br/>value = [0, 0, 0, 0, 30, 0, 0, 0, 0, 0, 0, 0]<br/>class = E>, fillcolor="#39e581"] ;
309 -> 310 ;
311 [label=<Upper Margin &le; -0.448<br/>gini = 0.596<br/>samples = 123<br/>value = [19, 0, 39, 65, 0, 0, 0, 0, 0, 0, 0, 0]<br/>class = D>, fillcolor="#c6f7c2"] ;
309 -> 311 ;
312 [label=<gini = 0.0<br/>samples = 47<br/>value = [0, 0, 0, 47, 0, 0, 0, 0, 0, 0, 0, 0]<br/>class = D>, fillcolor="#47e539"] ;
311 -> 312 ;
313 [label=<Upper Margin &le; 0.09<br/>gini = 0.618<br/>samples = 76<br/>value = [19, 0, 39, 18, 0, 0, 0, 0, 0, 0, 0, 0]<br/>class = C>, fillcolor="#ddf6ba"] ;
311 -> 313 ;
314 [label=<gini = 0.0<br/>samples = 39<br/>value = [0, 0, 39, 0, 0, 0, 0, 0, 0, 0, 0, 0]<br/>class = C>, fillcolor="#9de539"] ;
313 -> 314 ;
315 [label=<Row Number &le; -1.347<br/>gini = 0.5<br/>samples = 37<br/>value = [19, 0, 0, 18, 0, 0, 0, 0, 0, 0, 0, 0]<br/>class = A>, fillcolor="#fef8f5"] ;
313 -> 315 ;
316 [label=<gini = 0.0<br/>samples = 19<br/>value = [19, 0, 0, 0, 0, 0, 0, 0, 0, 0, 0, 0]<br/>class = A>, fillcolor="#e58139"] ;
315 -> 316 ;
317 [label=<gini = 0.0<br/>samples = 18<br/>value = [0, 0, 0, 18, 0, 0, 0, 0, 0, 0, 0, 0]<br/>class = D>, fillcolor="#47e539"] ;
315 -> 317 ;
318 [label=<Intercolumnar Distance &le; -0.16<br/>gini = 0.616<br/>samples = 1626<br/>value = [125, 6, 30, 125, 973, 24, 65, 92, 13, 16, 148, 9]<br/>class = E>, fillcolor="#90f0b9"] ;
4 -> 318 ;
319 [label=<Exploitation &le; 1.057<br/>gini = 0.495<br/>samples = 1228<br/>value = [72, 0, 23, 107, 856, 5, 28, 5, 13, 8, 102, 9]<br/>class = E>, fillcolor="#7beeab"] ;
318 -> 319 ;
320 [label=<Upper Margin &le; -0.845<br/>gini = 0.41<br/>samples = 1044<br/>value = [56, 0, 23, 107, 792, 5, 28, 5, 8, 2, 18, 0]<br/>class = E>, fillcolor="#6eeca3"] ;
319 -> 320 ;
321 [label=<gini = 0.0<br/>samples = 21<br/>value = [0, 0, 0, 21, 0, 0, 0, 0, 0, 0, 0, 0]<br/>class = D>, fillcolor="#47e539"] ;
320 -> 321 ;
322 [label=<Exploitation &le; -0.623<br/>gini = 0.389<br/>samples = 1023<br/>value = [56, 0, 23, 86, 792, 5, 28, 5, 8, 2, 18, 0]<br/>class = E>, fillcolor="#6aeba0"] ;
320 -> 322 ;
323 [label=<Lower Margin &le; 0.38<br/>gini = 0.765<br/>samples = 83<br/>value = [14, 0, 12, 25, 25, 2, 0, 5, 0, 0, 0, 0]<br/>class = D>, fillcolor="#ffffff"] ;
322 -> 323 ;
324 [label=<Intercolumnar Distance &le; -0.431<br/>gini = 0.693<br/>samples = 52<br/>value = [12, 0, 9, 24, 0, 2, 0, 5, 0, 0, 0, 0]<br/>class = D>, fillcolor="#c8f7c4"] ;
323 -> 324 ;
325 [label=<Intercolumnar Distance &le; -1.993<br/>gini = 0.642<br/>samples = 24<br/>value = [10, 0, 9, 0, 0, 0, 0, 5, 0, 0, 0, 0]<br/>class = A>, fillcolor="#fdf7f2"] ;
324 -> 325 ;
326 [label=<gini = 0.0<br/>samples = 10<br/>value = [10, 0, 0, 0, 0, 0, 0, 0, 0, 0, 0, 0]<br/>class = A>, fillcolor="#e58139"] ;
325 -> 326 ;
327 [label=<Modular Ratio &le; -0.495<br/>gini = 0.459<br/>samples = 14<br/>value = [0, 0, 9, 0, 0, 0, 0, 5, 0, 0, 0, 0]<br/>class = C>, fillcolor="#d3f3a7"] ;
325 -> 327 ;
328 [label=<Interlinear Spacing &le; 0.635<br/>gini = 0.32<br/>samples = 5<br/>value = [0, 0, 1, 0, 0, 0, 0, 4, 0, 0, 0, 0]<br/>class = H>, fillcolor="#6a75ec"] ;
327 -> 328 ;
329 [label=<gini = 0.0<br/>samples = 4<br/>value = [0, 0, 0, 0, 0, 0, 0, 4, 0, 0, 0, 0]<br/>class = H>, fillcolor="#3947e5"] ;
328 -> 329 ;
330 [label=<gini = 0.0<br/>samples = 1<br/>value = [0, 0, 1, 0, 0, 0, 0, 0, 0, 0, 0, 0]<br/>class = C>, fillcolor="#9de539"] ;
328 -> 330 ;
331 [label=<Weight &le; 0.118<br/>gini = 0.198<br/>samples = 9<br/>value = [0, 0, 8, 0, 0, 0, 0, 1, 0, 0, 0, 0]<br/>class = C>, fillcolor="#a9e852"] ;
327 -> 331 ;
332 [label=<gini = 0.0<br/>samples = 7<br/>value = [0, 0, 7, 0, 0, 0, 0, 0, 0, 0, 0, 0]<br/>class = C>, fillcolor="#9de539"] ;
331 -> 332 ;
333 [label=<Modular Ratio/Interlinear Spacing &le; -0.118<br/>gini = 0.5<br/>samples = 2<br/>value = [0, 0, 1, 0, 0, 0, 0, 1, 0, 0, 0, 0]<br/>class = C>, fillcolor="#ffffff"] ;
331 -> 333 ;
334 [label=<gini = 0.0<br/>samples = 1<br/>value = [0, 0, 1, 0, 0, 0, 0, 0, 0, 0, 0, 0]<br/>class = C>, fillcolor="#9de539"] ;
333 -> 334 ;
335 [label=<gini = 0.0<br/>samples = 1<br/>value = [0, 0, 0, 0, 0, 0, 0, 1, 0, 0, 0, 0]<br/>class = H>, fillcolor="#3947e5"] ;
333 -> 335 ;
336 [label=<Intercolumnar Distance &le; -0.191<br/>gini = 0.255<br/>samples = 28<br/>value = [2, 0, 0, 24, 0, 2, 0, 0, 0, 0, 0, 0]<br/>class = D>, fillcolor="#63e957"] ;
324 -> 336 ;
337 [label=<gini = 0.0<br/>samples = 24<br/>value = [0, 0, 0, 24, 0, 0, 0, 0, 0, 0, 0, 0]<br/>class = D>, fillcolor="#47e539"] ;
336 -> 337 ;
338 [label=<Intercolumnar Distance &le; -0.172<br/>gini = 0.5<br/>samples = 4<br/>value = [2, 0, 0, 0, 0, 2, 0, 0, 0, 0, 0, 0]<br/>class = A>, fillcolor="#ffffff"] ;
336 -> 338 ;
339 [label=<gini = 0.0<br/>samples = 2<br/>value = [2, 0, 0, 0, 0, 0, 0, 0, 0, 0, 0, 0]<br/>class = A>, fillcolor="#e58139"] ;
338 -> 339 ;
340 [label=<gini = 0.0<br/>samples = 2<br/>value = [0, 0, 0, 0, 0, 2, 0, 0, 0, 0, 0, 0]<br/>class = F>, fillcolor="#39e5d7"] ;
338 -> 340 ;
341 [label=<Row Number &le; -0.543<br/>gini = 0.335<br/>samples = 31<br/>value = [2, 0, 3, 1, 25, 0, 0, 0, 0, 0, 0, 0]<br/>class = E>, fillcolor="#63eb9c"] ;
323 -> 341 ;
342 [label=<Intercolumnar Distance &le; -1.857<br/>gini = 0.48<br/>samples = 5<br/>value = [2, 0, 3, 0, 0, 0, 0, 0, 0, 0, 0, 0]<br/>class = C>, fillcolor="#def6bd"] ;
341 -> 342 ;
343 [label=<gini = 0.0<br/>samples = 3<br/>value = [0, 0, 3, 0, 0, 0, 0, 0, 0, 0, 0, 0]<br/>class = C>, fillcolor="#9de539"] ;
342 -> 343 ;
344 [label=<gini = 0.0<br/>samples = 2<br/>value = [2, 0, 0, 0, 0, 0, 0, 0, 0, 0, 0, 0]<br/>class = A>, fillcolor="#e58139"] ;
342 -> 344 ;
345 [label=<Intercolumnar Distance &le; -0.419<br/>gini = 0.074<br/>samples = 26<br/>value = [0, 0, 0, 1, 25, 0, 0, 0, 0, 0, 0, 0]<br/>class = E>, fillcolor="#41e686"] ;
341 -> 345 ;
346 [label=<gini = 0.0<br/>samples = 1<br/>value = [0, 0, 0, 1, 0, 0, 0, 0, 0, 0, 0, 0]<br/>class = D>, fillcolor="#47e539"] ;
345 -> 346 ;
347 [label=<gini = 0.0<br/>samples = 25<br/>value = [0, 0, 0, 0, 25, 0, 0, 0, 0, 0, 0, 0]<br/>class = E>, fillcolor="#39e581"] ;
345 -> 347 ;
348 [label=<Lower Margin &le; 0.124<br/>gini = 0.327<br/>samples = 940<br/>value = [42, 0, 11, 61, 767, 3, 28, 0, 8, 2, 18, 0]<br/>class = E>, fillcolor="#60ea9a"] ;
322 -> 348 ;
349 [label=<Upper Margin &le; 0.286<br/>gini = 0.58<br/>samples = 253<br/>value = [38, 0, 0, 3, 156, 3, 28, 0, 8, 2, 15, 0]<br/>class = E>, fillcolor="#92f1ba"] ;
348 -> 349 ;
350 [label=<Exploitation &le; 0.749<br/>gini = 0.48<br/>samples = 221<br/>value = [24, 0, 0, 3, 156, 0, 13, 0, 8, 2, 15, 0]<br/>class = E>, fillcolor="#7aeeab"] ;
349 -> 350 ;
351 [label=<Row Number &le; -0.006<br/>gini = 0.345<br/>samples = 177<br/>value = [7, 0, 0, 3, 142, 0, 0, 0, 8, 2, 15, 0]<br/>class = E>, fillcolor="#64eb9c"] ;
350 -> 351 ;
352 [label=<Lower Margin &le; -1.548<br/>gini = 0.595<br/>samples = 17<br/>value = [2, 0, 0, 0, 0, 0, 0, 0, 8, 0, 7, 0]<br/>class = I>, fillcolor="#f2ebfc"] ;
351 -> 352 ;
353 [label=<Exploitation &le; 0.176<br/>gini = 0.346<br/>samples = 9<br/>value = [2, 0, 0, 0, 0, 0, 0, 0, 0, 0, 7, 0]<br/>class = X>, fillcolor="#ec72b9"] ;
352 -> 353 ;
354 [label=<gini = 0.0<br/>samples = 2<br/>value = [2, 0, 0, 0, 0, 0, 0, 0, 0, 0, 0, 0]<br/>class = A>, fillcolor="#e58139"] ;
353 -> 354 ;
355 [label=<gini = 0.0<br/>samples = 7<br/>value = [0, 0, 0, 0, 0, 0, 0, 0, 0, 0, 7, 0]<br/>class = X>, fillcolor="#e5399d"] ;
353 -> 355 ;
356 [label=<gini = 0.0<br/>samples = 8<br/>value = [0, 0, 0, 0, 0, 0, 0, 0, 8, 0, 0, 0]<br/>class = I>, fillcolor="#8139e5"] ;
352 -> 356 ;
357 [label=<Intercolumnar Distance &le; -0.641<br/>gini = 0.208<br/>samples = 160<br/>value = [5, 0, 0, 3, 142, 0, 0, 0, 0, 2, 8, 0]<br/>class = E>, fillcolor="#50e890"] ;
351 -> 357 ;
358 [label=<gini = 0.0<br/>samples = 2<br/>value = [0, 0, 0, 0, 0, 0, 0, 0, 0, 2, 0, 0]<br/>class = W>, fillcolor="#d739e5"] ;
357 -> 358 ;
359 [label=<Interlinear Spacing &le; -0.742<br/>gini = 0.188<br/>samples = 158<br/>value = [5, 0, 0, 3, 142, 0, 0, 0, 0, 0, 8, 0]<br/>class = E>, fillcolor="#4ee88e"] ;
357 -> 359 ;
360 [label=<Modular Ratio/Interlinear Spacing &le; -0.637<br/>gini = 0.49<br/>samples = 7<br/>value = [0, 0, 0, 0, 3, 0, 0, 0, 0, 0, 4, 0]<br/>class = X>, fillcolor="#f8cee6"] ;
359 -> 360 ;
361 [label=<gini = 0.0<br/>samples = 3<br/>value = [0, 0, 0, 0, 3, 0, 0, 0, 0, 0, 0, 0]<br/>class = E>, fillcolor="#39e581"] ;
360 -> 361 ;
362 [label=<gini = 0.0<br/>samples = 4<br/>value = [0, 0, 0, 0, 0, 0, 0, 0, 0, 0, 4, 0]<br/>class = X>, fillcolor="#e5399d"] ;
360 -> 362 ;
363 [label=<Peak Number &le; 0.547<br/>gini = 0.15<br/>samples = 151<br/>value = [5, 0, 0, 3, 139, 0, 0, 0, 0, 0, 4, 0]<br/>class = E>, fillcolor="#49e78b"] ;
359 -> 363 ;
364 [label=<Exploitation &le; 0.384<br/>gini = 0.46<br/>samples = 20<br/>value = [4, 0, 0, 2, 14, 0, 0, 0, 0, 0, 0, 0]<br/>class = E>, fillcolor="#83efb0"] ;
363 -> 364 ;
365 [label=<Row Number &le; 0.128<br/>gini = 0.245<br/>samples = 14<br/>value = [0, 0, 0, 2, 12, 0, 0, 0, 0, 0, 0, 0]<br/>class = E>, fillcolor="#5ae996"] ;
364 -> 365 ;
366 [label=<gini = 0.0<br/>samples = 2<br/>value = [0, 0, 0, 2, 0, 0, 0, 0, 0, 0, 0, 0]<br/>class = D>, fillcolor="#47e539"] ;
365 -> 366 ;
367 [label=<gini = 0.0<br/>samples = 12<br/>value = [0, 0, 0, 0, 12, 0, 0, 0, 0, 0, 0, 0]<br/>class = E>, fillcolor="#39e581"] ;
365 -> 367 ;
368 [label=<Intercolumnar Distance &le; -0.302<br/>gini = 0.444<br/>samples = 6<br/>value = [4, 0, 0, 0, 2, 0, 0, 0, 0, 0, 0, 0]<br/>class = A>, fillcolor="#f2c09c"] ;
364 -> 368 ;
369 [label=<gini = 0.0<br/>samples = 4<br/>value = [4, 0, 0, 0, 0, 0, 0, 0, 0, 0, 0, 0]<br/>class = A>, fillcolor="#e58139"] ;
368 -> 369 ;
370 [label=<gini = 0.0<br/>samples = 2<br/>value = [0, 0, 0, 0, 2, 0, 0, 0, 0, 0, 0, 0]<br/>class = E>, fillcolor="#39e581"] ;
368 -> 370 ;
371 [label=<Row Number &le; 0.306<br/>gini = 0.088<br/>samples = 131<br/>value = [1, 0, 0, 1, 125, 0, 0, 0, 0, 0, 4, 0]<br/>class = E>, fillcolor="#42e687"] ;
363 -> 371 ;
372 [label=<Interlinear Spacing &le; 0.768<br/>gini = 0.035<br/>samples = 112<br/>value = [1, 0, 0, 1, 110, 0, 0, 0, 0, 0, 0, 0]<br/>class = E>, fillcolor="#3de583"] ;
371 -> 372 ;
373 [label=<Intercolumnar Distance &le; -0.302<br/>gini = 0.019<br/>samples = 103<br/>value = [1, 0, 0, 0, 102, 0, 0, 0, 0, 0, 0, 0]<br/>class = E>, fillcolor="#3be582"] ;
372 -> 373 ;
374 [label=<Lower Margin &le; -0.826<br/>gini = 0.061<br/>samples = 32<br/>value = [1, 0, 0, 0, 31, 0, 0, 0, 0, 0, 0, 0]<br/>class = E>, fillcolor="#3fe685"] ;
373 -> 374 ;
375 [label=<gini = 0.0<br/>samples = 31<br/>value = [0, 0, 0, 0, 31, 0, 0, 0, 0, 0, 0, 0]<br/>class = E>, fillcolor="#39e581"] ;
374 -> 375 ;
376 [label=<gini = 0.0<br/>samples = 1<br/>value = [1, 0, 0, 0, 0, 0, 0, 0, 0, 0, 0, 0]<br/>class = A>, fillcolor="#e58139"] ;
374 -> 376 ;
377 [label=<gini = 0.0<br/>samples = 71<br/>value = [0, 0, 0, 0, 71, 0, 0, 0, 0, 0, 0, 0]<br/>class = E>, fillcolor="#39e581"] ;
373 -> 377 ;
378 [label=<Intercolumnar Distance &le; -0.209<br/>gini = 0.198<br/>samples = 9<br/>value = [0, 0, 0, 1, 8, 0, 0, 0, 0, 0, 0, 0]<br/>class = E>, fillcolor="#52e891"] ;
372 -> 378 ;
379 [label=<gini = 0.0<br/>samples = 8<br/>value = [0, 0, 0, 0, 8, 0, 0, 0, 0, 0, 0, 0]<br/>class = E>, fillcolor="#39e581"] ;
378 -> 379 ;
380 [label=<gini = 0.0<br/>samples = 1<br/>value = [0, 0, 0, 1, 0, 0, 0, 0, 0, 0, 0, 0]<br/>class = D>, fillcolor="#47e539"] ;
378 -> 380 ;
381 [label=<Lower Margin &le; -2.627<br/>gini = 0.332<br/>samples = 19<br/>value = [0, 0, 0, 0, 15, 0, 0, 0, 0, 0, 4, 0]<br/>class = E>, fillcolor="#6eeca3"] ;
371 -> 381 ;
382 [label=<gini = 0.0<br/>samples = 15<br/>value = [0, 0, 0, 0, 15, 0, 0, 0, 0, 0, 0, 0]<br/>class = E>, fillcolor="#39e581"] ;
381 -> 382 ;
383 [label=<gini = 0.0<br/>samples = 4<br/>value = [0, 0, 0, 0, 0, 0, 0, 0, 0, 0, 4, 0]<br/>class = X>, fillcolor="#e5399d"] ;
381 -> 383 ;
384 [label=<Intercolumnar Distance &le; -0.289<br/>gini = 0.662<br/>samples = 44<br/>value = [17, 0, 0, 0, 14, 0, 13, 0, 0, 0, 0, 0]<br/>class = A>, fillcolor="#fcf2eb"] ;
350 -> 384 ;
385 [label=<Exploitation &le; 0.906<br/>gini = 0.499<br/>samples = 27<br/>value = [0, 0, 0, 0, 14, 0, 13, 0, 0, 0, 0, 0]<br/>class = E>, fillcolor="#f1fdf6"] ;
384 -> 385 ;
386 [label=<gini = 0.0<br/>samples = 13<br/>value = [0, 0, 0, 0, 0, 0, 13, 0, 0, 0, 0, 0]<br/>class = G>, fillcolor="#399de5"] ;
385 -> 386 ;
387 [label=<gini = 0.0<br/>samples = 14<br/>value = [0, 0, 0, 0, 14, 0, 0, 0, 0, 0, 0, 0]<br/>class = E>, fillcolor="#39e581"] ;
385 -> 387 ;
388 [label=<gini = 0.0<br/>samples = 17<br/>value = [17, 0, 0, 0, 0, 0, 0, 0, 0, 0, 0, 0]<br/>class = A>, fillcolor="#e58139"] ;
384 -> 388 ;
389 [label=<Exploitation &le; 0.222<br/>gini = 0.58<br/>samples = 32<br/>value = [14, 0, 0, 0, 0, 3, 15, 0, 0, 0, 0, 0]<br/>class = G>, fillcolor="#f4fafe"] ;
349 -> 389 ;
390 [label=<gini = 0.0<br/>samples = 15<br/>value = [0, 0, 0, 0, 0, 0, 15, 0, 0, 0, 0, 0]<br/>class = G>, fillcolor="#399de5"] ;
389 -> 390 ;
391 [label=<Exploitation &le; 0.494<br/>gini = 0.291<br/>samples = 17<br/>value = [14, 0, 0, 0, 0, 3, 0, 0, 0, 0, 0, 0]<br/>class = A>, fillcolor="#eb9c63"] ;
389 -> 391 ;
392 [label=<gini = 0.0<br/>samples = 14<br/>value = [14, 0, 0, 0, 0, 0, 0, 0, 0, 0, 0, 0]<br/>class = A>, fillcolor="#e58139"] ;
391 -> 392 ;
393 [label=<gini = 0.0<br/>samples = 3<br/>value = [0, 0, 0, 0, 0, 3, 0, 0, 0, 0, 0, 0]<br/>class = F>, fillcolor="#39e5d7"] ;
391 -> 393 ;
394 [label=<Lower Margin &le; 0.588<br/>gini = 0.202<br/>samples = 687<br/>value = [4, 0, 11, 58, 611, 0, 0, 0, 0, 0, 3, 0]<br/>class = E>, fillcolor="#51e890"] ;
348 -> 394 ;
395 [label=<Row Number &le; 0.217<br/>gini = 0.176<br/>samples = 676<br/>value = [4, 0, 0, 58, 611, 0, 0, 0, 0, 0, 3, 0]<br/>class = E>, fillcolor="#4ee88e"] ;
394 -> 395 ;
396 [label=<Peak Number &le; 0.672<br/>gini = 0.356<br/>samples = 280<br/>value = [2, 0, 0, 58, 217, 0, 0, 0, 0, 0, 3, 0]<br/>class = E>, fillcolor="#71eca5"] ;
395 -> 396 ;
397 [label=<Lower Margin &le; 0.385<br/>gini = 0.52<br/>samples = 117<br/>value = [2, 0, 0, 47, 66, 0, 0, 0, 0, 0, 2, 0]<br/>class = E>, fillcolor="#c9f8dd"] ;
396 -> 397 ;
398 [label=<Intercolumnar Distance &le; -0.721<br/>gini = 0.273<br/>samples = 45<br/>value = [0, 0, 0, 5, 38, 0, 0, 0, 0, 0, 2, 0]<br/>class = E>, fillcolor="#5cea97"] ;
397 -> 398 ;
399 [label=<Row Number &le; -2.375<br/>gini = 0.5<br/>samples = 10<br/>value = [0, 0, 0, 5, 5, 0, 0, 0, 0, 0, 0, 0]<br/>class = D>, fillcolor="#ffffff"] ;
398 -> 399 ;
400 [label=<gini = 0.0<br/>samples = 5<br/>value = [0, 0, 0, 0, 5, 0, 0, 0, 0, 0, 0, 0]<br/>class = E>, fillcolor="#39e581"] ;
399 -> 400 ;
401 [label=<gini = 0.0<br/>samples = 5<br/>value = [0, 0, 0, 5, 0, 0, 0, 0, 0, 0, 0, 0]<br/>class = D>, fillcolor="#47e539"] ;
399 -> 401 ;
402 [label=<Modular Ratio &le; 1.249<br/>gini = 0.108<br/>samples = 35<br/>value = [0, 0, 0, 0, 33, 0, 0, 0, 0, 0, 2, 0]<br/>class = E>, fillcolor="#45e789"] ;
398 -> 402 ;
403 [label=<gini = 0.0<br/>samples = 32<br/>value = [0, 0, 0, 0, 32, 0, 0, 0, 0, 0, 0, 0]<br/>class = E>, fillcolor="#39e581"] ;
402 -> 403 ;
404 [label=<Exploitation &le; 0.794<br/>gini = 0.444<br/>samples = 3<br/>value = [0, 0, 0, 0, 1, 0, 0, 0, 0, 0, 2, 0]<br/>class = X>, fillcolor="#f29cce"] ;
402 -> 404 ;
405 [label=<gini = 0.0<br/>samples = 2<br/>value = [0, 0, 0, 0, 0, 0, 0, 0, 0, 0, 2, 0]<br/>class = X>, fillcolor="#e5399d"] ;
404 -> 405 ;
406 [label=<gini = 0.0<br/>samples = 1<br/>value = [0, 0, 0, 0, 1, 0, 0, 0, 0, 0, 0, 0]<br/>class = E>, fillcolor="#39e581"] ;
404 -> 406 ;
407 [label=<Lower Margin &le; 0.454<br/>gini = 0.508<br/>samples = 72<br/>value = [2, 0, 0, 42, 28, 0, 0, 0, 0, 0, 0, 0]<br/>class = D>, fillcolor="#c4f7c0"] ;
397 -> 407 ;
408 [label=<Intercolumnar Distance &le; -0.376<br/>gini = 0.39<br/>samples = 56<br/>value = [2, 0, 0, 42, 12, 0, 0, 0, 0, 0, 0, 0]<br/>class = D>, fillcolor="#82ed78"] ;
407 -> 408 ;
409 [label=<gini = 0.0<br/>samples = 7<br/>value = [0, 0, 0, 0, 7, 0, 0, 0, 0, 0, 0, 0]<br/>class = E>, fillcolor="#39e581"] ;
408 -> 409 ;
410 [label=<Upper Margin &le; -0.225<br/>gini = 0.253<br/>samples = 49<br/>value = [2, 0, 0, 42, 5, 0, 0, 0, 0, 0, 0, 0]<br/>class = D>, fillcolor="#64e959"] ;
408 -> 410 ;
411 [label=<Modular Ratio/Interlinear Spacing &le; 0.68<br/>gini = 0.48<br/>samples = 5<br/>value = [2, 0, 0, 0, 3, 0, 0, 0, 0, 0, 0, 0]<br/>class = E>, fillcolor="#bdf6d5"] ;
410 -> 411 ;
412 [label=<gini = 0.0<br/>samples = 3<br/>value = [0, 0, 0, 0, 3, 0, 0, 0, 0, 0, 0, 0]<br/>class = E>, fillcolor="#39e581"] ;
411 -> 412 ;
413 [label=<gini = 0.0<br/>samples = 2<br/>value = [2, 0, 0, 0, 0, 0, 0, 0, 0, 0, 0, 0]<br/>class = A>, fillcolor="#e58139"] ;
411 -> 413 ;
414 [label=<Exploitation &le; -0.042<br/>gini = 0.087<br/>samples = 44<br/>value = [0, 0, 0, 42, 2, 0, 0, 0, 0, 0, 0, 0]<br/>class = D>, fillcolor="#50e642"] ;
410 -> 414 ;
415 [label=<gini = 0.0<br/>samples = 2<br/>value = [0, 0, 0, 0, 2, 0, 0, 0, 0, 0, 0, 0]<br/>class = E>, fillcolor="#39e581"] ;
414 -> 415 ;
416 [label=<gini = 0.0<br/>samples = 42<br/>value = [0, 0, 0, 42, 0, 0, 0, 0, 0, 0, 0, 0]<br/>class = D>, fillcolor="#47e539"] ;
414 -> 416 ;
417 [label=<gini = 0.0<br/>samples = 16<br/>value = [0, 0, 0, 0, 16, 0, 0, 0, 0, 0, 0, 0]<br/>class = E>, fillcolor="#39e581"] ;
407 -> 417 ;
418 [label=<Modular Ratio &le; -1.325<br/>gini = 0.137<br/>samples = 163<br/>value = [0, 0, 0, 11, 151, 0, 0, 0, 0, 0, 1, 0]<br/>class = E>, fillcolor="#49e78b"] ;
396 -> 418 ;
419 [label=<gini = 0.0<br/>samples = 1<br/>value = [0, 0, 0, 1, 0, 0, 0, 0, 0, 0, 0, 0]<br/>class = D>, fillcolor="#47e539"] ;
418 -> 419 ;
420 [label=<Lower Margin &le; 0.385<br/>gini = 0.127<br/>samples = 162<br/>value = [0, 0, 0, 10, 151, 0, 0, 0, 0, 0, 1, 0]<br/>class = E>, fillcolor="#47e78a"] ;
418 -> 420 ;
421 [label=<Modular Ratio/Interlinear Spacing &le; 1.337<br/>gini = 0.04<br/>samples = 98<br/>value = [0, 0, 0, 1, 96, 0, 0, 0, 0, 0, 1, 0]<br/>class = E>, fillcolor="#3de684"] ;
420 -> 421 ;
422 [label=<Intercolumnar Distance &le; -0.721<br/>gini = 0.021<br/>samples = 96<br/>value = [0, 0, 0, 1, 95, 0, 0, 0, 0, 0, 0, 0]<br/>class = E>, fillcolor="#3be582"] ;
421 -> 422 ;
423 [label=<Row Number &le; -2.375<br/>gini = 0.278<br/>samples = 6<br/>value = [0, 0, 0, 1, 5, 0, 0, 0, 0, 0, 0, 0]<br/>class = E>, fillcolor="#61ea9a"] ;
422 -> 423 ;
424 [label=<gini = 0.0<br/>samples = 5<br/>value = [0, 0, 0, 0, 5, 0, 0, 0, 0, 0, 0, 0]<br/>class = E>, fillcolor="#39e581"] ;
423 -> 424 ;
425 [label=<gini = 0.0<br/>samples = 1<br/>value = [0, 0, 0, 1, 0, 0, 0, 0, 0, 0, 0, 0]<br/>class = D>, fillcolor="#47e539"] ;
423 -> 425 ;
426 [label=<gini = 0.0<br/>samples = 90<br/>value = [0, 0, 0, 0, 90, 0, 0, 0, 0, 0, 0, 0]<br/>class = E>, fillcolor="#39e581"] ;
422 -> 426 ;
427 [label=<Modular Ratio &le; 1.187<br/>gini = 0.5<br/>samples = 2<br/>value = [0, 0, 0, 0, 1, 0, 0, 0, 0, 0, 1, 0]<br/>class = E>, fillcolor="#ffffff"] ;
421 -> 427 ;
428 [label=<gini = 0.0<br/>samples = 1<br/>value = [0, 0, 0, 0, 1, 0, 0, 0, 0, 0, 0, 0]<br/>class = E>, fillcolor="#39e581"] ;
427 -> 428 ;
429 [label=<gini = 0.0<br/>samples = 1<br/>value = [0, 0, 0, 0, 0, 0, 0, 0, 0, 0, 1, 0]<br/>class = X>, fillcolor="#e5399d"] ;
427 -> 429 ;
430 [label=<Exploitation &le; 0.755<br/>gini = 0.242<br/>samples = 64<br/>value = [0, 0, 0, 9, 55, 0, 0, 0, 0, 0, 0, 0]<br/>class = E>, fillcolor="#59e996"] ;
420 -> 430 ;
431 [label=<Weight &le; 0.188<br/>gini = 0.153<br/>samples = 60<br/>value = [0, 0, 0, 5, 55, 0, 0, 0, 0, 0, 0, 0]<br/>class = E>, fillcolor="#4be78c"] ;
430 -> 431 ;
432 [label=<Intercolumnar Distance &le; -0.265<br/>gini = 0.444<br/>samples = 3<br/>value = [0, 0, 0, 2, 1, 0, 0, 0, 0, 0, 0, 0]<br/>class = D>, fillcolor="#a3f29c"] ;
431 -> 432 ;
433 [label=<gini = 0.0<br/>samples = 2<br/>value = [0, 0, 0, 2, 0, 0, 0, 0, 0, 0, 0, 0]<br/>class = D>, fillcolor="#47e539"] ;
432 -> 433 ;
434 [label=<gini = 0.0<br/>samples = 1<br/>value = [0, 0, 0, 0, 1, 0, 0, 0, 0, 0, 0, 0]<br/>class = E>, fillcolor="#39e581"] ;
432 -> 434 ;
435 [label=<Peak Number &le; 0.828<br/>gini = 0.1<br/>samples = 57<br/>value = [0, 0, 0, 3, 54, 0, 0, 0, 0, 0, 0, 0]<br/>class = E>, fillcolor="#44e688"] ;
431 -> 435 ;
436 [label=<Modular Ratio/Interlinear Spacing &le; -0.723<br/>gini = 0.291<br/>samples = 17<br/>value = [0, 0, 0, 3, 14, 0, 0, 0, 0, 0, 0, 0]<br/>class = E>, fillcolor="#63eb9c"] ;
435 -> 436 ;
437 [label=<Upper Margin &le; 0.392<br/>gini = 0.49<br/>samples = 7<br/>value = [0, 0, 0, 3, 4, 0, 0, 0, 0, 0, 0, 0]<br/>class = E>, fillcolor="#cef8e0"] ;
436 -> 437 ;
438 [label=<Upper Margin &le; -0.048<br/>gini = 0.375<br/>samples = 4<br/>value = [0, 0, 0, 3, 1, 0, 0, 0, 0, 0, 0, 0]<br/>class = D>, fillcolor="#84ee7b"] ;
437 -> 438 ;
439 [label=<gini = 0.0<br/>samples = 1<br/>value = [0, 0, 0, 0, 1, 0, 0, 0, 0, 0, 0, 0]<br/>class = E>, fillcolor="#39e581"] ;
438 -> 439 ;
440 [label=<gini = 0.0<br/>samples = 3<br/>value = [0, 0, 0, 3, 0, 0, 0, 0, 0, 0, 0, 0]<br/>class = D>, fillcolor="#47e539"] ;
438 -> 440 ;
441 [label=<gini = 0.0<br/>samples = 3<br/>value = [0, 0, 0, 0, 3, 0, 0, 0, 0, 0, 0, 0]<br/>class = E>, fillcolor="#39e581"] ;
437 -> 441 ;
442 [label=<gini = 0.0<br/>samples = 10<br/>value = [0, 0, 0, 0, 10, 0, 0, 0, 0, 0, 0, 0]<br/>class = E>, fillcolor="#39e581"] ;
436 -> 442 ;
443 [label=<gini = 0.0<br/>samples = 40<br/>value = [0, 0, 0, 0, 40, 0, 0, 0, 0, 0, 0, 0]<br/>class = E>, fillcolor="#39e581"] ;
435 -> 443 ;
444 [label=<gini = 0.0<br/>samples = 4<br/>value = [0, 0, 0, 4, 0, 0, 0, 0, 0, 0, 0, 0]<br/>class = D>, fillcolor="#47e539"] ;
430 -> 444 ;
445 [label=<Modular Ratio &le; 1.706<br/>gini = 0.01<br/>samples = 396<br/>value = [2, 0, 0, 0, 394, 0, 0, 0, 0, 0, 0, 0]<br/>class = E>, fillcolor="#3ae582"] ;
395 -> 445 ;
446 [label=<Peak Number &le; 0.485<br/>gini = 0.005<br/>samples = 392<br/>value = [1, 0, 0, 0, 391, 0, 0, 0, 0, 0, 0, 0]<br/>class = E>, fillcolor="#3ae581"] ;
445 -> 446 ;
447 [label=<Interlinear Spacing &le; -0.006<br/>gini = 0.059<br/>samples = 33<br/>value = [1, 0, 0, 0, 32, 0, 0, 0, 0, 0, 0, 0]<br/>class = E>, fillcolor="#3fe685"] ;
446 -> 447 ;
448 [label=<Weight &le; 0.338<br/>gini = 0.32<br/>samples = 5<br/>value = [1, 0, 0, 0, 4, 0, 0, 0, 0, 0, 0, 0]<br/>class = E>, fillcolor="#6aeca0"] ;
447 -> 448 ;
449 [label=<gini = 0.0<br/>samples = 4<br/>value = [0, 0, 0, 0, 4, 0, 0, 0, 0, 0, 0, 0]<br/>class = E>, fillcolor="#39e581"] ;
448 -> 449 ;
450 [label=<gini = 0.0<br/>samples = 1<br/>value = [1, 0, 0, 0, 0, 0, 0, 0, 0, 0, 0, 0]<br/>class = A>, fillcolor="#e58139"] ;
448 -> 450 ;
451 [label=<gini = 0.0<br/>samples = 28<br/>value = [0, 0, 0, 0, 28, 0, 0, 0, 0, 0, 0, 0]<br/>class = E>, fillcolor="#39e581"] ;
447 -> 451 ;
452 [label=<gini = 0.0<br/>samples = 359<br/>value = [0, 0, 0, 0, 359, 0, 0, 0, 0, 0, 0, 0]<br/>class = E>, fillcolor="#39e581"] ;
446 -> 452 ;
453 [label=<Intercolumnar Distance &le; -0.283<br/>gini = 0.375<br/>samples = 4<br/>value = [1, 0, 0, 0, 3, 0, 0, 0, 0, 0, 0, 0]<br/>class = E>, fillcolor="#7beeab"] ;
445 -> 453 ;
454 [label=<gini = 0.0<br/>samples = 3<br/>value = [0, 0, 0, 0, 3, 0, 0, 0, 0, 0, 0, 0]<br/>class = E>, fillcolor="#39e581"] ;
453 -> 454 ;
455 [label=<gini = 0.0<br/>samples = 1<br/>value = [1, 0, 0, 0, 0, 0, 0, 0, 0, 0, 0, 0]<br/>class = A>, fillcolor="#e58139"] ;
453 -> 455 ;
456 [label=<gini = 0.0<br/>samples = 11<br/>value = [0, 0, 11, 0, 0, 0, 0, 0, 0, 0, 0, 0]<br/>class = C>, fillcolor="#9de539"] ;
394 -> 456 ;
457 [label=<Exploitation &le; 1.654<br/>gini = 0.659<br/>samples = 184<br/>value = [16, 0, 0, 0, 64, 0, 0, 0, 5, 6, 84, 9]<br/>class = X>, fillcolor="#fbdeef"] ;
319 -> 457 ;
458 [label=<Lower Margin &le; 0.261<br/>gini = 0.667<br/>samples = 136<br/>value = [16, 0, 0, 0, 64, 0, 0, 0, 0, 6, 41, 9]<br/>class = E>, fillcolor="#cff9e0"] ;
457 -> 458 ;
459 [label=<Peak Number &le; 0.937<br/>gini = 0.607<br/>samples = 41<br/>value = [15, 0, 0, 0, 0, 0, 0, 0, 0, 6, 20, 0]<br/>class = X>, fillcolor="#fad9ec"] ;
458 -> 459 ;
460 [label=<Intercolumnar Distance &le; -0.314<br/>gini = 0.605<br/>samples = 28<br/>value = [15, 0, 0, 0, 0, 0, 0, 0, 0, 6, 7, 0]<br/>class = A>, fillcolor="#f5cfb4"] ;
459 -> 460 ;
461 [label=<Row Number &le; -2.464<br/>gini = 0.496<br/>samples = 11<br/>value = [0, 0, 0, 0, 0, 0, 0, 0, 0, 6, 5, 0]<br/>class = W>, fillcolor="#f8defb"] ;
460 -> 461 ;
462 [label=<gini = 0.0<br/>samples = 6<br/>value = [0, 0, 0, 0, 0, 0, 0, 0, 0, 6, 0, 0]<br/>class = W>, fillcolor="#d739e5"] ;
461 -> 462 ;
463 [label=<gini = 0.0<br/>samples = 5<br/>value = [0, 0, 0, 0, 0, 0, 0, 0, 0, 0, 5, 0]<br/>class = X>, fillcolor="#e5399d"] ;
461 -> 463 ;
464 [label=<Modular Ratio &le; 1.436<br/>gini = 0.208<br/>samples = 17<br/>value = [15, 0, 0, 0, 0, 0, 0, 0, 0, 0, 2, 0]<br/>class = A>, fillcolor="#e89253"] ;
460 -> 464 ;
465 [label=<gini = 0.0<br/>samples = 15<br/>value = [15, 0, 0, 0, 0, 0, 0, 0, 0, 0, 0, 0]<br/>class = A>, fillcolor="#e58139"] ;
464 -> 465 ;
466 [label=<gini = 0.0<br/>samples = 2<br/>value = [0, 0, 0, 0, 0, 0, 0, 0, 0, 0, 2, 0]<br/>class = X>, fillcolor="#e5399d"] ;
464 -> 466 ;
467 [label=<gini = 0.0<br/>samples = 13<br/>value = [0, 0, 0, 0, 0, 0, 0, 0, 0, 0, 13, 0]<br/>class = X>, fillcolor="#e5399d"] ;
459 -> 467 ;
468 [label=<Row Number &le; 0.217<br/>gini = 0.488<br/>samples = 95<br/>value = [1, 0, 0, 0, 64, 0, 0, 0, 0, 0, 21, 9]<br/>class = E>, fillcolor="#8cf0b6"] ;
458 -> 468 ;
469 [label=<Intercolumnar Distance &le; -0.363<br/>gini = 0.632<br/>samples = 49<br/>value = [0, 0, 0, 0, 19, 0, 0, 0, 0, 0, 21, 9]<br/>class = X>, fillcolor="#fdf2f8"] ;
468 -> 469 ;
470 [label=<Row Number &le; -0.409<br/>gini = 0.436<br/>samples = 28<br/>value = [0, 0, 0, 0, 19, 0, 0, 0, 0, 0, 0, 9]<br/>class = E>, fillcolor="#97f1bd"] ;
469 -> 470 ;
471 [label=<gini = 0.0<br/>samples = 19<br/>value = [0, 0, 0, 0, 19, 0, 0, 0, 0, 0, 0, 0]<br/>class = E>, fillcolor="#39e581"] ;
470 -> 471 ;
472 [label=<gini = 0.0<br/>samples = 9<br/>value = [0, 0, 0, 0, 0, 0, 0, 0, 0, 0, 0, 9]<br/>class = Y>, fillcolor="#e53947"] ;
470 -> 472 ;
473 [label=<gini = 0.0<br/>samples = 21<br/>value = [0, 0, 0, 0, 0, 0, 0, 0, 0, 0, 21, 0]<br/>class = X>, fillcolor="#e5399d"] ;
469 -> 473 ;
474 [label=<Upper Margin &le; -0.17<br/>gini = 0.043<br/>samples = 46<br/>value = [1, 0, 0, 0, 45, 0, 0, 0, 0, 0, 0, 0]<br/>class = E>, fillcolor="#3de684"] ;
468 -> 474 ;
475 [label=<gini = 0.0<br/>samples = 1<br/>value = [1, 0, 0, 0, 0, 0, 0, 0, 0, 0, 0, 0]<br/>class = A>, fillcolor="#e58139"] ;
474 -> 475 ;
476 [label=<gini = 0.0<br/>samples = 45<br/>value = [0, 0, 0, 0, 45, 0, 0, 0, 0, 0, 0, 0]<br/>class = E>, fillcolor="#39e581"] ;
474 -> 476 ;
477 [label=<Intercolumnar Distance &le; -2.19<br/>gini = 0.187<br/>samples = 48<br/>value = [0, 0, 0, 0, 0, 0, 0, 0, 5, 0, 43, 0]<br/>class = X>, fillcolor="#e850a8"] ;
457 -> 477 ;
478 [label=<gini = 0.0<br/>samples = 5<br/>value = [0, 0, 0, 0, 0, 0, 0, 0, 5, 0, 0, 0]<br/>class = I>, fillcolor="#8139e5"] ;
477 -> 478 ;
479 [label=<gini = 0.0<br/>samples = 43<br/>value = [0, 0, 0, 0, 0, 0, 0, 0, 0, 0, 43, 0]<br/>class = X>, fillcolor="#e5399d"] ;
477 -> 479 ;
480 [label=<Upper Margin &le; 0.404<br/>gini = 0.821<br/>samples = 398<br/>value = [53, 6, 7, 18, 117, 19, 37, 87, 0, 8, 46, 0]<br/>class = E>, fillcolor="#ecfcf3"] ;
318 -> 480 ;
481 [label=<Upper Margin &le; 0.046<br/>gini = 0.785<br/>samples = 354<br/>value = [53, 0, 7, 18, 117, 18, 0, 87, 0, 8, 46, 0]<br/>class = E>, fillcolor="#e9fcf1"] ;
480 -> 481 ;
482 [label=<Exploitation &le; 0.033<br/>gini = 0.753<br/>samples = 174<br/>value = [45, 0, 7, 9, 60, 14, 0, 0, 0, 0, 39, 0]<br/>class = E>, fillcolor="#e8fcf0"] ;
481 -> 482 ;
483 [label=<Upper Margin &le; -0.747<br/>gini = 0.602<br/>samples = 104<br/>value = [5, 0, 7, 7, 60, 1, 0, 0, 0, 0, 24, 0]<br/>class = E>, fillcolor="#a6f3c6"] ;
482 -> 483 ;
484 [label=<Exploitation &le; -0.745<br/>gini = 0.198<br/>samples = 27<br/>value = [0, 0, 0, 3, 0, 0, 0, 0, 0, 0, 24, 0]<br/>class = X>, fillcolor="#e852a9"] ;
483 -> 484 ;
485 [label=<gini = 0.0<br/>samples = 24<br/>value = [0, 0, 0, 0, 0, 0, 0, 0, 0, 0, 24, 0]<br/>class = X>, fillcolor="#e5399d"] ;
484 -> 485 ;
486 [label=<gini = 0.0<br/>samples = 3<br/>value = [0, 0, 0, 3, 0, 0, 0, 0, 0, 0, 0, 0]<br/>class = D>, fillcolor="#47e539"] ;
484 -> 486 ;
487 [label=<Lower Margin &le; 0.55<br/>gini = 0.377<br/>samples = 77<br/>value = [5, 0, 7, 4, 60, 1, 0, 0, 0, 0, 0, 0]<br/>class = E>, fillcolor="#69eba0"] ;
483 -> 487 ;
488 [label=<Lower Margin &le; -1.619<br/>gini = 0.257<br/>samples = 70<br/>value = [5, 0, 0, 4, 60, 1, 0, 0, 0, 0, 0, 0]<br/>class = E>, fillcolor="#57e994"] ;
487 -> 488 ;
489 [label=<Exploitation &le; -0.622<br/>gini = 0.494<br/>samples = 9<br/>value = [5, 0, 0, 4, 0, 0, 0, 0, 0, 0, 0, 0]<br/>class = A>, fillcolor="#fae6d7"] ;
488 -> 489 ;
490 [label=<gini = 0.0<br/>samples = 4<br/>value = [0, 0, 0, 4, 0, 0, 0, 0, 0, 0, 0, 0]<br/>class = D>, fillcolor="#47e539"] ;
489 -> 490 ;
491 [label=<gini = 0.0<br/>samples = 5<br/>value = [5, 0, 0, 0, 0, 0, 0, 0, 0, 0, 0, 0]<br/>class = A>, fillcolor="#e58139"] ;
489 -> 491 ;
492 [label=<Row Number &le; -0.453<br/>gini = 0.032<br/>samples = 61<br/>value = [0, 0, 0, 0, 60, 1, 0, 0, 0, 0, 0, 0]<br/>class = E>, fillcolor="#3ce583"] ;
488 -> 492 ;
493 [label=<gini = 0.0<br/>samples = 1<br/>value = [0, 0, 0, 0, 0, 1, 0, 0, 0, 0, 0, 0]<br/>class = F>, fillcolor="#39e5d7"] ;
492 -> 493 ;
494 [label=<gini = 0.0<br/>samples = 60<br/>value = [0, 0, 0, 0, 60, 0, 0, 0, 0, 0, 0, 0]<br/>class = E>, fillcolor="#39e581"] ;
492 -> 494 ;
495 [label=<gini = 0.0<br/>samples = 7<br/>value = [0, 0, 7, 0, 0, 0, 0, 0, 0, 0, 0, 0]<br/>class = C>, fillcolor="#9de539"] ;
487 -> 495 ;
496 [label=<Intercolumnar Distance &le; -0.11<br/>gini = 0.592<br/>samples = 70<br/>value = [40, 0, 0, 2, 0, 13, 0, 0, 0, 0, 15, 0]<br/>class = A>, fillcolor="#f3c6a5"] ;
482 -> 496 ;
497 [label=<Exploitation &le; 0.801<br/>gini = 0.643<br/>samples = 23<br/>value = [2, 0, 0, 2, 0, 10, 0, 0, 0, 0, 9, 0]<br/>class = F>, fillcolor="#f1fdfc"] ;
496 -> 497 ;
498 [label=<Modular Ratio/Interlinear Spacing &le; -0.927<br/>gini = 0.408<br/>samples = 14<br/>value = [0, 0, 0, 0, 0, 10, 0, 0, 0, 0, 4, 0]<br/>class = F>, fillcolor="#88efe7"] ;
497 -> 498 ;
499 [label=<gini = 0.0<br/>samples = 4<br/>value = [0, 0, 0, 0, 0, 0, 0, 0, 0, 0, 4, 0]<br/>class = X>, fillcolor="#e5399d"] ;
498 -> 499 ;
500 [label=<gini = 0.0<br/>samples = 10<br/>value = [0, 0, 0, 0, 0, 10, 0, 0, 0, 0, 0, 0]<br/>class = F>, fillcolor="#39e5d7"] ;
498 -> 500 ;
501 [label=<Exploitation &le; 1.312<br/>gini = 0.593<br/>samples = 9<br/>value = [2, 0, 0, 2, 0, 0, 0, 0, 0, 0, 5, 0]<br/>class = X>, fillcolor="#f4aad5"] ;
497 -> 501 ;
502 [label=<Upper Margin &le; -0.279<br/>gini = 0.5<br/>samples = 4<br/>value = [2, 0, 0, 2, 0, 0, 0, 0, 0, 0, 0, 0]<br/>class = A>, fillcolor="#ffffff"] ;
501 -> 502 ;
503 [label=<gini = 0.0<br/>samples = 2<br/>value = [0, 0, 0, 2, 0, 0, 0, 0, 0, 0, 0, 0]<br/>class = D>, fillcolor="#47e539"] ;
502 -> 503 ;
504 [label=<gini = 0.0<br/>samples = 2<br/>value = [2, 0, 0, 0, 0, 0, 0, 0, 0, 0, 0, 0]<br/>class = A>, fillcolor="#e58139"] ;
502 -> 504 ;
505 [label=<gini = 0.0<br/>samples = 5<br/>value = [0, 0, 0, 0, 0, 0, 0, 0, 0, 0, 5, 0]<br/>class = X>, fillcolor="#e5399d"] ;
501 -> 505 ;
506 [label=<Upper Margin &le; -0.016<br/>gini = 0.326<br/>samples = 47<br/>value = [38, 0, 0, 0, 0, 3, 0, 0, 0, 0, 6, 0]<br/>class = A>, fillcolor="#eb9d64"] ;
496 -> 506 ;
507 [label=<Modular Ratio &le; -0.557<br/>gini = 0.136<br/>samples = 41<br/>value = [38, 0, 0, 0, 0, 3, 0, 0, 0, 0, 0, 0]<br/>class = A>, fillcolor="#e78b49"] ;
506 -> 507 ;
508 [label=<Intercolumnar Distance &le; -0.086<br/>gini = 0.444<br/>samples = 3<br/>value = [1, 0, 0, 0, 0, 2, 0, 0, 0, 0, 0, 0]<br/>class = F>, fillcolor="#9cf2eb"] ;
507 -> 508 ;
509 [label=<gini = 0.0<br/>samples = 2<br/>value = [0, 0, 0, 0, 0, 2, 0, 0, 0, 0, 0, 0]<br/>class = F>, fillcolor="#39e5d7"] ;
508 -> 509 ;
510 [label=<gini = 0.0<br/>samples = 1<br/>value = [1, 0, 0, 0, 0, 0, 0, 0, 0, 0, 0, 0]<br/>class = A>, fillcolor="#e58139"] ;
508 -> 510 ;
511 [label=<Lower Margin &le; 0.447<br/>gini = 0.051<br/>samples = 38<br/>value = [37, 0, 0, 0, 0, 1, 0, 0, 0, 0, 0, 0]<br/>class = A>, fillcolor="#e6843e"] ;
507 -> 511 ;
512 [label=<gini = 0.0<br/>samples = 37<br/>value = [37, 0, 0, 0, 0, 0, 0, 0, 0, 0, 0, 0]<br/>class = A>, fillcolor="#e58139"] ;
511 -> 512 ;
513 [label=<gini = 0.0<br/>samples = 1<br/>value = [0, 0, 0, 0, 0, 1, 0, 0, 0, 0, 0, 0]<br/>class = F>, fillcolor="#39e5d7"] ;
511 -> 513 ;
514 [label=<gini = 0.0<br/>samples = 6<br/>value = [0, 0, 0, 0, 0, 0, 0, 0, 0, 0, 6, 0]<br/>class = X>, fillcolor="#e5399d"] ;
506 -> 514 ;
515 [label=<Exploitation &le; 0.734<br/>gini = 0.658<br/>samples = 180<br/>value = [8, 0, 0, 9, 57, 4, 0, 87, 0, 8, 7, 0]<br/>class = H>, fillcolor="#cfd2f9"] ;
481 -> 515 ;
516 [label=<Lower Margin &le; 0.325<br/>gini = 0.491<br/>samples = 128<br/>value = [2, 0, 0, 9, 26, 4, 0, 87, 0, 0, 0, 0]<br/>class = H>, fillcolor="#8991ef"] ;
515 -> 516 ;
517 [label=<Lower Margin &le; 0.179<br/>gini = 0.299<br/>samples = 105<br/>value = [2, 0, 0, 0, 12, 4, 0, 87, 0, 0, 0, 0]<br/>class = H>, fillcolor="#5f6bea"] ;
516 -> 517 ;
518 [label=<Upper Margin &le; 0.302<br/>gini = 0.58<br/>samples = 42<br/>value = [2, 0, 0, 0, 12, 4, 0, 24, 0, 0, 0, 0]<br/>class = H>, fillcolor="#b0b5f5"] ;
517 -> 518 ;
519 [label=<Exploitation &le; 0.022<br/>gini = 0.494<br/>samples = 18<br/>value = [2, 0, 0, 0, 12, 4, 0, 0, 0, 0, 0, 0]<br/>class = E>, fillcolor="#8ef0b7"] ;
518 -> 519 ;
520 [label=<gini = 0.0<br/>samples = 12<br/>value = [0, 0, 0, 0, 12, 0, 0, 0, 0, 0, 0, 0]<br/>class = E>, fillcolor="#39e581"] ;
519 -> 520 ;
521 [label=<Intercolumnar Distance &le; -0.086<br/>gini = 0.444<br/>samples = 6<br/>value = [2, 0, 0, 0, 0, 4, 0, 0, 0, 0, 0, 0]<br/>class = F>, fillcolor="#9cf2eb"] ;
519 -> 521 ;
522 [label=<gini = 0.0<br/>samples = 4<br/>value = [0, 0, 0, 0, 0, 4, 0, 0, 0, 0, 0, 0]<br/>class = F>, fillcolor="#39e5d7"] ;
521 -> 522 ;
523 [label=<gini = 0.0<br/>samples = 2<br/>value = [2, 0, 0, 0, 0, 0, 0, 0, 0, 0, 0, 0]<br/>class = A>, fillcolor="#e58139"] ;
521 -> 523 ;
524 [label=<gini = 0.0<br/>samples = 24<br/>value = [0, 0, 0, 0, 0, 0, 0, 24, 0, 0, 0, 0]<br/>class = H>, fillcolor="#3947e5"] ;
518 -> 524 ;
525 [label=<gini = 0.0<br/>samples = 63<br/>value = [0, 0, 0, 0, 0, 0, 0, 63, 0, 0, 0, 0]<br/>class = H>, fillcolor="#3947e5"] ;
517 -> 525 ;
526 [label=<Lower Margin &le; 0.362<br/>gini = 0.476<br/>samples = 23<br/>value = [0, 0, 0, 9, 14, 0, 0, 0, 0, 0, 0, 0]<br/>class = E>, fillcolor="#b8f6d2"] ;
516 -> 526 ;
527 [label=<gini = 0.0<br/>samples = 9<br/>value = [0, 0, 0, 9, 0, 0, 0, 0, 0, 0, 0, 0]<br/>class = D>, fillcolor="#47e539"] ;
526 -> 527 ;
528 [label=<gini = 0.0<br/>samples = 14<br/>value = [0, 0, 0, 0, 14, 0, 0, 0, 0, 0, 0, 0]<br/>class = E>, fillcolor="#39e581"] ;
526 -> 528 ;
529 [label=<Lower Margin &le; 0.426<br/>gini = 0.589<br/>samples = 52<br/>value = [6, 0, 0, 0, 31, 0, 0, 0, 0, 8, 7, 0]<br/>class = E>, fillcolor="#98f1bd"] ;
515 -> 529 ;
530 [label=<Exploitation &le; 0.901<br/>gini = 0.44<br/>samples = 43<br/>value = [5, 0, 0, 0, 31, 0, 0, 0, 0, 0, 7, 0]<br/>class = E>, fillcolor="#7beeab"] ;
529 -> 530 ;
531 [label=<gini = 0.0<br/>samples = 7<br/>value = [0, 0, 0, 0, 0, 0, 0, 0, 0, 0, 7, 0]<br/>class = X>, fillcolor="#e5399d"] ;
530 -> 531 ;
532 [label=<Upper Margin &le; 0.337<br/>gini = 0.239<br/>samples = 36<br/>value = [5, 0, 0, 0, 31, 0, 0, 0, 0, 0, 0, 0]<br/>class = E>, fillcolor="#59e995"] ;
530 -> 532 ;
533 [label=<gini = 0.0<br/>samples = 31<br/>value = [0, 0, 0, 0, 31, 0, 0, 0, 0, 0, 0, 0]<br/>class = E>, fillcolor="#39e581"] ;
532 -> 533 ;
534 [label=<gini = 0.0<br/>samples = 5<br/>value = [5, 0, 0, 0, 0, 0, 0, 0, 0, 0, 0, 0]<br/>class = A>, fillcolor="#e58139"] ;
532 -> 534 ;
535 [label=<Interlinear Spacing &le; -0.025<br/>gini = 0.198<br/>samples = 9<br/>value = [1, 0, 0, 0, 0, 0, 0, 0, 0, 8, 0, 0]<br/>class = W>, fillcolor="#dc52e8"] ;
529 -> 535 ;
536 [label=<gini = 0.0<br/>samples = 1<br/>value = [1, 0, 0, 0, 0, 0, 0, 0, 0, 0, 0, 0]<br/>class = A>, fillcolor="#e58139"] ;
535 -> 536 ;
537 [label=<gini = 0.0<br/>samples = 8<br/>value = [0, 0, 0, 0, 0, 0, 0, 0, 0, 8, 0, 0]<br/>class = W>, fillcolor="#d739e5"] ;
535 -> 537 ;
538 [label=<Upper Margin &le; 0.651<br/>gini = 0.274<br/>samples = 44<br/>value = [0, 6, 0, 0, 0, 1, 37, 0, 0, 0, 0, 0]<br/>class = G>, fillcolor="#5dafea"] ;
480 -> 538 ;
539 [label=<gini = 0.0<br/>samples = 37<br/>value = [0, 0, 0, 0, 0, 0, 37, 0, 0, 0, 0, 0]<br/>class = G>, fillcolor="#399de5"] ;
538 -> 539 ;
540 [label=<Intercolumnar Distance &le; -0.135<br/>gini = 0.245<br/>samples = 7<br/>value = [0, 6, 0, 0, 0, 1, 0, 0, 0, 0, 0, 0]<br/>class = B>, fillcolor="#e9de5a"] ;
538 -> 540 ;
541 [label=<gini = 0.0<br/>samples = 1<br/>value = [0, 0, 0, 0, 0, 1, 0, 0, 0, 0, 0, 0]<br/>class = F>, fillcolor="#39e5d7"] ;
540 -> 541 ;
542 [label=<gini = 0.0<br/>samples = 6<br/>value = [0, 6, 0, 0, 0, 0, 0, 0, 0, 0, 0, 0]<br/>class = B>, fillcolor="#e5d739"] ;
540 -> 542 ;
543 [label=<Intercolumnar Distance &le; -0.345<br/>gini = 0.244<br/>samples = 338<br/>value = [0, 0, 0, 0, 0, 0, 0, 0, 0, 0, 48, 290]<br/>class = Y>, fillcolor="#e95a65"] ;
3 -> 543 ;
544 [label=<gini = 0.0<br/>samples = 22<br/>value = [0, 0, 0, 0, 0, 0, 0, 0, 0, 0, 22, 0]<br/>class = X>, fillcolor="#e5399d"] ;
543 -> 544 ;
545 [label=<Upper Margin &le; -0.817<br/>gini = 0.151<br/>samples = 316<br/>value = [0, 0, 0, 0, 0, 0, 0, 0, 0, 0, 26, 290]<br/>class = Y>, fillcolor="#e74b57"] ;
543 -> 545 ;
546 [label=<gini = 0.0<br/>samples = 9<br/>value = [0, 0, 0, 0, 0, 0, 0, 0, 0, 0, 9, 0]<br/>class = X>, fillcolor="#e5399d"] ;
545 -> 546 ;
547 [label=<Exploitation &le; 0.693<br/>gini = 0.105<br/>samples = 307<br/>value = [0, 0, 0, 0, 0, 0, 0, 0, 0, 0, 17, 290]<br/>class = Y>, fillcolor="#e74552"] ;
545 -> 547 ;
548 [label=<Interlinear Spacing &le; 1.787<br/>gini = 0.18<br/>samples = 10<br/>value = [0, 0, 0, 0, 0, 0, 0, 0, 0, 0, 9, 1]<br/>class = X>, fillcolor="#e84fa8"] ;
547 -> 548 ;
549 [label=<gini = 0.0<br/>samples = 9<br/>value = [0, 0, 0, 0, 0, 0, 0, 0, 0, 0, 9, 0]<br/>class = X>, fillcolor="#e5399d"] ;
548 -> 549 ;
550 [label=<gini = 0.0<br/>samples = 1<br/>value = [0, 0, 0, 0, 0, 0, 0, 0, 0, 0, 0, 1]<br/>class = Y>, fillcolor="#e53947"] ;
548 -> 550 ;
551 [label=<Weight &le; -1.963<br/>gini = 0.052<br/>samples = 297<br/>value = [0, 0, 0, 0, 0, 0, 0, 0, 0, 0, 8, 289]<br/>class = Y>, fillcolor="#e63e4c"] ;
547 -> 551 ;
552 [label=<Intercolumnar Distance &le; -0.314<br/>gini = 0.444<br/>samples = 3<br/>value = [0, 0, 0, 0, 0, 0, 0, 0, 0, 0, 2, 1]<br/>class = X>, fillcolor="#f29cce"] ;
551 -> 552 ;
553 [label=<gini = 0.0<br/>samples = 2<br/>value = [0, 0, 0, 0, 0, 0, 0, 0, 0, 0, 2, 0]<br/>class = X>, fillcolor="#e5399d"] ;
552 -> 553 ;
554 [label=<gini = 0.0<br/>samples = 1<br/>value = [0, 0, 0, 0, 0, 0, 0, 0, 0, 0, 0, 1]<br/>class = Y>, fillcolor="#e53947"] ;
552 -> 554 ;
555 [label=<Interlinear Spacing &le; 2.183<br/>gini = 0.04<br/>samples = 294<br/>value = [0, 0, 0, 0, 0, 0, 0, 0, 0, 0, 6, 288]<br/>class = Y>, fillcolor="#e63d4b"] ;
551 -> 555 ;
556 [label=<Modular Ratio/Interlinear Spacing &le; -1.954<br/>gini = 0.034<br/>samples = 293<br/>value = [0, 0, 0, 0, 0, 0, 0, 0, 0, 0, 5, 288]<br/>class = Y>, fillcolor="#e53c4a"] ;
555 -> 556 ;
557 [label=<Peak Number &le; -0.715<br/>gini = 0.5<br/>samples = 2<br/>value = [0, 0, 0, 0, 0, 0, 0, 0, 0, 0, 1, 1]<br/>class = X>, fillcolor="#ffffff"] ;
556 -> 557 ;
558 [label=<gini = 0.0<br/>samples = 1<br/>value = [0, 0, 0, 0, 0, 0, 0, 0, 0, 0, 0, 1]<br/>class = Y>, fillcolor="#e53947"] ;
557 -> 558 ;
559 [label=<gini = 0.0<br/>samples = 1<br/>value = [0, 0, 0, 0, 0, 0, 0, 0, 0, 0, 1, 0]<br/>class = X>, fillcolor="#e5399d"] ;
557 -> 559 ;
560 [label=<Peak Number &le; 1.327<br/>gini = 0.027<br/>samples = 291<br/>value = [0, 0, 0, 0, 0, 0, 0, 0, 0, 0, 4, 287]<br/>class = Y>, fillcolor="#e53c4a"] ;
556 -> 560 ;
561 [label=<Modular Ratio/Interlinear Spacing &le; -1.014<br/>gini = 0.021<br/>samples = 288<br/>value = [0, 0, 0, 0, 0, 0, 0, 0, 0, 0, 3, 285]<br/>class = Y>, fillcolor="#e53b49"] ;
560 -> 561 ;
562 [label=<Modular Ratio/Interlinear Spacing &le; -1.064<br/>gini = 0.198<br/>samples = 18<br/>value = [0, 0, 0, 0, 0, 0, 0, 0, 0, 0, 2, 16]<br/>class = Y>, fillcolor="#e8525e"] ;
561 -> 562 ;
563 [label=<gini = 0.0<br/>samples = 16<br/>value = [0, 0, 0, 0, 0, 0, 0, 0, 0, 0, 0, 16]<br/>class = Y>, fillcolor="#e53947"] ;
562 -> 563 ;
564 [label=<gini = 0.0<br/>samples = 2<br/>value = [0, 0, 0, 0, 0, 0, 0, 0, 0, 0, 2, 0]<br/>class = X>, fillcolor="#e5399d"] ;
562 -> 564 ;
565 [label=<Peak Number &le; -1.292<br/>gini = 0.007<br/>samples = 270<br/>value = [0, 0, 0, 0, 0, 0, 0, 0, 0, 0, 1, 269]<br/>class = Y>, fillcolor="#e53a48"] ;
561 -> 565 ;
566 [label=<Modular Ratio &le; 0.356<br/>gini = 0.245<br/>samples = 7<br/>value = [0, 0, 0, 0, 0, 0, 0, 0, 0, 0, 1, 6]<br/>class = Y>, fillcolor="#e95a66"] ;
565 -> 566 ;
567 [label=<gini = 0.0<br/>samples = 6<br/>value = [0, 0, 0, 0, 0, 0, 0, 0, 0, 0, 0, 6]<br/>class = Y>, fillcolor="#e53947"] ;
566 -> 567 ;
568 [label=<gini = 0.0<br/>samples = 1<br/>value = [0, 0, 0, 0, 0, 0, 0, 0, 0, 0, 1, 0]<br/>class = X>, fillcolor="#e5399d"] ;
566 -> 568 ;
569 [label=<gini = 0.0<br/>samples = 263<br/>value = [0, 0, 0, 0, 0, 0, 0, 0, 0, 0, 0, 263]<br/>class = Y>, fillcolor="#e53947"] ;
565 -> 569 ;
570 [label=<Row Number &le; 0.575<br/>gini = 0.444<br/>samples = 3<br/>value = [0, 0, 0, 0, 0, 0, 0, 0, 0, 0, 1, 2]<br/>class = Y>, fillcolor="#f29ca3"] ;
560 -> 570 ;
571 [label=<gini = 0.0<br/>samples = 1<br/>value = [0, 0, 0, 0, 0, 0, 0, 0, 0, 0, 1, 0]<br/>class = X>, fillcolor="#e5399d"] ;
570 -> 571 ;
572 [label=<gini = 0.0<br/>samples = 2<br/>value = [0, 0, 0, 0, 0, 0, 0, 0, 0, 0, 0, 2]<br/>class = Y>, fillcolor="#e53947"] ;
570 -> 572 ;
573 [label=<gini = 0.0<br/>samples = 1<br/>value = [0, 0, 0, 0, 0, 0, 0, 0, 0, 0, 1, 0]<br/>class = X>, fillcolor="#e5399d"] ;
555 -> 573 ;
574 [label=<Lower Margin &le; 0.645<br/>gini = 0.363<br/>samples = 688<br/>value = [0, 3, 0, 4, 51, 0, 8, 2, 8, 0, 542, 70]<br/>class = X>, fillcolor="#eb68b4"] ;
2 -> 574 ;
575 [label=<Intercolumnar Distance &le; -0.431<br/>gini = 0.326<br/>samples = 666<br/>value = [0, 3, 0, 4, 51, 0, 8, 2, 7, 0, 542, 49]<br/>class = X>, fillcolor="#ea61b1"] ;
574 -> 575 ;
576 [label=<Upper Margin &le; -0.401<br/>gini = 0.766<br/>samples = 52<br/>value = [0, 0, 0, 0, 16, 0, 3, 1, 7, 0, 11, 14]<br/>class = E>, fillcolor="#f5fef8"] ;
575 -> 576 ;
577 [label=<Intercolumnar Distance &le; -0.758<br/>gini = 0.493<br/>samples = 25<br/>value = [0, 0, 0, 0, 0, 0, 0, 0, 0, 0, 11, 14]<br/>class = Y>, fillcolor="#f9d5d8"] ;
576 -> 577 ;
578 [label=<gini = 0.0<br/>samples = 11<br/>value = [0, 0, 0, 0, 0, 0, 0, 0, 0, 0, 11, 0]<br/>class = X>, fillcolor="#e5399d"] ;
577 -> 578 ;
579 [label=<gini = 0.0<br/>samples = 14<br/>value = [0, 0, 0, 0, 0, 0, 0, 0, 0, 0, 0, 14]<br/>class = Y>, fillcolor="#e53947"] ;
577 -> 579 ;
580 [label=<Interlinear Spacing &le; -0.535<br/>gini = 0.568<br/>samples = 27<br/>value = [0, 0, 0, 0, 16, 0, 3, 1, 7, 0, 0, 0]<br/>class = E>, fillcolor="#a6f3c6"] ;
576 -> 580 ;
581 [label=<gini = 0.0<br/>samples = 7<br/>value = [0, 0, 0, 0, 0, 0, 0, 0, 7, 0, 0, 0]<br/>class = I>, fillcolor="#8139e5"] ;
580 -> 581 ;
582 [label=<Exploitation &le; 0.135<br/>gini = 0.335<br/>samples = 20<br/>value = [0, 0, 0, 0, 16, 0, 3, 1, 0, 0, 0, 0]<br/>class = E>, fillcolor="#68eb9f"] ;
580 -> 582 ;
583 [label=<Exploitation &le; -0.293<br/>gini = 0.375<br/>samples = 4<br/>value = [0, 0, 0, 0, 0, 0, 3, 1, 0, 0, 0, 0]<br/>class = G>, fillcolor="#7bbeee"] ;
582 -> 583 ;
584 [label=<gini = 0.0<br/>samples = 1<br/>value = [0, 0, 0, 0, 0, 0, 0, 1, 0, 0, 0, 0]<br/>class = H>, fillcolor="#3947e5"] ;
583 -> 584 ;
585 [label=<gini = 0.0<br/>samples = 3<br/>value = [0, 0, 0, 0, 0, 0, 3, 0, 0, 0, 0, 0]<br/>class = G>, fillcolor="#399de5"] ;
583 -> 585 ;
586 [label=<gini = 0.0<br/>samples = 16<br/>value = [0, 0, 0, 0, 16, 0, 0, 0, 0, 0, 0, 0]<br/>class = E>, fillcolor="#39e581"] ;
582 -> 586 ;
587 [label=<Upper Margin &le; 0.192<br/>gini = 0.245<br/>samples = 614<br/>value = [0, 3, 0, 4, 35, 0, 5, 1, 0, 0, 531, 35]<br/>class = X>, fillcolor="#e955ab"] ;
575 -> 587 ;
588 [label=<Row Number &le; 0.575<br/>gini = 0.168<br/>samples = 564<br/>value = [0, 0, 0, 0, 16, 0, 0, 0, 0, 0, 513, 35]<br/>class = X>, fillcolor="#e84ca6"] ;
587 -> 588 ;
589 [label=<Exploitation &le; 0.128<br/>gini = 0.074<br/>samples = 471<br/>value = [0, 0, 0, 0, 16, 0, 0, 0, 0, 0, 453, 2]<br/>class = X>, fillcolor="#e641a1"] ;
588 -> 589 ;
590 [label=<Upper Margin &le; -0.456<br/>gini = 0.496<br/>samples = 22<br/>value = [0, 0, 0, 0, 12, 0, 0, 0, 0, 0, 10, 0]<br/>class = E>, fillcolor="#defbea"] ;
589 -> 590 ;
591 [label=<gini = 0.0<br/>samples = 10<br/>value = [0, 0, 0, 0, 0, 0, 0, 0, 0, 0, 10, 0]<br/>class = X>, fillcolor="#e5399d"] ;
590 -> 591 ;
592 [label=<gini = 0.0<br/>samples = 12<br/>value = [0, 0, 0, 0, 12, 0, 0, 0, 0, 0, 0, 0]<br/>class = E>, fillcolor="#39e581"] ;
590 -> 592 ;
593 [label=<Modular Ratio/Interlinear Spacing &le; -1.802<br/>gini = 0.026<br/>samples = 449<br/>value = [0, 0, 0, 0, 4, 0, 0, 0, 0, 0, 443, 2]<br/>class = X>, fillcolor="#e53c9e"] ;
589 -> 593 ;
594 [label=<Peak Number &le; 2.075<br/>gini = 0.5<br/>samples = 2<br/>value = [0, 0, 0, 0, 0, 0, 0, 0, 0, 0, 1, 1]<br/>class = X>, fillcolor="#ffffff"] ;
593 -> 594 ;
595 [label=<gini = 0.0<br/>samples = 1<br/>value = [0, 0, 0, 0, 0, 0, 0, 0, 0, 0, 1, 0]<br/>class = X>, fillcolor="#e5399d"] ;
594 -> 595 ;
596 [label=<gini = 0.0<br/>samples = 1<br/>value = [0, 0, 0, 0, 0, 0, 0, 0, 0, 0, 0, 1]<br/>class = Y>, fillcolor="#e53947"] ;
594 -> 596 ;
597 [label=<Peak Number &le; 1.42<br/>gini = 0.022<br/>samples = 447<br/>value = [0, 0, 0, 0, 4, 0, 0, 0, 0, 0, 442, 1]<br/>class = X>, fillcolor="#e53b9e"] ;
593 -> 597 ;
598 [label=<Modular Ratio &le; -0.37<br/>gini = 0.231<br/>samples = 15<br/>value = [0, 0, 0, 0, 2, 0, 0, 0, 0, 0, 13, 0]<br/>class = X>, fillcolor="#e957ac"] ;
597 -> 598 ;
599 [label=<Interlinear Spacing &le; 0.786<br/>gini = 0.444<br/>samples = 3<br/>value = [0, 0, 0, 0, 2, 0, 0, 0, 0, 0, 1, 0]<br/>class = E>, fillcolor="#9cf2c0"] ;
598 -> 599 ;
600 [label=<gini = 0.0<br/>samples = 2<br/>value = [0, 0, 0, 0, 2, 0, 0, 0, 0, 0, 0, 0]<br/>class = E>, fillcolor="#39e581"] ;
599 -> 600 ;
601 [label=<gini = 0.0<br/>samples = 1<br/>value = [0, 0, 0, 0, 0, 0, 0, 0, 0, 0, 1, 0]<br/>class = X>, fillcolor="#e5399d"] ;
599 -> 601 ;
602 [label=<gini = 0.0<br/>samples = 12<br/>value = [0, 0, 0, 0, 0, 0, 0, 0, 0, 0, 12, 0]<br/>class = X>, fillcolor="#e5399d"] ;
598 -> 602 ;
603 [label=<Peak Number &le; 1.576<br/>gini = 0.014<br/>samples = 432<br/>value = [0, 0, 0, 0, 2, 0, 0, 0, 0, 0, 429, 1]<br/>class = X>, fillcolor="#e53a9e"] ;
597 -> 603 ;
604 [label=<Modular Ratio/Interlinear Spacing &le; -0.163<br/>gini = 0.065<br/>samples = 59<br/>value = [0, 0, 0, 0, 2, 0, 0, 0, 0, 0, 57, 0]<br/>class = X>, fillcolor="#e640a0"] ;
603 -> 604 ;
605 [label=<Modular Ratio/Interlinear Spacing &le; -0.352<br/>gini = 0.32<br/>samples = 10<br/>value = [0, 0, 0, 0, 2, 0, 0, 0, 0, 0, 8, 0]<br/>class = X>, fillcolor="#ec6ab6"] ;
604 -> 605 ;
606 [label=<gini = 0.0<br/>samples = 7<br/>value = [0, 0, 0, 0, 0, 0, 0, 0, 0, 0, 7, 0]<br/>class = X>, fillcolor="#e5399d"] ;
605 -> 606 ;
607 [label=<Intercolumnar Distance &le; -0.271<br/>gini = 0.444<br/>samples = 3<br/>value = [0, 0, 0, 0, 2, 0, 0, 0, 0, 0, 1, 0]<br/>class = E>, fillcolor="#9cf2c0"] ;
605 -> 607 ;
608 [label=<gini = 0.0<br/>samples = 2<br/>value = [0, 0, 0, 0, 2, 0, 0, 0, 0, 0, 0, 0]<br/>class = E>, fillcolor="#39e581"] ;
607 -> 608 ;
609 [label=<gini = 0.0<br/>samples = 1<br/>value = [0, 0, 0, 0, 0, 0, 0, 0, 0, 0, 1, 0]<br/>class = X>, fillcolor="#e5399d"] ;
607 -> 609 ;
610 [label=<gini = 0.0<br/>samples = 49<br/>value = [0, 0, 0, 0, 0, 0, 0, 0, 0, 0, 49, 0]<br/>class = X>, fillcolor="#e5399d"] ;
604 -> 610 ;
611 [label=<Row Number &le; 0.396<br/>gini = 0.005<br/>samples = 373<br/>value = [0, 0, 0, 0, 0, 0, 0, 0, 0, 0, 372, 1]<br/>class = X>, fillcolor="#e53a9d"] ;
603 -> 611 ;
612 [label=<gini = 0.0<br/>samples = 321<br/>value = [0, 0, 0, 0, 0, 0, 0, 0, 0, 0, 321, 0]<br/>class = X>, fillcolor="#e5399d"] ;
611 -> 612 ;
613 [label=<Interlinear Spacing &le; -0.629<br/>gini = 0.038<br/>samples = 52<br/>value = [0, 0, 0, 0, 0, 0, 0, 0, 0, 0, 51, 1]<br/>class = X>, fillcolor="#e63d9f"] ;
611 -> 613 ;
614 [label=<gini = 0.0<br/>samples = 45<br/>value = [0, 0, 0, 0, 0, 0, 0, 0, 0, 0, 45, 0]<br/>class = X>, fillcolor="#e5399d"] ;
613 -> 614 ;
615 [label=<Interlinear Spacing &le; -0.459<br/>gini = 0.245<br/>samples = 7<br/>value = [0, 0, 0, 0, 0, 0, 0, 0, 0, 0, 6, 1]<br/>class = X>, fillcolor="#e95aad"] ;
613 -> 615 ;
616 [label=<gini = 0.0<br/>samples = 1<br/>value = [0, 0, 0, 0, 0, 0, 0, 0, 0, 0, 0, 1]<br/>class = Y>, fillcolor="#e53947"] ;
615 -> 616 ;
617 [label=<gini = 0.0<br/>samples = 6<br/>value = [0, 0, 0, 0, 0, 0, 0, 0, 0, 0, 6, 0]<br/>class = X>, fillcolor="#e5399d"] ;
615 -> 617 ;
618 [label=<Intercolumnar Distance &le; -0.197<br/>gini = 0.458<br/>samples = 93<br/>value = [0, 0, 0, 0, 0, 0, 0, 0, 0, 0, 60, 33]<br/>class = X>, fillcolor="#f3a6d3"] ;
588 -> 618 ;
619 [label=<Exploitation &le; 0.91<br/>gini = 0.117<br/>samples = 64<br/>value = [0, 0, 0, 0, 0, 0, 0, 0, 0, 0, 60, 4]<br/>class = X>, fillcolor="#e746a4"] ;
618 -> 619 ;
620 [label=<gini = 0.0<br/>samples = 2<br/>value = [0, 0, 0, 0, 0, 0, 0, 0, 0, 0, 0, 2]<br/>class = Y>, fillcolor="#e53947"] ;
619 -> 620 ;
621 [label=<Upper Margin &le; -0.221<br/>gini = 0.062<br/>samples = 62<br/>value = [0, 0, 0, 0, 0, 0, 0, 0, 0, 0, 60, 2]<br/>class = X>, fillcolor="#e640a0"] ;
619 -> 621 ;
622 [label=<gini = 0.0<br/>samples = 60<br/>value = [0, 0, 0, 0, 0, 0, 0, 0, 0, 0, 60, 0]<br/>class = X>, fillcolor="#e5399d"] ;
621 -> 622 ;
623 [label=<gini = 0.0<br/>samples = 2<br/>value = [0, 0, 0, 0, 0, 0, 0, 0, 0, 0, 0, 2]<br/>class = Y>, fillcolor="#e53947"] ;
621 -> 623 ;
624 [label=<gini = 0.0<br/>samples = 29<br/>value = [0, 0, 0, 0, 0, 0, 0, 0, 0, 0, 0, 29]<br/>class = Y>, fillcolor="#e53947"] ;
618 -> 624 ;
625 [label=<Lower Margin &le; 0.44<br/>gini = 0.706<br/>samples = 50<br/>value = [0, 3, 0, 4, 19, 0, 5, 1, 0, 0, 18, 0]<br/>class = E>, fillcolor="#f9fefb"] ;
587 -> 625 ;
626 [label=<Upper Margin &le; 0.266<br/>gini = 0.61<br/>samples = 31<br/>value = [0, 3, 0, 4, 18, 0, 5, 1, 0, 0, 0, 0]<br/>class = E>, fillcolor="#9cf2c0"] ;
625 -> 626 ;
627 [label=<Peak Number &le; 1.389<br/>gini = 0.105<br/>samples = 18<br/>value = [0, 0, 0, 0, 17, 0, 0, 1, 0, 0, 0, 0]<br/>class = E>, fillcolor="#45e788"] ;
626 -> 627 ;
628 [label=<gini = 0.0<br/>samples = 1<br/>value = [0, 0, 0, 0, 0, 0, 0, 1, 0, 0, 0, 0]<br/>class = H>, fillcolor="#3947e5"] ;
627 -> 628 ;
